{"type":"LSTM","options":{"inputSize":35,"inputRange":35,"hiddenLayers":[20,20],"outputSize":35,"decayRate":0.999,"smoothEps":1e-8,"regc":0.000001,"clipval":5,"maxPredictionLength":100,"dataFormatter":{"values":["I am an intelligent AI","I am fine, thank you","Why don't scientists trust atoms? Because they make up everything!","goodbye","hello","hi there","how are you","see you later","tell me a joke","what is your name"],"indexTable":{"I":0," ":1,"a":2,"m":3,"n":4,"i":5,"t":6,"e":7,"l":8,"g":9,"A":10,"f":11,",":12,"h":13,"k":14,"y":15,"o":16,"u":17,"W":18,"d":19,"'":20,"s":21,"c":22,"r":23,"?":24,"B":25,"p":26,"v":27,"!":28,"b":29,"w":30,"j":31,"stop-input":32,"start-output":33,"unrecognized":34},"characterTable":{"0":"I","1":" ","2":"a","3":"m","4":"n","5":"i","6":"t","7":"e","8":"l","9":"g","10":"A","11":"f","12":",","13":"h","14":"k","15":"y","16":"o","17":"u","18":"W","19":"d","20":"'","21":"s","22":"c","23":"r","24":"?","25":"B","26":"p","27":"v","28":"!","29":"b","30":"w","31":"j","32":null,"33":null,"34":null},"characters":["I"," ","a","m","n","i","t","e","l","g","A","f",",","h","k","y","o","u","W","d","'","s","c","r","?","B","p","v","!","b","w","j","stop-input","start-output","unrecognized"],"specialIndexes":[32,33,34]}},"input":{"rows":36,"columns":35,"weights":{"0":1.4029806852340698,"1":-0.7958655953407288,"2":1.1716678142547607,"3":0.8424036502838135,"4":-0.29706546664237976,"5":0.18548421561717987,"6":-2.339399814605713,"7":1.277418613433838,"8":0.7135353684425354,"9":-0.9661762118339539,"10":-0.039956919848918915,"11":-1.4166650772094727,"12":-0.049961287528276443,"13":0.7711355090141296,"14":-0.7795857787132263,"15":-0.33583468198776245,"16":-0.582277238368988,"17":-0.4426189661026001,"18":-0.9746195673942566,"19":1.2301186323165894,"20":0.830945611000061,"21":0.031929861754179,"22":1.255820631980896,"23":-1.3513997793197632,"24":-0.05450855940580368,"25":1.0689486265182495,"26":-2.1913070678710938,"27":-0.6788567304611206,"28":-1.3279545307159424,"29":0.6732082366943359,"30":-0.1406625658273697,"31":-1.3713939189910889,"32":-1.8596866130828857,"33":-0.21857035160064697,"34":0.7024962306022644,"35":-2.238360643386841,"36":0.513397753238678,"37":-0.6788609027862549,"38":-2.309623956680298,"39":1.8397315740585327,"40":0.10411930084228516,"41":2.480097532272339,"42":-1.968016505241394,"43":-0.4166911244392395,"44":2.195460081100464,"45":2.0445339679718018,"46":-1.0654857158660889,"47":0.22080180048942566,"48":-0.47507724165916443,"49":1.7151966094970703,"50":1.3450921773910522,"51":-1.123758316040039,"52":-0.11074429750442505,"53":-0.8384508490562439,"54":-1.4830093383789062,"55":3.0517687797546387,"56":0.38384541869163513,"57":-2.1433234214782715,"58":3.5384011268615723,"59":0.3103478252887726,"60":-1.7223509550094604,"61":1.9553841352462769,"62":-0.00394628569483757,"63":3.976097345352173,"64":2.461477041244507,"65":1.7534884214401245,"66":1.446815013885498,"67":1.707000970840454,"68":0.024803781881928444,"69":-1.9236338138580322,"70":-0.6505009531974792,"71":0.4061841070652008,"72":0.30515649914741516,"73":-0.7367830276489258,"74":0.7004300951957703,"75":-1.4268690347671509,"76":0.9390232563018799,"77":-1.6763272285461426,"78":-0.8184744119644165,"79":0.3752998113632202,"80":-0.44621559977531433,"81":0.1739445924758911,"82":0.42822355031967163,"83":-0.45865508913993835,"84":1.1259130239486694,"85":0.717570424079895,"86":1.3987667560577393,"87":0.04449917748570442,"88":-0.27668583393096924,"89":-0.4101054072380066,"90":-0.82588130235672,"91":-0.39913561940193176,"92":-0.827698826789856,"93":0.40321001410484314,"94":0.9178231358528137,"95":-0.5606833100318909,"96":1.5889180898666382,"97":-0.4059666395187378,"98":-0.7822807431221008,"99":0.7134588956832886,"100":0.6112717390060425,"101":0.182855486869812,"102":0.3842040002346039,"103":-0.9373451471328735,"104":-0.8496603965759277,"105":0.57967209815979,"106":2.2231812477111816,"107":-0.8208523392677307,"108":-1.0954211950302124,"109":0.46602967381477356,"110":-0.4950758218765259,"111":-0.974975049495697,"112":-0.36379536986351013,"113":-0.6881635785102844,"114":2.0264337062835693,"115":1.7230209112167358,"116":0.2720389664173126,"117":1.2648311853408813,"118":-0.2953605353832245,"119":-0.2836185097694397,"120":0.349825382232666,"121":2.6436173915863037,"122":-0.0739615187048912,"123":-0.17072775959968567,"124":-1.0576509237289429,"125":0.21457688510417938,"126":1.7661288976669312,"127":-0.5684083104133606,"128":1.6827514171600342,"129":-0.4391345977783203,"130":-0.33046624064445496,"131":1.2280042171478271,"132":-0.06702964007854462,"133":-0.4761739671230316,"134":3.6606907844543457,"135":-0.5619533061981201,"136":0.18226303160190582,"137":1.0306992530822754,"138":-0.20575886964797974,"139":-0.8639866709709167,"140":3.130699872970581,"141":-2.2670345306396484,"142":-0.22518068552017212,"143":4.718337535858154,"144":-0.18981999158859253,"145":2.6729774475097656,"146":-0.12890484929084778,"147":2.866333484649658,"148":-0.715490460395813,"149":-1.9164377450942993,"150":-4.316148281097412,"151":-0.3454444408416748,"152":0.5390615463256836,"153":-1.1455676555633545,"154":-1.4661692380905151,"155":-0.9787387847900391,"156":-0.4316481649875641,"157":0.6275232434272766,"158":1.59192955493927,"159":-0.6235501170158386,"160":-0.4616923928260803,"161":-1.5407111644744873,"162":0.43516531586647034,"163":-2.7040045261383057,"164":2.1987762451171875,"165":4.775191307067871,"166":-3.3291280269622803,"167":-4.25570821762085,"168":2.2235474586486816,"169":-1.3988888263702393,"170":0.25502946972846985,"171":-0.8755284547805786,"172":0.13692043721675873,"173":-1.0396326780319214,"174":2.115750551223755,"175":0.2343302071094513,"176":-1.3998959064483643,"177":2.595700740814209,"178":0.7805750370025635,"179":-2.1085376739501953,"180":2.324514150619507,"181":-0.8678199052810669,"182":-0.7646764516830444,"183":1.8469318151474,"184":-0.6584925055503845,"185":-0.5072239637374878,"186":-2.224463701248169,"187":0.7309067845344543,"188":2.3560850620269775,"189":-1.1200977563858032,"190":-0.8542897701263428,"191":1.7360234260559082,"192":-2.6753530502319336,"193":-2.0042624473571777,"194":2.1301863193511963,"195":1.0040881633758545,"196":0.662699282169342,"197":-1.4103330373764038,"198":-1.370025873184204,"199":-1.1903904676437378,"200":3.074326992034912,"201":1.0741980075836182,"202":-2.378664255142212,"203":-3.094432830810547,"204":1.7000981569290161,"205":-0.6285999417304993,"206":-1.905013918876648,"207":-0.31200486421585083,"208":-1.2181020975112915,"209":0.6157617568969727,"210":-1.6935505867004395,"211":-1.2243869304656982,"212":-1.2342114448547363,"213":-0.42993369698524475,"214":0.6232535243034363,"215":2.504457950592041,"216":0.018090756610035896,"217":0.34986013174057007,"218":-2.1399149894714355,"219":-1.9063560962677002,"220":-1.6152926683425903,"221":-2.625408887863159,"222":0.9998584985733032,"223":1.6778194904327393,"224":0.5627821683883667,"225":1.0182602405548096,"226":-0.4277614951133728,"227":-1.779179573059082,"228":-0.7479166984558105,"229":-0.727036714553833,"230":-0.5090612769126892,"231":-1.2392855882644653,"232":0.24032674729824066,"233":-2.638129234313965,"234":-1.8726953268051147,"235":-1.768251895904541,"236":-1.743241786956787,"237":-0.2895354926586151,"238":1.4559911489486694,"239":-1.0416169166564941,"240":0.1432420015335083,"241":2.3616297245025635,"242":0.7031964659690857,"243":-0.12927277386188507,"244":1.5745000839233398,"245":0.11068318784236908,"246":1.4162040948867798,"247":-0.48935267329216003,"248":-2.0469772815704346,"249":0.4498113691806793,"250":0.6641772985458374,"251":-0.28431665897369385,"252":-1.782623291015625,"253":-0.2650640904903412,"254":0.7642635703086853,"255":-0.35676756501197815,"256":0.031962405890226364,"257":0.10017517954111099,"258":-2.0528407096862793,"259":0.11797845363616943,"260":2.3166635036468506,"261":-0.15297988057136536,"262":0.2702779471874237,"263":0.9892754554748535,"264":-0.3034476935863495,"265":2.170541286468506,"266":0.8168568015098572,"267":0.29292064905166626,"268":-0.6696874499320984,"269":-0.140964075922966,"270":-0.044265102595090866,"271":0.616867184638977,"272":0.4136761724948883,"273":1.9808719158172607,"274":0.08465894311666489,"275":-0.39385321736335754,"276":0.007404346950352192,"277":-0.3107380270957947,"278":-0.7065852880477905,"279":-0.27362850308418274,"280":-1.8358137607574463,"281":1.4473233222961426,"282":0.2761203348636627,"283":-0.18222352862358093,"284":-0.28703320026397705,"285":-1.1110522747039795,"286":-0.9274168610572815,"287":0.05736037343740463,"288":0.2497924119234085,"289":1.9460902214050293,"290":0.9714645147323608,"291":-2.2345941066741943,"292":-0.8002181053161621,"293":0.28720852732658386,"294":-0.23731876909732819,"295":-1.289788842201233,"296":-1.1988892555236816,"297":-0.10474184155464172,"298":-0.2922777235507965,"299":0.40872785449028015,"300":0.5339018106460571,"301":0.9889266490936279,"302":0.10238637030124664,"303":0.5813189148902893,"304":-0.06326423585414886,"305":-0.7541860938072205,"306":0.8506568074226379,"307":0.6373280882835388,"308":-1.1921566724777222,"309":-1.1131173372268677,"310":-0.2530765235424042,"311":1.195067286491394,"312":-0.08633583784103394,"313":-0.9624719619750977,"314":-0.2741806209087372,"315":-0.3262794315814972,"316":1.0822902917861938,"317":-0.5913485288619995,"318":-1.5716551542282104,"319":1.5039974451065063,"320":-0.566504955291748,"321":1.9570647478103638,"322":-2.7952890396118164,"323":-0.4639504849910736,"324":1.779530644416809,"325":2.195082664489746,"326":-0.07268092781305313,"327":0.6321226954460144,"328":-0.9357845187187195,"329":1.0412051677703857,"330":0.36820656061172485,"331":-0.08093930035829544,"332":-0.2746994197368622,"333":-0.04495592787861824,"334":-1.001144528388977,"335":1.1360540390014648,"336":0.38923144340515137,"337":-0.7436357140541077,"338":1.3793208599090576,"339":0.20663516223430634,"340":0.5599031448364258,"341":1.2948429584503174,"342":-0.025064213201403618,"343":1.207877516746521,"344":1.6825470924377441,"345":2.208627462387085,"346":-0.5807900428771973,"347":1.9789366722106934,"348":-0.09699927270412445,"349":-0.7372514605522156,"350":-0.6447725296020508,"351":-0.20636142790317535,"352":3.906048536300659,"353":1.1221716403961182,"354":-1.9565292596817017,"355":-0.4349372088909149,"356":0.8120182752609253,"357":1.1614763736724854,"358":4.176967144012451,"359":1.028439998626709,"360":0.5683930516242981,"361":2.750953197479248,"362":-1.8101484775543213,"363":-0.03589813783764839,"364":1.685542106628418,"365":-0.0989198386669159,"366":-1.623125433921814,"367":2.106393814086914,"368":-0.3169998824596405,"369":2.573627233505249,"370":0.23894651234149933,"371":0.677803635597229,"372":-0.39261558651924133,"373":-0.29678231477737427,"374":1.2952287197113037,"375":2.135434627532959,"376":0.6417110562324524,"377":0.7203848361968994,"378":0.1524069756269455,"379":-1.8181804418563843,"380":-1.826688289642334,"381":0.9033596515655518,"382":-1.7008615732192993,"383":-1.011483073234558,"384":-0.7577452659606934,"385":-3.167854070663452,"386":-3.0612025260925293,"387":-0.04534735530614853,"388":-7.405713081359863,"389":1.286767601966858,"390":3.279094934463501,"391":0.887309730052948,"392":-1.9857563972473145,"393":-1.3398253917694092,"394":-2.6677393913269043,"395":-2.8459460735321045,"396":-2.0446677207946777,"397":3.1431570053100586,"398":-0.6684698462486267,"399":-1.4556463956832886,"400":4.410732269287109,"401":-1.487851619720459,"402":2.1334707736968994,"403":4.344303131103516,"404":-1.0508774518966675,"405":2.841068983078003,"406":-3.141331911087036,"407":2.607715368270874,"408":-3.3815410137176514,"409":3.2841434478759766,"410":-1.9235236644744873,"411":-2.2415921688079834,"412":-1.508966326713562,"413":3.945493221282959,"414":-6.319416522979736,"415":1.0226256847381592,"416":2.6060948371887207,"417":-3.5584022998809814,"418":-2.039797782897949,"419":5.473718643188477,"420":0.6850674152374268,"421":1.8818960189819336,"422":1.9665641784667969,"423":-0.25944840908050537,"424":-1.0415499210357666,"425":-2.847264051437378,"426":-5.343094348907471,"427":0.021659348160028458,"428":1.2379595041275024,"429":-1.6869481801986694,"430":3.905792713165283,"431":5.531394004821777,"432":-7.066314697265625,"433":-2.7424089908599854,"434":-1.3749765157699585,"435":0.9773239493370056,"436":-0.5240522623062134,"437":5.934540748596191,"438":3.096683979034424,"439":2.2132513523101807,"440":-1.3407412767410278,"441":4.4016876220703125,"442":5.473380088806152,"443":0.8921695947647095,"444":4.111071586608887,"445":5.7789435386657715,"446":1.281754970550537,"447":5.030678749084473,"448":4.370716571807861,"449":-0.1379256546497345,"450":-1.1380834579467773,"451":0.10886505246162415,"452":-4.153874397277832,"453":2.3903636932373047,"454":-5.388864517211914,"455":-3.0921342372894287,"456":-0.4216225743293762,"457":0.6963344216346741,"458":-2.701042890548706,"459":1.0280051231384277,"460":0.10939603298902512,"461":-2.1603665351867676,"462":3.3357081413269043,"463":-1.2135565280914307,"464":1.5021663904190063,"465":-0.31983643770217896,"466":1.498193621635437,"467":-2.58502459526062,"468":-0.4688884913921356,"469":0.9155849814414978,"470":2.844099283218384,"471":-1.868752360343933,"472":1.564449667930603,"473":1.3974794149398804,"474":-0.320279061794281,"475":-0.010423191823065281,"476":-0.4064176678657532,"477":3.0985023975372314,"478":-2.0179266929626465,"479":-2.50917911529541,"480":-5.895590305328369,"481":-4.01683235168457,"482":1.872072696685791,"483":2.970489740371704,"484":-0.967171311378479,"485":-1.9178637266159058,"486":3.971184015274048,"487":-2.7100183963775635,"488":0.17487148940563202,"489":-2.371931791305542,"490":-0.898577094078064,"491":-1.1134302616119385,"492":-0.48225921392440796,"493":-2.008592367172241,"494":0.897689700126648,"495":2.0650386810302734,"496":-0.40091365575790405,"497":0.8142149448394775,"498":-1.2687574625015259,"499":-2.41872501373291,"500":-3.2259044647216797,"501":-1.6460243463516235,"502":3.42594575881958,"503":0.4116098880767822,"504":-2.9262704849243164,"505":-0.1969633847475052,"506":0.9994178414344788,"507":-1.6811102628707886,"508":1.3043345212936401,"509":-1.090968132019043,"510":-1.5572669506072998,"511":-3.5105438232421875,"512":0.27601441740989685,"513":-1.8452683687210083,"514":-0.9692056179046631,"515":0.03163687139749527,"516":-1.7162630558013916,"517":-1.9184107780456543,"518":2.7574527263641357,"519":1.7451515197753906,"520":0.5221524834632874,"521":0.7431051135063171,"522":-1.11093008518219,"523":-1.465012788772583,"524":1.9633231163024902,"525":-0.05805221572518349,"526":5.905932426452637,"527":0.49404850602149963,"528":1.6922492980957031,"529":0.36559244990348816,"530":-3.298250675201416,"531":-1.5273371934890747,"532":-0.44100749492645264,"533":0.011652753688395023,"534":3.722465753555298,"535":6.126368045806885,"536":0.48358651995658875,"537":-3.144023895263672,"538":0.4847964346408844,"539":1.8358452320098877,"540":1.2501312494277954,"541":-4.533010005950928,"542":4.557704448699951,"543":-0.167725071310997,"544":0.7593596577644348,"545":0.9144386053085327,"546":0.6850859522819519,"547":1.3887821435928345,"548":1.2178624868392944,"549":1.390893578529358,"550":1.0067181587219238,"551":-1.8631891012191772,"552":2.6899352073669434,"553":0.13047093152999878,"554":-0.4302540123462677,"555":0.6970299482345581,"556":-0.19550281763076782,"557":-0.6744571924209595,"558":1.1452248096466064,"559":-2.538041830062866,"560":-1.036110758781433,"561":-1.669474720954895,"562":-1.8033729791641235,"563":0.6054401993751526,"564":1.5047062635421753,"565":3.0135538578033447,"566":0.10745427757501602,"567":0.3736575245857239,"568":-0.9604206085205078,"569":-1.9044681787490845,"570":-0.19558924436569214,"571":0.11861071735620499,"572":-0.44118764996528625,"573":1.2777336835861206,"574":-1.6235778331756592,"575":-0.5822576880455017,"576":0.57832270860672,"577":0.010673195123672485,"578":-0.6278609037399292,"579":-1.533761739730835,"580":0.06970406323671341,"581":0.265095591545105,"582":-0.1930146962404251,"583":-1.2932344675064087,"584":-0.09227754920721054,"585":-0.19145146012306213,"586":-1.606952428817749,"587":-1.6196246147155762,"588":-0.3666267991065979,"589":0.2326188087463379,"590":1.4531564712524414,"591":3.196742534637451,"592":0.5410465002059937,"593":-1.0116627216339111,"594":1.5344942808151245,"595":3.5529747009277344,"596":0.7557170987129211,"597":0.350436806678772,"598":0.5870229005813599,"599":-1.6012036800384521,"600":0.05525653809309006,"601":-3.5011067390441895,"602":0.14647795259952545,"603":0.9348151683807373,"604":0.23031111061573029,"605":-0.27797266840934753,"606":0.5464399456977844,"607":1.3856704235076904,"608":-0.6505425572395325,"609":-0.7151199579238892,"610":0.1812291294336319,"611":0.6218968629837036,"612":0.9827528595924377,"613":0.7885797023773193,"614":1.8434971570968628,"615":-1.622029185295105,"616":-0.4597148299217224,"617":3.296647310256958,"618":-0.5697348117828369,"619":1.0877093076705933,"620":-0.25573667883872986,"621":-0.5788765549659729,"622":-0.17689763009548187,"623":0.18519221246242523,"624":0.25163519382476807,"625":-2.076876401901245,"626":-2.5856354236602783,"627":-2.287909984588623,"628":0.4216271936893463,"629":-0.6161928772926331,"630":0.26614758372306824,"631":0.04585763439536095,"632":0.3225967586040497,"633":-3.953735113143921,"634":-0.8430376052856445,"635":1.480857253074646,"636":0.7791379690170288,"637":-1.393437385559082,"638":0.3365805745124817,"639":-0.060607194900512695,"640":0.18084250390529633,"641":-1.1633286476135254,"642":1.8811395168304443,"643":-1.7371541261672974,"644":0.09585852175951004,"645":3.7921619415283203,"646":1.6318848133087158,"647":0.297732412815094,"648":1.5080702304840088,"649":0.32558757066726685,"650":0.07897687703371048,"651":-0.4157489538192749,"652":-1.2804057598114014,"653":-0.46908560395240784,"654":-1.0200352668762207,"655":-1.7560139894485474,"656":0.3717002272605896,"657":-0.22946463525295258,"658":1.376128077507019,"659":0.7449599504470825,"660":-1.5370465517044067,"661":0.6585087180137634,"662":0.5211609601974487,"663":-0.36739328503608704,"664":0.11761272698640823,"665":2.5195648670196533,"666":-5.915661811828613,"667":-2.2236886024475098,"668":-0.9525340795516968,"669":0.9990943670272827,"670":-2.299722909927368,"671":-1.0521328449249268,"672":2.05631685256958,"673":-3.095482110977173,"674":-2.7653541564941406,"675":1.4331891536712646,"676":-1.026533842086792,"677":-0.0003154676523990929,"678":-0.29770955443382263,"679":3.421785593032837,"680":-0.7660687565803528,"681":-2.6874732971191406,"682":-1.6921128034591675,"683":-1.7395133972167969,"684":-1.6094403266906738,"685":1.2992526292800903,"686":-1.6794301271438599,"687":1.126787781715393,"688":-4.418715476989746,"689":-5.719321250915527,"690":-1.5904332399368286,"691":-9.027976989746094,"692":3.3629579544067383,"693":-2.3324472904205322,"694":5.800801753997803,"695":2.2266974449157715,"696":-2.2070021629333496,"697":0.9024860262870789,"698":2.0682036876678467,"699":2.270158052444458,"700":1.573905348777771,"701":-0.8323500752449036,"702":1.1770235300064087,"703":3.4703614711761475,"704":-2.457660675048828,"705":0.5126273036003113,"706":-3.5447821617126465,"707":3.1273365020751953,"708":0.8756458163261414,"709":-2.071815013885498,"710":-1.1199486255645752,"711":0.11144521832466125,"712":1.1526142358779907,"713":-0.8619718551635742,"714":-3.784862995147705,"715":-2.309640645980835,"716":0.46891358494758606,"717":-0.0013809790834784508,"718":-0.7168625593185425,"719":1.9156619310379028,"720":-1.9521018266677856,"721":-0.5149163007736206,"722":0.6137775778770447,"723":-1.5757503509521484,"724":-0.6649141311645508,"725":1.630766749382019,"726":-3.009519577026367,"727":0.19173741340637207,"728":-2.7045459747314453,"729":1.8712708950042725,"730":-2.1349189281463623,"731":-0.7843368649482727,"732":-2.3237814903259277,"733":-0.2817983031272888,"734":0.23631606996059418,"735":-5.832311153411865,"736":-1.7126203775405884,"737":-4.204868316650391,"738":-0.2243920862674713,"739":2.9083328247070312,"740":1.7413631677627563,"741":3.6736485958099365,"742":0.3480844497680664,"743":-3.920170545578003,"744":1.3072572946548462,"745":3.0390238761901855,"746":-1.9966299533843994,"747":0.9101080894470215,"748":2.0524697303771973,"749":-1.8878629207611084,"750":-3.516273021697998,"751":-1.8540714979171753,"752":-0.7160809636116028,"753":-0.7631934285163879,"754":-2.5268468856811523,"755":3.189978837966919,"756":1.7854795455932617,"757":0.7275516986846924,"758":4.193307399749756,"759":-1.5582118034362793,"760":-4.472519397735596,"761":-0.0037544008810073137,"762":1.5289032459259033,"763":-0.162684366106987,"764":0.8828518390655518,"765":1.3911322355270386,"766":3.7160329818725586,"767":3.9291999340057373,"768":1.4734642505645752,"769":2.5746872425079346,"770":2.4759278297424316,"771":1.1175485849380493,"772":-0.03796716779470444,"773":-1.2036569118499756,"774":-1.4889267683029175,"775":-0.15142758190631866,"776":-3.5550408363342285,"777":0.5746460556983948,"778":2.897200584411621,"779":0.7640905380249023,"780":-0.34356021881103516,"781":-0.6450647711753845,"782":2.2470309734344482,"783":0.4524421691894531,"784":-1.1212105751037598,"785":0.3416576385498047,"786":1.2130606174468994,"787":-0.5686672329902649,"788":0.7738773226737976,"789":0.7040808796882629,"790":-3.3553836345672607,"791":-0.9330267310142517,"792":2.8195838928222656,"793":-0.2829532325267792,"794":-0.3781965374946594,"795":-0.3717241883277893,"796":0.3680807054042816,"797":0.041293688118457794,"798":0.636579155921936,"799":1.2762537002563477,"800":-1.5783168077468872,"801":-2.407527208328247,"802":-3.3476650714874268,"803":-2.1237871646881104,"804":0.2867998778820038,"805":4.415262222290039,"806":3.9192159175872803,"807":0.30669689178466797,"808":-2.8592898845672607,"809":0.6455537676811218,"810":-2.8585362434387207,"811":-4.469680309295654,"812":-1.1858587265014648,"813":1.6148340702056885,"814":3.606625556945801,"815":1.225974202156067,"816":-0.7218790650367737,"817":-2.39729905128479,"818":-5.9098076820373535,"819":5.561936855316162,"820":2.5614609718322754,"821":1.9745113849639893,"822":5.5642170906066895,"823":2.0041139125823975,"824":-0.46328794956207275,"825":-1.8099405765533447,"826":0.9441447854042053,"827":3.3874471187591553,"828":-0.5167065262794495,"829":3.721400499343872,"830":-0.2961806058883667,"831":-1.3005759716033936,"832":5.148443222045898,"833":4.226554870605469,"834":0.6375397443771362,"835":0.36957305669784546,"836":0.5576903223991394,"837":-3.0987470149993896,"838":0.6411752104759216,"839":-3.599081039428711,"840":1.5311092138290405,"841":0.301683634519577,"842":2.2123966217041016,"843":-0.6145102977752686,"844":-1.8408092260360718,"845":0.8332296013832092,"846":-1.9131274223327637,"847":-0.23181720077991486,"848":1.6387560367584229,"849":-0.15131226181983948,"850":-1.1424682140350342,"851":1.557611107826233,"852":1.275025486946106,"853":0.3267281651496887,"854":-0.7496849894523621,"855":0.2898539900779724,"856":0.9316221475601196,"857":-0.015909656882286072,"858":0.569391131401062,"859":2.256798505783081,"860":-2.2455389499664307,"861":-0.5909009575843811,"862":1.9374334812164307,"863":-1.095374345779419,"864":2.1498026847839355,"865":0.010873529128730297,"866":0.4553319215774536,"867":-0.25952357053756714,"868":-0.42620518803596497,"869":-1.3771426677703857,"870":-3.0191423892974854,"871":-2.475257158279419,"872":-2.4458634853363037,"873":-0.5908068418502808,"874":0.37172791361808777,"875":0.5018377900123596,"876":1.149530053138733,"877":3.2556674480438232,"878":-1.0025386810302734,"879":-2.282787799835205,"880":-1.4039835929870605,"881":-4.5583906173706055,"882":1.4348822832107544,"883":1.3561758995056152,"884":-1.936560869216919,"885":1.9372978210449219,"886":-3.039752244949341,"887":-1.5337953567504883,"888":0.9774196147918701,"889":4.038917541503906,"890":-2.0752735137939453,"891":-1.3180267810821533,"892":-1.8499633073806763,"893":-1.6329036951065063,"894":3.7422292232513428,"895":-1.4003993272781372,"896":2.992948532104492,"897":4.521881103515625,"898":-0.7362877726554871,"899":0.13736987113952637,"900":2.4512715339660645,"901":1.83879554271698,"902":4.110044002532959,"903":-0.42265889048576355,"904":2.2663381099700928,"905":-1.2766079902648926,"906":-0.9058331847190857,"907":-2.6876351833343506,"908":-0.43835344910621643,"909":-0.7431918978691101,"910":-0.5529054999351501,"911":4.602964878082275,"912":-2.201213836669922,"913":-4.077725410461426,"914":-0.9513762593269348,"915":1.9500164985656738,"916":3.794919490814209,"917":-3.3364036083221436,"918":0.102424755692482,"919":3.3657844066619873,"920":0.9721564650535583,"921":-1.55131196975708,"922":-1.383682131767273,"923":-5.050715446472168,"924":-2.4946415424346924,"925":1.8007018566131592,"926":-0.17450444400310516,"927":4.346339225769043,"928":4.128973007202148,"929":-1.4681336879730225,"930":0.34734106063842773,"931":2.5085256099700928,"932":-1.5213922262191772,"933":-0.5207787156105042,"934":7.41909646987915,"935":3.7196035385131836,"936":-1.3821524381637573,"937":-2.1501388549804688,"938":3.6137773990631104,"939":-2.9245336055755615,"940":-0.2562043368816376,"941":-1.7731605768203735,"942":-0.005355942528694868,"943":2.582324981689453,"944":1.518187403678894,"945":-4.901559352874756,"946":0.8453182578086853,"947":-3.035259246826172,"948":2.8896372318267822,"949":2.888434886932373,"950":-2.221487283706665,"951":3.5225822925567627,"952":2.4400641918182373,"953":-6.730346202850342,"954":0.15169963240623474,"955":2.3838348388671875,"956":3.4430086612701416,"957":-1.0083619356155396,"958":5.387880325317383,"959":0.1960313618183136,"960":0.6000150442123413,"961":-1.653580904006958,"962":3.5289247035980225,"963":-4.0884904861450195,"964":-4.592706203460693,"965":6.290526390075684,"966":-1.6266618967056274,"967":-1.87807297706604,"968":0.4546578526496887,"969":3.115079164505005,"970":1.4179840087890625,"971":-1.2103111743927002,"972":1.2751057147979736,"973":2.735945224761963,"974":-5.40939998626709,"975":3.4251444339752197,"976":1.8845478296279907,"977":0.9996107816696167,"978":3.3527581691741943,"979":-1.9452500343322754,"980":-1.1445144414901733,"981":4.316898822784424,"982":3.0958456993103027,"983":-2.366983413696289,"984":0.7379193305969238,"985":0.5686108469963074,"986":0.15069043636322021,"987":-0.7490454912185669,"988":-0.17759644985198975,"989":3.944108724594116,"990":5.075798511505127,"991":1.8341248035430908,"992":-6.115971565246582,"993":-1.909877896308899,"994":5.530823230743408,"995":2.146507978439331,"996":-1.2012115716934204,"997":3.2086100578308105,"998":0.6904628276824951,"999":2.4504282474517822,"1000":4.6388068199157715,"1001":4.537108898162842,"1002":-2.427794933319092,"1003":2.9688918590545654,"1004":1.4753834009170532,"1005":4.821094036102295,"1006":0.7544475197792053,"1007":3.0957157611846924,"1008":0.018147293478250504,"1009":-2.437448501586914,"1010":2.8752450942993164,"1011":-4.46885347366333,"1012":1.0601625442504883,"1013":4.354473114013672,"1014":-3.700904607772827,"1015":4.913470268249512,"1016":-0.09728681296110153,"1017":-0.09750083833932877,"1018":-1.4977861642837524,"1019":1.3531867265701294,"1020":0.7118839025497437,"1021":-1.6370891332626343,"1022":-0.5797398686408997,"1023":0.26866772770881653,"1024":-0.3346787393093109,"1025":-2.366115093231201,"1026":-4.727052688598633,"1027":6.577658176422119,"1028":0.15739864110946655,"1029":1.891684889793396,"1030":0.5675481557846069,"1031":4.443950176239014,"1032":-3.063331127166748,"1033":-2.3762166500091553,"1034":-0.35686182975769043,"1035":1.2639070749282837,"1036":-1.6562418937683105,"1037":-0.26073792576789856,"1038":-1.7578186988830566,"1039":-4.853691577911377,"1040":-0.21889017522335052,"1041":0.1697746366262436,"1042":-1.3815721273422241,"1043":-0.8067305684089661,"1044":7.264452934265137,"1045":-0.5712530612945557,"1046":-1.0882072448730469,"1047":-1.2579400539398193,"1048":-4.856602191925049,"1049":1.1904370784759521,"1050":-0.6175000667572021,"1051":-0.1479308307170868,"1052":-2.4046761989593506,"1053":0.7184799909591675,"1054":2.0021748542785645,"1055":2.7473747730255127,"1056":2.207144260406494,"1057":-0.8919102549552917,"1058":-1.6604421138763428,"1059":-0.47042790055274963,"1060":-3.192781925201416,"1061":0.6004977226257324,"1062":3.897026777267456,"1063":-0.7604275941848755,"1064":-3.97050404548645,"1065":-3.4486002922058105,"1066":2.1626715660095215,"1067":-0.01991581730544567,"1068":0.8796452879905701,"1069":-3.326857566833496,"1070":-0.25715938210487366,"1071":0.2248321920633316,"1072":-1.5048316717147827,"1073":-3.262769937515259,"1074":1.2047550678253174,"1075":-0.5418239235877991,"1076":-1.961706280708313,"1077":-2.1081764698028564,"1078":2.0193963050842285,"1079":2.62392258644104,"1080":1.1609898805618286,"1081":1.3430842161178589,"1082":0.8238921165466309,"1083":0.3645334541797638,"1084":1.3901031017303467,"1085":0.8408978581428528,"1086":-0.9357022047042847,"1087":-3.030714750289917,"1088":0.14786146581172943,"1089":2.0810546875,"1090":1.435461163520813,"1091":0.2937925159931183,"1092":0.004391907248646021,"1093":-1.2775464057922363,"1094":-0.9090936779975891,"1095":-1.0289701223373413,"1096":-1.3157025575637817,"1097":0.6325183510780334,"1098":-0.9022808074951172,"1099":0.12149939686059952,"1100":-1.1822718381881714,"1101":1.7938556671142578,"1102":-1.9942430257797241,"1103":0.4608056843280792,"1104":-3.1442508697509766,"1105":1.6484495401382446,"1106":0.257843554019928,"1107":-0.7269049286842346,"1108":-0.7464942336082458,"1109":-1.4926146268844604,"1110":-3.8393454551696777,"1111":-0.5026980042457581,"1112":-1.5601413249969482,"1113":0.6574905514717102,"1114":2.920780658721924,"1115":2.6996254920959473,"1116":2.254855155944824,"1117":1.7237666845321655,"1118":-1.260859727859497,"1119":0.7528566718101501,"1120":2.5972445011138916,"1121":-3.5481226444244385,"1122":1.962631344795227,"1123":8.494668960571289,"1124":0.20805677771568298,"1125":0.1497431844472885,"1126":-0.1553373485803604,"1127":5.154688358306885,"1128":0.7984305620193481,"1129":-2.8129026889801025,"1130":0.8117903470993042,"1131":2.7904052734375,"1132":-1.1098554134368896,"1133":3.9546642303466797,"1134":-8.536518096923828,"1135":-5.003727912902832,"1136":-0.48891255259513855,"1137":3.4492151737213135,"1138":-1.647853136062622,"1139":0.7607215642929077,"1140":-1.4646050930023193,"1141":0.8497661352157593,"1142":-0.7920869588851929,"1143":-2.0060062408447266,"1144":1.9531514644622803,"1145":4.915821075439453,"1146":-4.561464786529541,"1147":-5.429836750030518,"1148":0.10220301896333694,"1149":-3.9286115169525146,"1150":0.15963326394557953,"1151":-3.7881693840026855,"1152":-1.062753438949585,"1153":-0.034696366637945175,"1154":0.5882889032363892,"1155":2.144847869873047,"1156":0.17421455681324005,"1157":0.03508096933364868,"1158":1.7880455255508423,"1159":0.3100948929786682,"1160":2.3240439891815186,"1161":-0.6455802917480469,"1162":-0.19844552874565125,"1163":-0.5279904007911682,"1164":-1.5533182621002197,"1165":-2.067720413208008,"1166":-0.7666923999786377,"1167":0.6477278470993042,"1168":-0.4778779447078705,"1169":1.1283003091812134,"1170":-0.0002456926740705967,"1171":2.0983400344848633,"1172":-2.695385694503784,"1173":-0.8483224511146545,"1174":-0.25085291266441345,"1175":-0.017845245078206062,"1176":-0.7039903998374939,"1177":0.2886807918548584,"1178":-1.3359262943267822,"1179":-0.30292171239852905,"1180":0.9406629204750061,"1181":1.209115982055664,"1182":-2.6917929649353027,"1183":-1.669084072113037,"1184":-2.5207107067108154,"1185":-0.2641890347003937,"1186":-2.21307110786438,"1187":-0.7006104588508606,"1188":1.2178550958633423,"1189":1.0679335594177246,"1190":1.1773737668991089,"1191":-0.881863534450531,"1192":0.9000660181045532,"1193":1.64084792137146,"1194":-2.1049342155456543,"1195":-0.7540270090103149,"1196":-1.2403538227081299,"1197":0.9262924194335938,"1198":2.1175026893615723,"1199":-0.08671385049819946,"1200":0.08635272085666656,"1201":1.1924781799316406,"1202":1.3661808967590332,"1203":-0.009605254046618938,"1204":-0.2885247766971588,"1205":-0.2042425274848938,"1206":-1.7780909538269043,"1207":0.3265482187271118,"1208":0.4754084646701813,"1209":0.4368825852870941,"1210":-1.8114365339279175,"1211":-1.9524405002593994,"1212":1.0021166801452637,"1213":0.16790035367012024,"1214":0.6854514479637146,"1215":-0.9151300191879272,"1216":-0.850531816482544,"1217":0.7234811186790466,"1218":0.2437768429517746,"1219":0.4000149369239807,"1220":-2.9136321544647217,"1221":-1.2695021629333496,"1222":-1.180640459060669,"1223":-0.8289863467216492,"1224":0.777095377445221,"1225":-0.05360716953873634,"1226":-0.010646428912878036,"1227":-0.07501371949911118,"1228":0.0050024609081447124,"1229":0.028286881744861603,"1230":-0.023381637409329414,"1231":-0.03276929631829262,"1232":-0.0071123032830655575,"1233":0.049691274762153625,"1234":-0.05258852243423462,"1235":-0.06679756939411163,"1236":-0.07192740589380264,"1237":-0.042951930314302444,"1238":-0.01024007610976696,"1239":-0.02214958332479,"1240":-0.07571707665920258,"1241":0.03205277770757675,"1242":0.02472691424190998,"1243":0.041501693427562714,"1244":-0.02684398926794529,"1245":-0.05492929741740227,"1246":-0.03857092186808586,"1247":-0.01640377752482891,"1248":-0.04818692058324814,"1249":0.0760309100151062,"1250":-0.026666443794965744,"1251":0.0004300108412280679,"1252":0.023266108706593513,"1253":-0.07050316035747528,"1254":-0.01199831161648035,"1255":-0.07663549482822418,"1256":0.010219139978289604,"1257":-0.047800805419683456,"1258":-0.006991823203861713,"1259":-0.07449494302272797}},"hiddenLayers":[{"inputMatrix":{"rows":20,"columns":35,"weights":{"0":0.061674583703279495,"1":2.6560871601104736,"2":-0.05213704705238342,"3":-1.6131994724273682,"4":-0.033676862716674805,"5":-1.3083539009094238,"6":-0.930860161781311,"7":-1.3774163722991943,"8":0.021061554551124573,"9":1.8709015846252441,"10":1.0664124488830566,"11":0.6432347893714905,"12":-1.201225757598877,"13":-1.62091064453125,"14":1.971899390220642,"15":1.421239972114563,"16":-0.21071012318134308,"17":0.6523434519767761,"18":0.5952590107917786,"19":-0.24433834850788116,"20":-0.8681380748748779,"21":0.9022384881973267,"22":0.8919570446014404,"23":0.32611626386642456,"24":0.8941437602043152,"25":0.20376203954219818,"26":1.5910998582839966,"27":1.6623655557632446,"28":-0.41928160190582275,"29":0.9567587971687317,"30":-0.04034458100795746,"31":-0.3938337564468384,"32":-0.4565163850784302,"33":0.7765047550201416,"34":-1.796122670173645,"35":-0.6415482759475708,"36":0.3487507104873657,"37":-1.5655189752578735,"38":0.42800021171569824,"39":2.335346221923828,"40":0.4990334212779999,"41":1.7611966133117676,"42":-0.8716618418693542,"43":-2.0150203704833984,"44":-0.8405506014823914,"45":-1.2036302089691162,"46":0.6622167825698853,"47":1.5559968948364258,"48":0.032792989164590836,"49":-2.4237263202667236,"50":1.483720064163208,"51":1.7038267850875854,"52":-0.224940687417984,"53":-0.8396216630935669,"54":-2.182408332824707,"55":0.7047486305236816,"56":-0.8120715022087097,"57":-2.0956573486328125,"58":-0.6058257818222046,"59":1.0530922412872314,"60":0.34118083119392395,"61":0.4353921115398407,"62":-2.1808838844299316,"63":-0.30634111166000366,"64":0.6681143641471863,"65":0.14710550010204315,"66":0.039223380386829376,"67":1.9198464155197144,"68":-0.0980481281876564,"69":0.6383236646652222,"70":-0.317085325717926,"71":0.7772338390350342,"72":0.32164183259010315,"73":-1.0960068702697754,"74":0.09300773590803146,"75":-1.3323420286178589,"76":0.26298266649246216,"77":-0.5411449670791626,"78":-0.7960717678070068,"79":0.6663710474967957,"80":1.0353047847747803,"81":1.2418323755264282,"82":0.3823813498020172,"83":-0.878411591053009,"84":2.9577605724334717,"85":1.5997384786605835,"86":0.1663929522037506,"87":0.7379032969474792,"88":0.5374255180358887,"89":0.2613378167152405,"90":1.0631370544433594,"91":0.07330810278654099,"92":-0.10220993310213089,"93":0.5443965792655945,"94":0.6169580817222595,"95":0.3743230700492859,"96":0.7396211624145508,"97":1.4546962976455688,"98":0.9228459596633911,"99":0.06036142259836197,"100":-0.3686913549900055,"101":-0.6424866914749146,"102":-0.4276246726512909,"103":1.4551607370376587,"104":-2.490619659423828,"105":-0.3781382143497467,"106":-1.7297098636627197,"107":0.31977155804634094,"108":0.09041982144117355,"109":-0.8862096667289734,"110":1.5270490646362305,"111":0.314892053604126,"112":1.1589351892471313,"113":-0.2696436643600464,"114":-1.1176881790161133,"115":-1.349996566772461,"116":-1.679253339767456,"117":0.24850235879421234,"118":0.863149106502533,"119":-1.251632571220398,"120":-0.37724539637565613,"121":-0.027735602110624313,"122":-1.8291940689086914,"123":-0.5036203265190125,"124":0.698860228061676,"125":1.1505359411239624,"126":0.8194229006767273,"127":-0.2539704442024231,"128":-1.2315614223480225,"129":-2.031827688217163,"130":-0.29768428206443787,"131":-1.587524652481079,"132":-1.5349071025848389,"133":0.9800975322723389,"134":-0.6009448170661926,"135":-0.41263285279273987,"136":0.5603422522544861,"137":-0.0728997066617012,"138":-0.19401629269123077,"139":1.793514609336853,"140":1.429613471031189,"141":-0.6169986724853516,"142":-1.107346773147583,"143":0.06686940789222717,"144":0.6048927307128906,"145":0.9518642425537109,"146":1.423379898071289,"147":-0.12090553343296051,"148":-0.3066951334476471,"149":-0.777825653553009,"150":0.7024709582328796,"151":1.4439120292663574,"152":-0.20851361751556396,"153":-0.9087398052215576,"154":-1.920811414718628,"155":-0.5672075748443604,"156":0.17480739951133728,"157":0.9802653193473816,"158":2.8488681316375732,"159":-0.5653213262557983,"160":3.4585423469543457,"161":0.8853955864906311,"162":-1.5984545946121216,"163":-0.6360004544258118,"164":1.0522451400756836,"165":0.7814432382583618,"166":-1.3928332328796387,"167":-0.8145300149917603,"168":2.0692524909973145,"169":0.48163551092147827,"170":0.4447549283504486,"171":-0.035454582422971725,"172":1.9204336404800415,"173":0.5337618589401245,"174":1.464242935180664,"175":0.7113704085350037,"176":-0.6668437123298645,"177":0.5888246893882751,"178":-1.7173103094100952,"179":-0.4991198182106018,"180":0.569366991519928,"181":0.5489286184310913,"182":-0.748039186000824,"183":0.09222985059022903,"184":-0.5841972827911377,"185":-0.5620944499969482,"186":-0.8357611894607544,"187":0.5150871872901917,"188":-0.6067917346954346,"189":0.33953744173049927,"190":0.11679902672767639,"191":1.7110586166381836,"192":-1.3024557828903198,"193":-0.7386769652366638,"194":0.4781988561153412,"195":-0.913674533367157,"196":-0.3767664432525635,"197":-0.1909375786781311,"198":-0.2893717288970947,"199":0.3195669651031494,"200":0.5883369445800781,"201":0.6171939373016357,"202":-0.801567018032074,"203":-0.42970913648605347,"204":-1.0915043354034424,"205":-0.24283424019813538,"206":-0.5984852313995361,"207":0.3860849440097809,"208":-0.3814743459224701,"209":-0.6571316719055176,"210":-1.1481255292892456,"211":-0.46715623140335083,"212":-0.3611496090888977,"213":-0.4138408601284027,"214":0.09412389993667603,"215":-0.20737291872501373,"216":0.9668657779693604,"217":-0.7338971495628357,"218":-1.3539371490478516,"219":-0.5125452280044556,"220":-0.3514658510684967,"221":0.20291085541248322,"222":0.4442283809185028,"223":0.3644962012767792,"224":0.4593772292137146,"225":0.11319421231746674,"226":0.4753704369068146,"227":0.23862649500370026,"228":-0.15977396070957184,"229":-0.03494533896446228,"230":-0.8038318157196045,"231":-0.9128139019012451,"232":-1.7250556945800781,"233":0.33217543363571167,"234":-0.035397328436374664,"235":-2.666522979736328,"236":0.0806976854801178,"237":-0.6363102197647095,"238":-1.2931677103042603,"239":-0.3661866784095764,"240":0.7513540387153625,"241":1.485614538192749,"242":1.5478016138076782,"243":1.4865822792053223,"244":0.4208875894546509,"245":0.6602985858917236,"246":-0.562421977519989,"247":1.3697680234909058,"248":1.6511274576187134,"249":-0.09786602109670639,"250":-0.6194003224372864,"251":1.4643418788909912,"252":0.13071970641613007,"253":1.0309300422668457,"254":-0.6519474983215332,"255":-0.2593131959438324,"256":0.9523510932922363,"257":-0.9644636511802673,"258":0.6737784147262573,"259":0.15754540264606476,"260":-0.7086281180381775,"261":-0.6335654258728027,"262":-0.17393681406974792,"263":-0.7389088273048401,"264":0.3929898738861084,"265":0.29869550466537476,"266":-0.9966827034950256,"267":-1.5404422283172607,"268":1.0950545072555542,"269":-0.23305825889110565,"270":3.228961229324341,"271":0.718829870223999,"272":0.2693300247192383,"273":-0.720558762550354,"274":-0.8266608119010925,"275":0.44571274518966675,"276":-1.5776835680007935,"277":0.8899547457695007,"278":2.3221659660339355,"279":-0.3198982775211334,"280":-0.7580171227455139,"281":-0.5533520579338074,"282":-2.2742629051208496,"283":0.05256791040301323,"284":2.0033328533172607,"285":1.5144003629684448,"286":1.0876915454864502,"287":-0.8331037163734436,"288":-2.372518301010132,"289":-0.6586223840713501,"290":-1.1103780269622803,"291":0.3335186839103699,"292":1.3605213165283203,"293":-0.8150054812431335,"294":0.49074631929397583,"295":0.7429633140563965,"296":0.8046545386314392,"297":-0.7319733500480652,"298":0.696786105632782,"299":-3.038525104522705,"300":1.1280804872512817,"301":-0.6531821489334106,"302":-0.6033332347869873,"303":0.3043133318424225,"304":0.8289501667022705,"305":-0.2746766209602356,"306":-0.19926196336746216,"307":-1.6774482727050781,"308":0.5748620629310608,"309":0.655113697052002,"310":0.9876274466514587,"311":0.31126096844673157,"312":0.2396787405014038,"313":0.1530793011188507,"314":0.43123170733451843,"315":0.6285011768341064,"316":0.8208605051040649,"317":2.8087470531463623,"318":0.5197292566299438,"319":-2.3775882720947266,"320":-1.2495877742767334,"321":-2.341515064239502,"322":0.25379717350006104,"323":2.89870548248291,"324":0.5401650667190552,"325":0.5474138855934143,"326":-0.992384672164917,"327":-0.7452036142349243,"328":-0.10605614632368088,"329":0.2302020788192749,"330":-1.7131752967834473,"331":-0.5275294184684753,"332":-0.8099687099456787,"333":-0.56374192237854,"334":2.584174633026123,"335":-0.2371140569448471,"336":0.9732693433761597,"337":1.3449581861495972,"338":0.5992987751960754,"339":0.026268871501088142,"340":1.3054598569869995,"341":1.098897933959961,"342":-0.054529543966054916,"343":-1.8178216218948364,"344":-1.9326512813568115,"345":-2.0745909214019775,"346":-0.5287649035453796,"347":-2.793489694595337,"348":-0.22536969184875488,"349":-0.23820726573467255,"350":1.4164423942565918,"351":0.3136592507362366,"352":-1.396485686302185,"353":-0.0064400434494018555,"354":-0.8498594164848328,"355":0.49536868929862976,"356":0.511020302772522,"357":0.23551076650619507,"358":0.4120163321495056,"359":0.2856732904911041,"360":-0.5063272714614868,"361":0.8212037086486816,"362":3.501455783843994,"363":0.6066176295280457,"364":-0.6161847114562988,"365":0.6746461391448975,"366":1.4958090782165527,"367":-0.28130802512168884,"368":0.11701168864965439,"369":-0.5199630260467529,"370":-1.670461893081665,"371":-0.32928627729415894,"372":-1.1074331998825073,"373":0.5930362939834595,"374":-0.7938199639320374,"375":-0.4147651493549347,"376":0.30974847078323364,"377":0.245753675699234,"378":-0.936928927898407,"379":2.006666660308838,"380":-1.925188660621643,"381":-1.746856451034546,"382":1.7000735998153687,"383":-1.4123585224151611,"384":0.5334914922714233,"385":-1.781954050064087,"386":-0.33901721239089966,"387":0.1854413002729416,"388":1.3831369876861572,"389":1.0376566648483276,"390":-0.31060922145843506,"391":-0.5195252299308777,"392":1.592113733291626,"393":-0.8973896503448486,"394":-0.40710508823394775,"395":1.3733006715774536,"396":0.01602328196167946,"397":-2.458049774169922,"398":0.9781511425971985,"399":-0.8306110501289368,"400":-1.8760367631912231,"401":-2.0586509704589844,"402":0.07466534525156021,"403":2.412473678588867,"404":0.322810560464859,"405":0.19153878092765808,"406":1.5117474794387817,"407":1.2671234607696533,"408":-1.939260482788086,"409":0.6328396797180176,"410":-0.4058755338191986,"411":-0.8312034606933594,"412":0.53538578748703,"413":1.2742466926574707,"414":-3.0388636589050293,"415":2.151970624923706,"416":1.3139688968658447,"417":-2.025859832763672,"418":-0.4520273506641388,"419":0.5193595886230469,"420":-0.6135473251342773,"421":0.4693651795387268,"422":-2.6296463012695312,"423":-1.0116881132125854,"424":1.6491522789001465,"425":-0.27038249373435974,"426":1.023606538772583,"427":-1.1685426235198975,"428":-1.2178040742874146,"429":0.3628479838371277,"430":-0.23441246151924133,"431":1.5527838468551636,"432":0.08069710433483124,"433":1.0361922979354858,"434":-0.5433782935142517,"435":0.8741860389709473,"436":1.152651309967041,"437":0.2652908265590668,"438":0.5769598484039307,"439":-1.4867544174194336,"440":-0.9764165878295898,"441":0.21420513093471527,"442":-0.7394156455993652,"443":0.18980775773525238,"444":0.3239208459854126,"445":-0.1100924015045166,"446":0.9661973714828491,"447":0.5512238144874573,"448":0.20458541810512543,"449":2.324522018432617,"450":-0.20263047516345978,"451":-0.3305132985115051,"452":0.27401480078697205,"453":0.5345421433448792,"454":-0.8867753148078918,"455":-0.8658762574195862,"456":0.0366579033434391,"457":-0.2510776221752167,"458":0.7776141166687012,"459":1.3280603885650635,"460":1.2208698987960815,"461":0.9827950596809387,"462":0.37656688690185547,"463":-0.7923815846443176,"464":0.47192150354385376,"465":0.7112507224082947,"466":-0.5656590461730957,"467":-1.6103241443634033,"468":0.4466009736061096,"469":-0.13819560408592224,"470":-0.3361312448978424,"471":-0.7277702689170837,"472":0.07631789147853851,"473":-0.8799692988395691,"474":-0.5847328901290894,"475":3.1783807277679443,"476":0.47931185364723206,"477":-0.609653890132904,"478":-1.3192394971847534,"479":-0.009871573187410831,"480":0.5900532007217407,"481":-1.9597644805908203,"482":-0.7568386793136597,"483":0.6237331628799438,"484":-1.0351239442825317,"485":1.5792745351791382,"486":-0.5097638368606567,"487":0.4529297649860382,"488":-0.5008028149604797,"489":0.328559547662735,"490":0.17269723117351532,"491":-0.23321281373500824,"492":-2.7615230083465576,"493":-0.8873029351234436,"494":2.276860237121582,"495":-0.5873764753341675,"496":2.1014139652252197,"497":-0.9114967584609985,"498":-2.368544578552246,"499":-0.014189742505550385,"500":0.38480380177497864,"501":0.25966671109199524,"502":-0.07792811840772629,"503":-0.0553240142762661,"504":0.30820533633232117,"505":1.425586462020874,"506":0.9978397488594055,"507":0.7026692032814026,"508":-0.1796828806400299,"509":-2.3168890476226807,"510":1.6920247077941895,"511":0.39124879240989685,"512":-2.163782835006714,"513":-0.2006361186504364,"514":-1.673169732093811,"515":-1.1481300592422485,"516":0.2567031681537628,"517":0.2610526382923126,"518":0.33485209941864014,"519":2.2994682788848877,"520":0.9985411167144775,"521":0.07058301568031311,"522":3.2787551879882812,"523":0.49105578660964966,"524":-0.16171671450138092,"525":-3.9926416873931885,"526":0.1724908947944641,"527":-1.5378035306930542,"528":-0.3192834258079529,"529":1.2323558330535889,"530":0.11954236030578613,"531":2.1165573596954346,"532":-0.6412915587425232,"533":-1.7431435585021973,"534":0.05344934016466141,"535":-1.2258985042572021,"536":-1.0850900411605835,"537":-0.7071092128753662,"538":-1.0095715522766113,"539":-0.8002311587333679,"540":0.3151271641254425,"541":-1.5055516958236694,"542":1.2071337699890137,"543":2.434946298599243,"544":-1.3128031492233276,"545":-0.6839483976364136,"546":-0.4978204071521759,"547":-0.8831934928894043,"548":-0.7955964207649231,"549":0.8358476161956787,"550":-0.7966259121894836,"551":-0.7027955055236816,"552":-0.23623371124267578,"553":1.7163280248641968,"554":-0.7141439914703369,"555":2.5433552265167236,"556":2.3806395530700684,"557":0.09775809198617935,"558":-2.287642240524292,"559":1.0397288799285889,"560":-2.5016841888427734,"561":0.045657332986593246,"562":-1.8085709810256958,"563":-0.17317958176136017,"564":4.696780681610107,"565":-1.1738251447677612,"566":0.06418173760175705,"567":-0.5349465608596802,"568":-3.07531476020813,"569":0.12303297221660614,"570":-0.2086547613143921,"571":0.01453442219644785,"572":-0.8255144953727722,"573":-0.2731177806854248,"574":0.007959393784403801,"575":-0.8883470892906189,"576":-1.2854299545288086,"577":0.2248704433441162,"578":-0.6491954326629639,"579":-2.9780356884002686,"580":1.5035420656204224,"581":0.4002889394760132,"582":0.3656421899795532,"583":0.2883661091327667,"584":1.5179038047790527,"585":-0.14837348461151123,"586":-0.1747329831123352,"587":0.004426591098308563,"588":-0.2505492866039276,"589":-1.71946120262146,"590":3.4214234352111816,"591":2.049844264984131,"592":0.4023682177066803,"593":-0.24987684190273285,"594":-1.1119552850723267,"595":-1.6006889343261719,"596":-0.8733659982681274,"597":-2.101104736328125,"598":-0.8791015148162842,"599":0.8416510820388794,"600":1.7034419775009155,"601":0.07479023933410645,"602":0.2847871780395508,"603":1.0027368068695068,"604":0.24217720329761505,"605":1.4058595895767212,"606":-2.763887643814087,"607":-0.6015504002571106,"608":0.7985138297080994,"609":0.3747967779636383,"610":-0.138051837682724,"611":-1.7706388235092163,"612":-1.638175368309021,"613":0.4036017656326294,"614":-0.9922173023223877,"615":1.8615626096725464,"616":1.4887714385986328,"617":0.5756732821464539,"618":-0.6174963712692261,"619":-0.5459954738616943,"620":-1.7466968297958374,"621":-0.7311529517173767,"622":0.2966010868549347,"623":3.3256711959838867,"624":-0.5259339213371277,"625":1.3934170007705688,"626":1.4918739795684814,"627":-0.663170576095581,"628":0.1973450481891632,"629":0.6663851141929626,"630":1.1641285419464111,"631":-0.013047845102846622,"632":0.7858529090881348,"633":-0.22399841248989105,"634":-0.28554973006248474,"635":0.4794180989265442,"636":-0.5675069689750671,"637":-0.33572298288345337,"638":0.892949640750885,"639":-0.7083636522293091,"640":-0.5151521563529968,"641":0.26572099328041077,"642":1.1636502742767334,"643":-0.13230162858963013,"644":-0.6905180811882019,"645":-1.645186185836792,"646":2.0818288326263428,"647":-0.8535005450248718,"648":1.168745517730713,"649":0.43622341752052307,"650":-0.701255738735199,"651":-0.20159904658794403,"652":-0.16889190673828125,"653":1.2933701276779175,"654":0.7308765649795532,"655":0.7072730660438538,"656":0.39319926500320435,"657":-1.0332963466644287,"658":-0.7331444621086121,"659":1.821493148803711,"660":-0.0905936062335968,"661":-1.160710096359253,"662":-0.4967482388019562,"663":-0.1342058628797531,"664":0.07595674693584442,"665":0.8834235668182373,"666":-0.25861242413520813,"667":-1.310746192932129,"668":-0.051711373031139374,"669":0.5635958909988403,"670":1.4515196084976196,"671":1.9588204622268677,"672":-1.461613655090332,"673":-0.6226699352264404,"674":-0.3783248960971832,"675":-1.4713276624679565,"676":-0.26921239495277405,"677":1.2401373386383057,"678":-0.5610293745994568,"679":-0.6707792282104492,"680":1.6961133480072021,"681":3.3891358375549316,"682":-0.4585987329483032,"683":0.17062486708164215,"684":-0.6003097295761108,"685":0.2342662662267685,"686":-0.2993417978286743,"687":-1.6169971227645874,"688":-0.8351409435272217,"689":-0.3428876996040344,"690":-1.1658766269683838,"691":0.6758480668067932,"692":0.09206518530845642,"693":1.1959664821624756,"694":1.2751206159591675,"695":-0.4809703528881073,"696":-0.6311962604522705,"697":2.192617893218994,"698":0.6809890270233154,"699":0.7470417618751526}},"inputHidden":{"rows":20,"columns":20,"weights":{"0":1.1193714141845703,"1":-0.11542181670665741,"2":0.18692557513713837,"3":0.07198458164930344,"4":-2.144148349761963,"5":1.9991888999938965,"6":0.2803126871585846,"7":-1.855995535850525,"8":-1.4849321842193604,"9":0.49209436774253845,"10":-0.1604440063238144,"11":-0.9805436134338379,"12":0.6927101612091064,"13":0.3682172894477844,"14":0.15032356977462769,"15":-0.040660832077264786,"16":-0.9516019821166992,"17":-0.526992678642273,"18":0.4314984679222107,"19":-0.6673954725265503,"20":-1.0753618478775024,"21":0.7600064277648926,"22":2.4525930881500244,"23":-1.3889895677566528,"24":0.28153616189956665,"25":1.5011610984802246,"26":-0.938520610332489,"27":-0.46498581767082214,"28":0.8138511776924133,"29":0.8838762044906616,"30":-1.6974194049835205,"31":0.6172549724578857,"32":-0.7287957072257996,"33":0.11018848419189453,"34":-0.3116908669471741,"35":1.264134168624878,"36":0.7279806733131409,"37":-0.12989716231822968,"38":0.9620490074157715,"39":0.9196232557296753,"40":0.2099144607782364,"41":-1.568009853363037,"42":2.931041717529297,"43":-0.46854275465011597,"44":1.1104644536972046,"45":-2.038722276687622,"46":0.6864721179008484,"47":-1.1502954959869385,"48":-2.6346096992492676,"49":-2.1929550170898438,"50":0.9940526485443115,"51":2.3575782775878906,"52":2.6247098445892334,"53":-1.858580470085144,"54":0.6950858235359192,"55":-2.5338265895843506,"56":-0.760715663433075,"57":0.49102044105529785,"58":1.9655213356018066,"59":-0.021444201469421387,"60":1.8477396965026855,"61":0.8636724352836609,"62":-1.310417652130127,"63":0.24018968641757965,"64":0.31752651929855347,"65":-1.9466816186904907,"66":0.6931390166282654,"67":-1.6775604486465454,"68":-0.6593776941299438,"69":-1.7988682985305786,"70":-1.6159796714782715,"71":-1.2842110395431519,"72":0.8984399437904358,"73":-0.23926842212677002,"74":0.17066863179206848,"75":-1.9117454290390015,"76":-1.7843025922775269,"77":-0.8399655222892761,"78":3.216156482696533,"79":0.6888677477836609,"80":-1.7804299592971802,"81":1.7899550199508667,"82":2.0400891304016113,"83":0.6701658964157104,"84":-2.60276198387146,"85":-1.8974151611328125,"86":0.07058057188987732,"87":-1.485520601272583,"88":1.427244782447815,"89":0.1429428607225418,"90":-0.8694964051246643,"91":0.859420895576477,"92":0.8067337870597839,"93":-0.07054632157087326,"94":0.06108158826828003,"95":1.292150855064392,"96":3.5679986476898193,"97":0.9217092394828796,"98":1.6791801452636719,"99":1.0603456497192383,"100":1.4581470489501953,"101":1.6340312957763672,"102":-1.3023632764816284,"103":2.2569692134857178,"104":1.96402907371521,"105":-5.301632404327393,"106":0.9207640290260315,"107":-0.8962727785110474,"108":1.3554319143295288,"109":0.7476974129676819,"110":1.4409587383270264,"111":-3.1025259494781494,"112":-2.5809059143066406,"113":0.544433057308197,"114":1.7978397607803345,"115":-1.6385701894760132,"116":-3.9861364364624023,"117":-2.1284279823303223,"118":1.1478768587112427,"119":-1.7413084506988525,"120":0.8641998171806335,"121":-1.822801113128662,"122":0.4131582975387573,"123":0.8893781900405884,"124":-0.8863958120346069,"125":1.2615489959716797,"126":-3.8833727836608887,"127":1.3965580463409424,"128":-4.860962867736816,"129":0.6979519724845886,"130":0.7822861075401306,"131":3.0451102256774902,"132":2.2843711376190186,"133":2.6957967281341553,"134":2.2674312591552734,"135":3.72931170463562,"136":2.7578935623168945,"137":2.0889272689819336,"138":0.013477309606969357,"139":2.3909521102905273,"140":0.4045373201370239,"141":0.41406047344207764,"142":-1.172017216682434,"143":-0.3599341809749603,"144":-1.1745132207870483,"145":-7.150442600250244,"146":-1.3137845993041992,"147":0.05833100154995918,"148":1.4145792722702026,"149":-1.1508090496063232,"150":-2.5873494148254395,"151":1.587294101715088,"152":0.14388836920261383,"153":-0.7584665417671204,"154":0.02926390990614891,"155":0.6729047894477844,"156":1.4939428567886353,"157":0.44172391295433044,"158":1.4656052589416504,"159":1.4814414978027344,"160":1.4778186082839966,"161":-1.736793875694275,"162":2.4342899322509766,"163":-1.9803743362426758,"164":-0.24199050664901733,"165":-1.0128285884857178,"166":-3.3671185970306396,"167":0.47793638706207275,"168":-2.9193363189697266,"169":1.112593412399292,"170":0.3137822449207306,"171":1.714144229888916,"172":3.0524299144744873,"173":-0.05149773508310318,"174":-1.8623310327529907,"175":2.4463329315185547,"176":1.4867180585861206,"177":1.865034580230713,"178":-3.4579124450683594,"179":4.1327595710754395,"180":1.8754631280899048,"181":-1.535793423652649,"182":-3.042015790939331,"183":1.7798330783843994,"184":-2.0886030197143555,"185":2.6456716060638428,"186":1.223901391029358,"187":0.3153305649757385,"188":-0.1631007045507431,"189":-1.386635661125183,"190":0.18511363863945007,"191":-0.6878610253334045,"192":0.5201075673103333,"193":-1.7151073217391968,"194":0.5195124745368958,"195":0.2887101173400879,"196":-1.0035511255264282,"197":1.258258581161499,"198":1.3303312063217163,"199":-0.609617292881012,"200":-1.6826657056808472,"201":-1.1780685186386108,"202":0.6367206573486328,"203":-0.4815835654735565,"204":-1.9667996168136597,"205":1.9040433168411255,"206":-1.0296909809112549,"207":-0.5522977709770203,"208":-2.5812485218048096,"209":-0.24754200875759125,"210":1.629095435142517,"211":2.0352141857147217,"212":1.230073094367981,"213":-1.5526107549667358,"214":-0.18862846493721008,"215":0.6081661581993103,"216":1.2351030111312866,"217":0.8983885049819946,"218":-0.7723922729492188,"219":-0.3806495666503906,"220":-0.602601170539856,"221":-0.8792117238044739,"222":-0.0728616714477539,"223":-0.8822746872901917,"224":-0.16022591292858124,"225":1.2350419759750366,"226":0.3291117250919342,"227":-0.6715497970581055,"228":-1.4171336889266968,"229":1.484311580657959,"230":-0.8732800483703613,"231":2.754690170288086,"232":1.1526974439620972,"233":1.2095814943313599,"234":-0.705388605594635,"235":0.9948034286499023,"236":1.2982531785964966,"237":0.6836538910865784,"238":-0.13478076457977295,"239":2.0426344871520996,"240":0.8609638810157776,"241":0.8642528653144836,"242":-2.148181438446045,"243":-1.5612512826919556,"244":1.5199511051177979,"245":0.8488401770591736,"246":0.3280295729637146,"247":-0.7583862543106079,"248":-1.2544056177139282,"249":1.178779125213623,"250":0.4838241636753082,"251":-1.1245254278182983,"252":0.09009239822626114,"253":1.1605197191238403,"254":-0.2380632609128952,"255":-1.0940091609954834,"256":0.5047429800033569,"257":-1.7191925048828125,"258":2.392491102218628,"259":-1.4500658512115479,"260":2.387953519821167,"261":1.4375663995742798,"262":0.092143215239048,"263":-1.544492483139038,"264":-0.8826964497566223,"265":0.8488571643829346,"266":0.4496981203556061,"267":-1.6065905094146729,"268":0.8470478057861328,"269":0.14322300255298615,"270":2.6336872577667236,"271":-1.1771310567855835,"272":0.19589777290821075,"273":-2.8838443756103516,"274":3.190802812576294,"275":0.40100768208503723,"276":-1.0196723937988281,"277":-1.3312417268753052,"278":-0.6279678344726562,"279":1.4268742799758911,"280":1.246109962463379,"281":1.0060158967971802,"282":0.4003942310810089,"283":-0.7845075726509094,"284":-0.7342791557312012,"285":-2.4652318954467773,"286":1.8163204193115234,"287":0.2584356963634491,"288":-1.0253816843032837,"289":-0.020777497440576553,"290":1.2560946941375732,"291":-0.464320570230484,"292":-0.42060986161231995,"293":-1.3163516521453857,"294":-0.06201089918613434,"295":-1.0381152629852295,"296":0.018386997282505035,"297":-0.3906933665275574,"298":2.0620152950286865,"299":-1.0076298713684082,"300":0.4342587888240814,"301":-1.2353627681732178,"302":-0.19555290043354034,"303":0.10430546849966049,"304":1.45295250415802,"305":0.33941057324409485,"306":0.0584527961909771,"307":-0.045220520347356796,"308":0.6216918230056763,"309":0.8812589049339294,"310":-0.6879582405090332,"311":0.2520817518234253,"312":-0.678605318069458,"313":1.2539266347885132,"314":0.08089125156402588,"315":-0.4555985927581787,"316":0.13126987218856812,"317":-0.12983174622058868,"318":-1.1160980463027954,"319":0.11680872738361359,"320":0.7857521772384644,"321":-1.3514013290405273,"322":1.5576144456863403,"323":0.8382770419120789,"324":0.40322625637054443,"325":-0.07141902297735214,"326":-1.501336693763733,"327":-0.9005008935928345,"328":0.49842625856399536,"329":2.578362464904785,"330":1.3960567712783813,"331":1.6897581815719604,"332":-0.4902532398700714,"333":1.0025036334991455,"334":-1.618722677230835,"335":1.0797293186187744,"336":1.2791789770126343,"337":2.0129952430725098,"338":-0.8527971506118774,"339":0.20973969995975494,"340":1.5299904346466064,"341":0.3229862451553345,"342":-0.42427828907966614,"343":-3.3602566719055176,"344":0.6271536946296692,"345":0.4921095073223114,"346":0.43793657422065735,"347":-0.07822204381227493,"348":0.7234534621238708,"349":0.5230793356895447,"350":-0.23235483467578888,"351":0.31082433462142944,"352":1.1184039115905762,"353":0.2523055374622345,"354":0.47340524196624756,"355":0.03568326309323311,"356":0.10238492488861084,"357":-0.6000232696533203,"358":-0.7072223424911499,"359":0.6816138625144958,"360":1.498471736907959,"361":-2.3054282665252686,"362":2.318830728530884,"363":0.32207202911376953,"364":-1.4876956939697266,"365":-2.797656297683716,"366":-1.351154088973999,"367":0.018913879990577698,"368":0.3671029210090637,"369":0.10836530476808548,"370":-0.5780535340309143,"371":2.201465368270874,"372":0.011358714662492275,"373":0.7179793119430542,"374":-1.125321865081787,"375":1.2557765245437622,"376":1.5299569368362427,"377":2.174931049346924,"378":1.7843537330627441,"379":0.9269924759864807,"380":0.20386263728141785,"381":-1.9119216203689575,"382":0.4699040949344635,"383":-0.15567190945148468,"384":1.833593726158142,"385":-1.09618079662323,"386":-0.033704087138175964,"387":0.3071122467517853,"388":-0.45050740242004395,"389":0.029499053955078125,"390":-0.6977433562278748,"391":1.3675236701965332,"392":0.00613124156370759,"393":-0.2583877742290497,"394":-2.4291796684265137,"395":1.7594166994094849,"396":1.681164026260376,"397":1.904438853263855,"398":-1.9536044597625732,"399":0.9229569435119629}},"inputBias":{"rows":20,"columns":1,"weights":{"0":-1.0500482320785522,"1":-0.5507386326789856,"2":-0.7273310422897339,"3":1.4653149843215942,"4":-0.37906789779663086,"5":-0.003429439151659608,"6":-0.7141315937042236,"7":-0.3691047430038452,"8":-0.4871327579021454,"9":0.5397700071334839,"10":-1.327858328819275,"11":0.05809568986296654,"12":-0.6115080714225769,"13":-0.7396146059036255,"14":-0.7176342606544495,"15":-0.6214799880981445,"16":-0.7101930975914001,"17":-0.9850347638130188,"18":-1.2983155250549316,"19":-0.4990578889846802}},"forgetMatrix":{"rows":20,"columns":35,"weights":{"0":-0.5432268381118774,"1":0.13311761617660522,"2":-2.4365131855010986,"3":-0.6759507656097412,"4":0.5211352705955505,"5":-0.36747777462005615,"6":1.496446132659912,"7":0.1255253553390503,"8":-1.6955201625823975,"9":0.5299649834632874,"10":-0.47626593708992004,"11":0.11400177329778671,"12":1.535883903503418,"13":0.9204720854759216,"14":-1.563638687133789,"15":-0.2243269383907318,"16":0.754848062992096,"17":-0.2929760217666626,"18":1.6256448030471802,"19":-1.834519863128662,"20":-0.3597698211669922,"21":-0.14191289246082306,"22":-1.5890659093856812,"23":0.0073506953194737434,"24":1.090153694152832,"25":-1.1972178220748901,"26":1.0650579929351807,"27":-1.2971904277801514,"28":0.13679863512516022,"29":0.7618700265884399,"30":1.0111829042434692,"31":1.5577261447906494,"32":1.1491289138793945,"33":0.39221304655075073,"34":0.40660083293914795,"35":-1.2710340023040771,"36":1.563842535018921,"37":0.3561209738254547,"38":-0.6650237441062927,"39":0.12508977949619293,"40":-1.5175108909606934,"41":1.9106427431106567,"42":-1.3861126899719238,"43":0.6478714942932129,"44":1.701373815536499,"45":-0.3721219003200531,"46":-0.6921472549438477,"47":-0.06130817160010338,"48":-1.4123846292495728,"49":0.7226276993751526,"50":-0.63631272315979,"51":-0.7644179463386536,"52":1.4846839904785156,"53":1.663142442703247,"54":-0.011588643305003643,"55":0.20234492421150208,"56":0.41377466917037964,"57":-0.7345778346061707,"58":1.0383182764053345,"59":1.9970299005508423,"60":-0.07630745321512222,"61":1.5127068758010864,"62":0.996190071105957,"63":1.1209769248962402,"64":-1.2250967025756836,"65":-0.13096177577972412,"66":-0.16099266707897186,"67":0.40186378359794617,"68":-1.0127817392349243,"69":-0.2628937363624573,"70":-1.0415512323379517,"71":0.21733830869197845,"72":1.4800362586975098,"73":0.07245060801506042,"74":0.2616236209869385,"75":-1.7069894075393677,"76":2.6559536457061768,"77":-0.013006960041821003,"78":0.9393467903137207,"79":0.9604471921920776,"80":0.37909334897994995,"81":-0.9627771377563477,"82":0.4585036337375641,"83":-0.2793011963367462,"84":1.0580312013626099,"85":-1.9441688060760498,"86":-2.394860029220581,"87":-0.7276104688644409,"88":-1.910131573677063,"89":-0.17525145411491394,"90":0.7411452531814575,"91":-0.20959468185901642,"92":-1.952290415763855,"93":1.891664743423462,"94":0.7932016849517822,"95":0.334771066904068,"96":0.07962802052497864,"97":0.12051115185022354,"98":0.7446732521057129,"99":-1.04556405544281,"100":1.6193921566009521,"101":-0.6919978260993958,"102":1.7996937036514282,"103":-0.4302748441696167,"104":-0.27164629101753235,"105":-0.046264685690402985,"106":-1.2200250625610352,"107":-0.5589537620544434,"108":1.195572018623352,"109":0.3724994659423828,"110":-0.1854414939880371,"111":0.14528696238994598,"112":1.398742437362671,"113":-1.045149326324463,"114":-1.3199551105499268,"115":-0.06132574751973152,"116":-0.5233317017555237,"117":-1.047432780265808,"118":0.8118966221809387,"119":-0.9828500151634216,"120":-1.616602897644043,"121":-1.6026285886764526,"122":-1.6811105012893677,"123":1.0055999755859375,"124":-0.776520848274231,"125":-0.10824929177761078,"126":1.0064290761947632,"127":1.0721360445022583,"128":-0.4910876750946045,"129":-1.5308276414871216,"130":-1.4886337518692017,"131":-0.9865807890892029,"132":-0.7433609366416931,"133":1.986546516418457,"134":0.13105641305446625,"135":0.4832501709461212,"136":-0.19024160504341125,"137":0.885898768901825,"138":0.14037320017814636,"139":0.8036820888519287,"140":-1.7329771518707275,"141":1.184082269668579,"142":0.43108102679252625,"143":-0.7691988945007324,"144":-0.3013407588005066,"145":-0.7411373853683472,"146":-0.9538614153862,"147":-0.0008435677736997604,"148":0.2222309559583664,"149":1.5029149055480957,"150":0.04960944131016731,"151":0.4198650121688843,"152":-0.7848535180091858,"153":-1.3219727277755737,"154":1.1642887592315674,"155":1.5595844984054565,"156":-1.75486159324646,"157":0.19783061742782593,"158":1.0829925537109375,"159":0.6598943471908569,"160":0.5716146230697632,"161":1.3288121223449707,"162":1.5560539960861206,"163":-0.24706195294857025,"164":1.060016393661499,"165":-0.1522655338048935,"166":0.4335178732872009,"167":2.2289013862609863,"168":2.1463277339935303,"169":-1.79416024684906,"170":0.6390053033828735,"171":-0.04180159792304039,"172":-0.7318016290664673,"173":0.5399086475372314,"174":-0.15580248832702637,"175":-1.7842494249343872,"176":0.06236514076590538,"177":-0.45650380849838257,"178":-1.5631896257400513,"179":0.7781556248664856,"180":-0.8150636553764343,"181":0.9724591374397278,"182":-0.6975235939025879,"183":-0.21932314336299896,"184":0.2804093658924103,"185":0.2503468990325928,"186":-2.8795557022094727,"187":1.6898193359375,"188":0.6041341423988342,"189":-0.17191888391971588,"190":-1.726526141166687,"191":-0.8397610783576965,"192":-1.6703888177871704,"193":-1.250128984451294,"194":-0.5972312688827515,"195":-0.3469766676425934,"196":-0.9497032761573792,"197":-2.1435437202453613,"198":1.0062562227249146,"199":-0.5884512662887573,"200":-0.1886119693517685,"201":0.7934364676475525,"202":-0.22147366404533386,"203":-0.059650108218193054,"204":0.951704740524292,"205":1.447948932647705,"206":0.49363523721694946,"207":1.2388312816619873,"208":-2.703665256500244,"209":-0.5777449607849121,"210":-0.5248123407363892,"211":0.12450741231441498,"212":-2.3430020809173584,"213":-0.13180680572986603,"214":2.7827072143554688,"215":0.743191123008728,"216":2.0625414848327637,"217":-1.6516075134277344,"218":-2.5931434631347656,"219":-0.19051523506641388,"220":-0.36058077216148376,"221":-0.4452420771121979,"222":1.7231640815734863,"223":-0.9678016901016235,"224":-0.21255400776863098,"225":0.02091520093381405,"226":0.7008637189865112,"227":-0.6403474807739258,"228":-0.36302658915519714,"229":-2.753236770629883,"230":1.245366096496582,"231":0.8015114068984985,"232":-3.142512798309326,"233":-0.3283713161945343,"234":1.6681164503097534,"235":0.3530353307723999,"236":0.9643647074699402,"237":-1.0612471103668213,"238":-0.933802604675293,"239":0.7288899421691895,"240":0.961980402469635,"241":0.6979759335517883,"242":2.3845019340515137,"243":-1.3035403490066528,"244":0.7736830115318298,"245":1.599161148071289,"246":-1.3179248571395874,"247":1.8894680738449097,"248":0.307289719581604,"249":-1.4176193475723267,"250":0.7485828399658203,"251":-0.16532565653324127,"252":1.4485164880752563,"253":2.0673773288726807,"254":-1.0488468408584595,"255":-0.27697473764419556,"256":-0.5159549117088318,"257":0.3703267276287079,"258":0.8207123875617981,"259":-0.32740461826324463,"260":-0.10603263974189758,"261":-0.9283677339553833,"262":-0.8288271427154541,"263":-0.602883517742157,"264":1.815899133682251,"265":-0.17493870854377747,"266":-0.478743314743042,"267":0.2207709550857544,"268":-0.9789405465126038,"269":-0.8175156712532043,"270":0.39917081594467163,"271":-1.157758355140686,"272":-0.7924283742904663,"273":0.9344025254249573,"274":-1.3740973472595215,"275":-1.1978168487548828,"276":-1.0711607933044434,"277":-0.411274254322052,"278":-0.1698736995458603,"279":0.2605492174625397,"280":0.14975039660930634,"281":0.3842658996582031,"282":1.6884557008743286,"283":-1.1944254636764526,"284":-1.57278311252594,"285":1.3887397050857544,"286":-3.3334736824035645,"287":-0.1861731857061386,"288":1.4697459936141968,"289":-0.20758767426013947,"290":-1.6957930326461792,"291":-2.7565064430236816,"292":0.27218934893608093,"293":-0.25789669156074524,"294":1.1645159721374512,"295":0.5706573128700256,"296":-0.009232391603291035,"297":-1.4829736948013306,"298":0.3964417576789856,"299":2.140688180923462,"300":0.6063441634178162,"301":0.09487291425466537,"302":2.9595072269439697,"303":-1.1422232389450073,"304":-4.1949591636657715,"305":-2.4058942794799805,"306":0.012101199477910995,"307":-0.006213267333805561,"308":1.8001564741134644,"309":-1.5123459100723267,"310":-1.8219242095947266,"311":-0.4369910955429077,"312":-2.9323596954345703,"313":-0.7506606578826904,"314":0.2572697401046753,"315":-0.09408298879861832,"316":0.9409520626068115,"317":-0.05701051652431488,"318":-1.238645076751709,"319":-0.5072396993637085,"320":-2.579106330871582,"321":0.63252192735672,"322":0.6234301924705505,"323":0.5639373660087585,"324":1.9924206733703613,"325":2.3101305961608887,"326":0.330923467874527,"327":0.05898049846291542,"328":-1.6577680110931396,"329":0.7500144243240356,"330":0.059577036648988724,"331":-1.945224642753601,"332":1.0255398750305176,"333":-0.04279059171676636,"334":0.08053228259086609,"335":0.9003468155860901,"336":0.8996637463569641,"337":0.2191038727760315,"338":1.5640133619308472,"339":1.0421491861343384,"340":-0.8090856671333313,"341":0.2640988826751709,"342":1.7949143648147583,"343":1.923761248588562,"344":-0.7816158533096313,"345":-0.6197247505187988,"346":-0.39290177822113037,"347":0.18021579086780548,"348":0.19157640635967255,"349":-0.9926275014877319,"350":-0.7870622277259827,"351":1.8386889696121216,"352":-0.6299341917037964,"353":-1.3946892023086548,"354":-0.039294224232435226,"355":0.5672735571861267,"356":-0.014339511282742023,"357":-1.8254902362823486,"358":-0.16664664447307587,"359":1.387304663658142,"360":1.3818846940994263,"361":1.3280999660491943,"362":0.48105335235595703,"363":-1.500751256942749,"364":-0.5110662579536438,"365":2.529996871948242,"366":-0.8078960180282593,"367":0.016352737322449684,"368":1.857514500617981,"369":-0.00008134399104164913,"370":0.6117307543754578,"371":2.0702309608459473,"372":0.22838285565376282,"373":0.6369493007659912,"374":1.9778672456741333,"375":-0.06603135913610458,"376":2.223848342895508,"377":-1.2657042741775513,"378":1.199831485748291,"379":-1.1671305894851685,"380":-0.5399618744850159,"381":-1.626619815826416,"382":-0.0411653034389019,"383":1.546182632446289,"384":-1.0229767560958862,"385":0.5962933301925659,"386":-0.9812478423118591,"387":0.9562902450561523,"388":1.563973069190979,"389":-0.9370467662811279,"390":0.5959059596061707,"391":-0.19441033899784088,"392":1.5703027248382568,"393":0.9070577621459961,"394":-2.0220561027526855,"395":-0.6974033713340759,"396":0.1874472051858902,"397":-0.20866720378398895,"398":1.1398857831954956,"399":-1.2235217094421387,"400":-0.6142006516456604,"401":-0.14965131878852844,"402":0.44846776127815247,"403":0.9572164416313171,"404":1.023053765296936,"405":-0.3631129562854767,"406":-0.9702047109603882,"407":0.3876146674156189,"408":-0.3118058145046234,"409":-0.49208125472068787,"410":0.35662841796875,"411":-0.5590847730636597,"412":0.5101606845855713,"413":-0.7188408970832825,"414":-1.2994260787963867,"415":-1.036360263824463,"416":-0.9753437638282776,"417":-1.2411773204803467,"418":0.9909575581550598,"419":0.407275527715683,"420":-2.6013615131378174,"421":1.6113722324371338,"422":0.6371465921401978,"423":-1.659616231918335,"424":0.4228396713733673,"425":-0.31785085797309875,"426":0.08308398723602295,"427":-1.3584020137786865,"428":0.4702532887458801,"429":1.3140864372253418,"430":-0.2822517156600952,"431":-0.48154717683792114,"432":-0.34665870666503906,"433":-1.708853840827942,"434":1.5195987224578857,"435":0.17237575352191925,"436":-1.5315985679626465,"437":0.9470186233520508,"438":1.1291074752807617,"439":0.38416382670402527,"440":0.6220071315765381,"441":0.7021235823631287,"442":0.40919244289398193,"443":-0.1946612298488617,"444":-0.34544169902801514,"445":-2.656280040740967,"446":1.362450361251831,"447":1.4385191202163696,"448":1.0959552526474,"449":-0.3631580173969269,"450":1.186481237411499,"451":0.5001718997955322,"452":-1.4003695249557495,"453":-1.3473514318466187,"454":-1.0801252126693726,"455":-0.43043333292007446,"456":-0.6562877893447876,"457":1.6796971559524536,"458":0.41206368803977966,"459":-1.7593461275100708,"460":-1.1649479866027832,"461":-0.9263810515403748,"462":0.577514111995697,"463":1.5789122581481934,"464":1.0880582332611084,"465":0.8210774064064026,"466":0.2724822163581848,"467":-2.3066139221191406,"468":0.522144079208374,"469":0.42360925674438477,"470":0.3312717378139496,"471":-1.4457851648330688,"472":0.45544588565826416,"473":-0.23615868389606476,"474":1.9204882383346558,"475":-0.4539142847061157,"476":-0.002653817180544138,"477":1.510136365890503,"478":0.14575284719467163,"479":-0.23985569179058075,"480":0.0082289082929492,"481":-0.8460206985473633,"482":0.9941398501396179,"483":0.8867511749267578,"484":-2.098921298980713,"485":-0.6924532055854797,"486":0.1470033824443817,"487":-1.4518290758132935,"488":2.222980260848999,"489":-0.15966066718101501,"490":1.2666255235671997,"491":1.2843306064605713,"492":0.3130064010620117,"493":-1.0174528360366821,"494":0.15714344382286072,"495":-1.165262222290039,"496":-1.3528863191604614,"497":-1.9652724266052246,"498":0.6612004637718201,"499":1.4365317821502686,"500":0.9325588345527649,"501":-0.31528815627098083,"502":0.22595110535621643,"503":-0.43199577927589417,"504":0.9183398485183716,"505":0.3695288300514221,"506":1.0246092081069946,"507":0.5252419710159302,"508":2.2536115646362305,"509":-0.13768069446086884,"510":-1.386865496635437,"511":0.47067081928253174,"512":1.751884937286377,"513":0.9455886483192444,"514":1.6938774585723877,"515":-0.7715669870376587,"516":2.102438449859619,"517":0.6040492057800293,"518":-0.3534676134586334,"519":0.44454410672187805,"520":-0.05248353257775307,"521":-1.3624939918518066,"522":-1.0446996688842773,"523":-0.6725761890411377,"524":-0.6297359466552734,"525":1.7338649034500122,"526":-1.8366432189941406,"527":0.5604920387268066,"528":2.6002094745635986,"529":-0.12448514252901077,"530":1.1175459623336792,"531":0.4404396712779999,"532":1.6160070896148682,"533":0.5946658253669739,"534":-2.019970655441284,"535":-0.30459386110305786,"536":-0.355143666267395,"537":0.7069104909896851,"538":1.7953077554702759,"539":-0.48350104689598083,"540":-2.104207992553711,"541":1.272031545639038,"542":-1.0761321783065796,"543":-1.6353543996810913,"544":0.2528473436832428,"545":-0.5091772079467773,"546":-1.1226603984832764,"547":-0.9289610385894775,"548":-0.7779180407524109,"549":-0.04998347535729408,"550":1.6183956861495972,"551":-0.7098708748817444,"552":-1.1165497303009033,"553":-1.2592153549194336,"554":0.09084385633468628,"555":-0.4478939175605774,"556":-1.3989866971969604,"557":0.7649849057197571,"558":-0.9273135662078857,"559":2.1807258129119873,"560":1.3119714260101318,"561":-1.6836248636245728,"562":1.2479357719421387,"563":1.9554513692855835,"564":-1.0394489765167236,"565":1.4880383014678955,"566":0.393419474363327,"567":1.7214158773422241,"568":0.897188663482666,"569":-1.2631169557571411,"570":-1.5514930486679077,"571":-1.4480819702148438,"572":1.0894855260849,"573":2.303898334503174,"574":-1.9014261960983276,"575":-1.213128685951233,"576":0.10190510749816895,"577":-1.9050694704055786,"578":-0.7257221341133118,"579":0.621645450592041,"580":-1.0910097360610962,"581":-0.8388144373893738,"582":-0.31187137961387634,"583":-0.8851215839385986,"584":-1.3301420211791992,"585":0.24793940782546997,"586":-1.0542962551116943,"587":-0.940548837184906,"588":-0.44442081451416016,"589":-0.6033218502998352,"590":-0.5377427935600281,"591":-1.2375074625015259,"592":-0.37001845240592957,"593":-0.6563926339149475,"594":1.9428892135620117,"595":-1.3872480392456055,"596":-0.09312651306390762,"597":-1.1351367235183716,"598":1.1468371152877808,"599":0.768825888633728,"600":1.2648754119873047,"601":-0.20183108747005463,"602":1.4802711009979248,"603":-0.7897084355354309,"604":0.36506128311157227,"605":-0.07163295149803162,"606":-1.1155139207839966,"607":-0.6624053716659546,"608":0.644048273563385,"609":-1.182049036026001,"610":-2.0154013633728027,"611":-0.4253053367137909,"612":-1.5292783975601196,"613":-1.4349368810653687,"614":-1.1423901319503784,"615":0.9935701489448547,"616":0.2847415804862976,"617":-1.181093454360962,"618":-0.9943572282791138,"619":-0.6379562616348267,"620":-0.3317689895629883,"621":-0.5612650513648987,"622":-0.285320907831192,"623":-1.5292268991470337,"624":0.323194295167923,"625":1.484997272491455,"626":0.717097282409668,"627":1.2288788557052612,"628":-0.8938587307929993,"629":1.2367665767669678,"630":-2.9352357387542725,"631":0.07837512344121933,"632":-0.08781155943870544,"633":0.37537750601768494,"634":0.7582200169563293,"635":0.8378922343254089,"636":0.5002339482307434,"637":-1.3932991027832031,"638":-0.053813520818948746,"639":0.3959960341453552,"640":1.305242896080017,"641":-0.7454255223274231,"642":0.6298864483833313,"643":1.241153359413147,"644":0.8083181977272034,"645":1.0120891332626343,"646":0.7566946744918823,"647":-1.4324727058410645,"648":-2.5498969554901123,"649":-0.5233480930328369,"650":0.3109205365180969,"651":1.813758134841919,"652":-1.3441383838653564,"653":1.2716840505599976,"654":-1.313887596130371,"655":-0.8982895016670227,"656":1.786280632019043,"657":-0.1824369579553604,"658":-2.288799524307251,"659":0.43724244832992554,"660":0.8253235816955566,"661":0.8436861634254456,"662":1.0615569353103638,"663":-0.8168663382530212,"664":-1.386620283126831,"665":1.4072597026824951,"666":-0.880133867263794,"667":1.8379696607589722,"668":1.9178639650344849,"669":-0.3627593517303467,"670":-1.0177899599075317,"671":0.156789168715477,"672":1.16508150100708,"673":1.06144380569458,"674":-0.7209421992301941,"675":0.18875491619110107,"676":1.8556994199752808,"677":-1.4568252563476562,"678":0.5811363458633423,"679":0.10452892631292343,"680":0.4687638580799103,"681":-2.1687867641448975,"682":1.6683385372161865,"683":-0.3777739405632019,"684":0.5864720940589905,"685":-0.7921205163002014,"686":-0.5287157893180847,"687":0.17577053606510162,"688":0.2056763768196106,"689":-0.23344001173973083,"690":2.434022903442383,"691":-1.0812082290649414,"692":-0.08798381686210632,"693":0.4077746868133545,"694":0.2850913107395172,"695":-0.016271958127617836,"696":-1.811720848083496,"697":-0.4839820861816406,"698":0.5328704714775085,"699":0.0018735344056040049}},"forgetHidden":{"rows":20,"columns":20,"weights":{"0":0.7001085877418518,"1":0.7741158604621887,"2":-3.2103304862976074,"3":0.0844152420759201,"4":0.22754329442977905,"5":-0.45138391852378845,"6":-0.7187096476554871,"7":0.28981730341911316,"8":2.0312681198120117,"9":-0.9043619632720947,"10":-0.6014821529388428,"11":-1.0827525854110718,"12":-2.129727363586426,"13":2.228818893432617,"14":-0.28752434253692627,"15":-0.9220030903816223,"16":0.6218118071556091,"17":-0.5038689970970154,"18":-0.36518391966819763,"19":-0.34736841917037964,"20":4.063453197479248,"21":0.32411038875579834,"22":-1.6431825160980225,"23":3.3952178955078125,"24":2.7497408390045166,"25":-0.7459649443626404,"26":0.7438001036643982,"27":1.1303670406341553,"28":2.900700569152832,"29":0.6951044201850891,"30":0.6317377090454102,"31":-1.4305156469345093,"32":-4.136052131652832,"33":2.0754268169403076,"34":0.540062427520752,"35":-2.3129990100860596,"36":-0.14405593276023865,"37":-0.8094397783279419,"38":0.537398636341095,"39":-0.8743371367454529,"40":-0.6527429223060608,"41":0.6394456624984741,"42":-0.6968299150466919,"43":-3.0224015712738037,"44":-3.262775421142578,"45":0.40659669041633606,"46":-0.16247336566448212,"47":0.13762429356575012,"48":-1.618450403213501,"49":1.4181946516036987,"50":-0.3195873498916626,"51":0.42867040634155273,"52":1.632082462310791,"53":-2.596813917160034,"54":-1.5410224199295044,"55":-0.08814629912376404,"56":0.5284472703933716,"57":0.038383252918720245,"58":-1.3575596809387207,"59":-1.5879254341125488,"60":0.10135134309530258,"61":1.8198528289794922,"62":-0.15627625584602356,"63":0.09533003717660904,"64":-0.1499393880367279,"65":-0.733237087726593,"66":1.7496044635772705,"67":-1.3442914485931396,"68":1.9468789100646973,"69":0.8435054421424866,"70":0.017449650913476944,"71":-1.5952751636505127,"72":-0.39325976371765137,"73":0.3100794851779938,"74":0.43989986181259155,"75":-2.1116185188293457,"76":-2.4092462062835693,"77":-2.6805779933929443,"78":0.3219456672668457,"79":-0.5543199181556702,"80":-0.6702172756195068,"81":0.6097673773765564,"82":0.8769842982292175,"83":-1.0283050537109375,"84":-0.03684292361140251,"85":-0.32414937019348145,"86":0.8470469117164612,"87":2.380612850189209,"88":-1.207243800163269,"89":0.560060441493988,"90":1.824550747871399,"91":1.2410944700241089,"92":0.975693941116333,"93":-0.6711800694465637,"94":-0.1784055233001709,"95":0.3309047818183899,"96":0.18913008272647858,"97":0.31224557757377625,"98":1.1706584692001343,"99":-1.0199759006500244,"100":-0.13366200029850006,"101":-1.1827712059020996,"102":-0.7955600023269653,"103":1.9288161993026733,"104":0.9567084908485413,"105":-0.05148346349596977,"106":-1.1024768352508545,"107":-0.05678672716021538,"108":-1.2058885097503662,"109":0.31907978653907776,"110":1.1691100597381592,"111":-1.3447014093399048,"112":-0.10888512432575226,"113":0.40794846415519714,"114":-0.8781305551528931,"115":1.2606709003448486,"116":1.2263069152832031,"117":2.4364490509033203,"118":1.1852165460586548,"119":0.36213916540145874,"120":1.8085684776306152,"121":-0.6887759566307068,"122":1.2336645126342773,"123":-4.177435398101807,"124":0.02412746101617813,"125":0.7755416035652161,"126":-1.627042293548584,"127":0.6346864700317383,"128":-0.8168268799781799,"129":0.9936538934707642,"130":0.27081289887428284,"131":-0.22037547826766968,"132":1.420116901397705,"133":-0.9440852999687195,"134":1.0614347457885742,"135":1.1202045679092407,"136":1.3246350288391113,"137":0.6614079475402832,"138":0.7653013467788696,"139":1.0402767658233643,"140":0.20051789283752441,"141":0.9406982660293579,"142":0.1014978289604187,"143":-0.4674317240715027,"144":-0.6299252510070801,"145":-1.4504938125610352,"146":0.745797336101532,"147":2.045036792755127,"148":2.0979676246643066,"149":-0.12705732882022858,"150":2.405306816101074,"151":-0.12823307514190674,"152":-0.3194827139377594,"153":0.27832165360450745,"154":0.8775827288627625,"155":-0.9898658990859985,"156":-1.0710468292236328,"157":-1.0272729396820068,"158":2.276261806488037,"159":-1.0028489828109741,"160":2.5699923038482666,"161":0.1209816262125969,"162":-1.0128175020217896,"163":-0.266368567943573,"164":-2.6295816898345947,"165":0.8988763093948364,"166":1.6940491199493408,"167":-0.43833932280540466,"168":-0.42712685465812683,"169":2.496765613555908,"170":0.5105516910552979,"171":-1.4942575693130493,"172":0.3516421318054199,"173":-0.42914435267448425,"174":-0.04306015372276306,"175":-0.19967176020145416,"176":0.25148192048072815,"177":0.9138996005058289,"178":-1.8021281957626343,"179":0.3529396057128906,"180":0.1150495857000351,"181":1.4878133535385132,"182":1.891735315322876,"183":0.6221390962600708,"184":-0.5940987467765808,"185":1.3151345252990723,"186":0.029869161546230316,"187":-2.1603310108184814,"188":0.24380896985530853,"189":0.40015044808387756,"190":1.7648168802261353,"191":-2.1456637382507324,"192":-0.046541452407836914,"193":1.5805130004882812,"194":0.030997132882475853,"195":-0.5188007354736328,"196":0.38535213470458984,"197":-1.8993265628814697,"198":-0.1625189632177353,"199":-0.19975757598876953,"200":0.5502502918243408,"201":2.738264322280884,"202":0.34906306862831116,"203":-1.0142532587051392,"204":3.56668758392334,"205":0.6725865006446838,"206":0.1840863674879074,"207":-3.9628515243530273,"208":2.059622049331665,"209":1.313114047050476,"210":-1.7249146699905396,"211":-1.1108826398849487,"212":-0.3955196440219879,"213":1.439465045928955,"214":0.926537811756134,"215":-3.281888961791992,"216":0.15689070522785187,"217":-1.4483104944229126,"218":1.7440986633300781,"219":2.2242002487182617,"220":3.2583422660827637,"221":2.834373712539673,"222":-0.5390351414680481,"223":-0.10655608028173447,"224":1.0619796514511108,"225":0.6359699368476868,"226":3.2759580612182617,"227":-0.8921427130699158,"228":3.4621760845184326,"229":1.4257358312606812,"230":-2.2714264392852783,"231":-2.4059255123138428,"232":-2.1505541801452637,"233":2.0416626930236816,"234":2.41196608543396,"235":-1.696824312210083,"236":-0.6982975602149963,"237":-2.424356698989868,"238":2.7594122886657715,"239":-0.21140937507152557,"240":0.45802396535873413,"241":0.686108410358429,"242":-0.6697243452072144,"243":0.693169355392456,"244":-0.3472209870815277,"245":-3.557145595550537,"246":1.4673738479614258,"247":-0.9130069613456726,"248":0.19453243911266327,"249":-1.6650261878967285,"250":0.30796709656715393,"251":-0.06612473726272583,"252":-2.1252810955047607,"253":1.2714203596115112,"254":1.2631173133850098,"255":-1.0640188455581665,"256":-1.0480425357818604,"257":-0.801533579826355,"258":-0.7938967347145081,"259":-2.6668715476989746,"260":-0.22514598071575165,"261":1.872179627418518,"262":-1.146475911140442,"263":0.037722282111644745,"264":1.6160763502120972,"265":-1.310125470161438,"266":0.5975313782691956,"267":0.18346495926380157,"268":1.0707714557647705,"269":0.2849179804325104,"270":0.06392648816108704,"271":-0.8332964181900024,"272":-0.5450966358184814,"273":0.5127958059310913,"274":0.2680131793022156,"275":-1.5152894258499146,"276":-1.1943758726119995,"277":-0.5951871275901794,"278":0.012366476468741894,"279":-1.1495682001113892,"280":0.9055284857749939,"281":-0.8558371663093567,"282":0.2527186870574951,"283":-0.6700005531311035,"284":-0.5881938934326172,"285":-2.01357364654541,"286":-1.5727050304412842,"287":-0.3927924931049347,"288":-1.5336121320724487,"289":0.8157273530960083,"290":-1.9662173986434937,"291":2.121946334838867,"292":-0.49277815222740173,"293":-0.6508520245552063,"294":-1.6061912775039673,"295":1.1291319131851196,"296":1.9090478420257568,"297":1.8753379583358765,"298":-1.2363094091415405,"299":0.0381506122648716,"300":0.18544945120811462,"301":0.5727702379226685,"302":-0.9969526529312134,"303":-0.5926264524459839,"304":0.9989197254180908,"305":2.0580191612243652,"306":0.19239875674247742,"307":1.347977876663208,"308":-0.2781471610069275,"309":0.477114200592041,"310":0.01731055974960327,"311":0.4918903410434723,"312":-0.041788309812545776,"313":1.070541262626648,"314":0.9133902192115784,"315":-0.5064712166786194,"316":0.5125667452812195,"317":-0.6748993396759033,"318":-0.570238471031189,"319":0.002604346489533782,"320":-1.2460931539535522,"321":1.120351791381836,"322":0.8786242604255676,"323":0.21032939851284027,"324":0.189419686794281,"325":0.04440883547067642,"326":0.3382369577884674,"327":-0.6765102744102478,"328":0.976560652256012,"329":0.575130820274353,"330":0.8650386333465576,"331":-0.05526222661137581,"332":-1.486281156539917,"333":0.5210469961166382,"334":-0.39601930975914,"335":-1.1429564952850342,"336":-1.561156153678894,"337":-1.0396510362625122,"338":1.6437714099884033,"339":0.7368996739387512,"340":1.342621088027954,"341":-0.5922232866287231,"342":0.02562793157994747,"343":-2.264183521270752,"344":-1.4882383346557617,"345":0.744787871837616,"346":-2.1889278888702393,"347":1.6876672506332397,"348":1.8826041221618652,"349":1.390103816986084,"350":0.8471845388412476,"351":0.6038737297058105,"352":-0.12237703800201416,"353":-0.576361358165741,"354":0.7247195243835449,"355":0.6026239395141602,"356":1.6720869541168213,"357":1.0297445058822632,"358":0.21557673811912537,"359":1.2541884183883667,"360":-0.7191286683082581,"361":-0.3800910413265228,"362":-0.2775115370750427,"363":-0.34012356400489807,"364":1.273783564567566,"365":0.15330347418785095,"366":-0.07297065854072571,"367":-1.4585542678833008,"368":-3.185236692428589,"369":-1.4214106798171997,"370":1.0870441198349,"371":-0.4104200601577759,"372":-0.06017541140317917,"373":-1.2486159801483154,"374":-1.6199431419372559,"375":-0.5316541790962219,"376":0.46891483664512634,"377":0.601669192314148,"378":-0.9346662759780884,"379":0.8397955894470215,"380":-1.435823678970337,"381":2.5611448287963867,"382":-0.5842555165290833,"383":-0.34781160950660706,"384":0.33595606684684753,"385":-0.7460409998893738,"386":1.4101026058197021,"387":-1.2930707931518555,"388":-1.916686773300171,"389":0.09892310947179794,"390":1.1918296813964844,"391":-0.7098521590232849,"392":-0.14475256204605103,"393":-1.3142887353897095,"394":-0.9896633625030518,"395":-1.5243724584579468,"396":-1.367859959602356,"397":-0.8315050601959229,"398":1.3396247625350952,"399":-0.4363839328289032}},"forgetBias":{"rows":20,"columns":1,"weights":{"0":0,"1":0,"2":0,"3":0,"4":0,"5":0,"6":0,"7":0,"8":0,"9":0,"10":0,"11":0,"12":0,"13":0,"14":0,"15":0,"16":0,"17":0,"18":0,"19":0}},"outputMatrix":{"rows":20,"columns":35,"weights":{"0":-0.16886523365974426,"1":2.0303661823272705,"2":-1.592207908630371,"3":-1.7906649112701416,"4":0.43279561400413513,"5":-0.8872002959251404,"6":-0.022613903507590294,"7":-0.6947777271270752,"8":-0.14893680810928345,"9":1.5755811929702759,"10":1.747605323791504,"11":-0.1416807919740677,"12":-1.0483671426773071,"13":-1.2555538415908813,"14":1.1268857717514038,"15":0.5035858750343323,"16":0.4969902038574219,"17":-0.5268211960792542,"18":0.9425678253173828,"19":0.2610090672969818,"20":-0.04373700171709061,"21":2.325928211212158,"22":-0.24942658841609955,"23":1.5159106254577637,"24":-0.9470445513725281,"25":-0.3418086767196655,"26":1.2246063947677612,"27":2.1344263553619385,"28":-0.550824761390686,"29":0.6152520775794983,"30":-0.12659898400306702,"31":0.9976641535758972,"32":0.47899922728538513,"33":0.41666150093078613,"34":-1.2447372674942017,"35":-3.571556329727173,"36":-0.45872998237609863,"37":-0.5507473349571228,"38":0.09810739755630493,"39":2.010545253753662,"40":0.3791921138763428,"41":1.3469338417053223,"42":0.4982984960079193,"43":-1.2110443115234375,"44":-0.22094470262527466,"45":-0.2136833667755127,"46":-1.113463282585144,"47":-0.2568114399909973,"48":2.2700111865997314,"49":2.0176446437835693,"50":-0.7668430805206299,"51":-0.41388535499572754,"52":-0.8125039935112,"53":-1.039926528930664,"54":-1.462555170059204,"55":-1.1526825428009033,"56":-0.1346721053123474,"57":0.869197428226471,"58":0.03647054731845856,"59":-0.3828020691871643,"60":-1.0891560316085815,"61":-0.11309395730495453,"62":0.055960893630981445,"63":-0.702060878276825,"64":-0.25929367542266846,"65":3.5423645973205566,"66":2.3744194507598877,"67":0.3809712529182434,"68":-0.3563275933265686,"69":-0.040765430778265,"70":-1.1780802011489868,"71":-0.06262233853340149,"72":0.21791809797286987,"73":-0.7770968079566956,"74":0.38555657863616943,"75":-1.3225280046463013,"76":1.0226727724075317,"77":-1.4009648561477661,"78":0.48919475078582764,"79":0.46793487668037415,"80":0.9794866442680359,"81":0.061057545244693756,"82":-0.47760096192359924,"83":-0.9466038942337036,"84":0.8850971460342407,"85":0.8364153504371643,"86":-1.4612630605697632,"87":0.6497315764427185,"88":-0.05962603539228439,"89":-0.36967751383781433,"90":1.1054085493087769,"91":-0.030325964093208313,"92":-0.5891772508621216,"93":0.8393542766571045,"94":0.16602642834186554,"95":-1.2026760578155518,"96":-0.03991541266441345,"97":1.081578254699707,"98":-0.08423124998807907,"99":-0.2942957282066345,"100":0.3446783125400543,"101":0.5010750889778137,"102":1.191024661064148,"103":-0.10311274230480194,"104":-0.5306284427642822,"105":1.0995984077453613,"106":-1.6458548307418823,"107":-0.5496096014976501,"108":1.221434235572815,"109":1.446846842765808,"110":0.45000481605529785,"111":1.0987802743911743,"112":0.3673473298549652,"113":-1.3611055612564087,"114":-1.7542071342468262,"115":-1.0804545879364014,"116":-0.439970463514328,"117":0.1404632180929184,"118":-0.26327672600746155,"119":-0.531690239906311,"120":-0.3207433819770813,"121":0.8009679317474365,"122":-1.8950964212417603,"123":-2.040919542312622,"124":-0.9565128684043884,"125":1.3161593675613403,"126":-0.40361112356185913,"127":-1.2261371612548828,"128":-0.5380836725234985,"129":-1.4696149826049805,"130":0.6840648651123047,"131":-1.038163423538208,"132":-1.0385130643844604,"133":-1.407917857170105,"134":0.7176302671432495,"135":1.3242994546890259,"136":-1.4987866878509521,"137":0.9794583320617676,"138":1.083073377609253,"139":0.11079783737659454,"140":0.7170659303665161,"141":0.8897266387939453,"142":-1.1324398517608643,"143":-0.8931154012680054,"144":0.8642136454582214,"145":-0.03075639344751835,"146":0.8142594695091248,"147":-0.37531813979148865,"148":-1.1378437280654907,"149":1.4448893070220947,"150":0.4550756514072418,"151":-0.1578935831785202,"152":-1.0847904682159424,"153":-0.5705171227455139,"154":0.1025136411190033,"155":1.3843762874603271,"156":-0.5246686339378357,"157":1.1106537580490112,"158":0.012751161120831966,"159":-1.2701389789581299,"160":3.10227370262146,"161":0.2095266431570053,"162":-1.081525206565857,"163":0.07778815180063248,"164":-0.9600134491920471,"165":-0.6413565278053284,"166":-0.78855961561203,"167":0.3152635097503662,"168":0.2802466154098511,"169":1.8204737901687622,"170":0.6574182510375977,"171":-0.12229116261005402,"172":1.4252376556396484,"173":-0.05051463097333908,"174":0.14299677312374115,"175":-0.9703387022018433,"176":-0.09388195723295212,"177":0.46398672461509705,"178":-0.4632699191570282,"179":-0.08637455850839615,"180":0.4789450466632843,"181":1.9933362007141113,"182":-0.48065367341041565,"183":0.27678990364074707,"184":0.1244470402598381,"185":0.5781291723251343,"186":-0.6034443378448486,"187":-0.5350670218467712,"188":0.801753580570221,"189":1.0046100616455078,"190":-0.363582968711853,"191":0.4550570249557495,"192":-1.804538369178772,"193":-2.018383264541626,"194":0.17643794417381287,"195":1.073776125907898,"196":0.45987358689308167,"197":-1.0811657905578613,"198":0.1548604816198349,"199":-0.5811656713485718,"200":0.16345791518688202,"201":1.3441166877746582,"202":-0.7024290561676025,"203":-1.2758582830429077,"204":-2.220546007156372,"205":0.24787144362926483,"206":-0.21022860705852509,"207":1.3152883052825928,"208":0.252207487821579,"209":-0.31763431429862976,"210":-0.391250342130661,"211":1.664665937423706,"212":-2.0606870651245117,"213":-0.7638896703720093,"214":1.5882344245910645,"215":-0.9664573669433594,"216":0.8164003491401672,"217":-2.0703980922698975,"218":-1.5835660696029663,"219":2.038825750350952,"220":0.7519131898880005,"221":0.5844426155090332,"222":-0.8391395807266235,"223":-1.0203803777694702,"224":0.6055262684822083,"225":-0.6006295680999756,"226":0.3721518814563751,"227":1.5591222047805786,"228":0.3186184763908386,"229":-1.8369944095611572,"230":0.6714450716972351,"231":1.3130130767822266,"232":-1.1744204759597778,"233":1.1971534490585327,"234":1.329107403755188,"235":-0.4129737913608551,"236":1.3578296899795532,"237":0.4989463686943054,"238":-0.51340651512146,"239":-0.5443540215492249,"240":0.11356239020824432,"241":0.8828132748603821,"242":0.9266777038574219,"243":2.050731897354126,"244":-0.9291582107543945,"245":-0.5314034819602966,"246":0.8139147758483887,"247":0.15714213252067566,"248":-1.0412724018096924,"249":0.7458398938179016,"250":0.7332215309143066,"251":1.4258888959884644,"252":-1.817259669303894,"253":-0.5047056078910828,"254":0.42363354563713074,"255":0.2223375290632248,"256":-1.9777228832244873,"257":0.7891131043434143,"258":-0.06363874673843384,"259":1.3751187324523926,"260":1.4357293844223022,"261":1.9921057224273682,"262":-1.3380424976348877,"263":-0.44777700304985046,"264":-0.4212900400161743,"265":0.870435893535614,"266":-0.11684000492095947,"267":-1.9504729509353638,"268":0.5861919522285461,"269":-0.9788042902946472,"270":-0.8006938695907593,"271":2.896361827850342,"272":0.14649561047554016,"273":-0.7866030931472778,"274":0.279877632856369,"275":0.758100152015686,"276":0.11585496366024017,"277":0.8791859745979309,"278":-1.3647264242172241,"279":-0.7639954090118408,"280":0.04625957831740379,"281":-0.10010900348424911,"282":-1.7482943534851074,"283":0.03786902502179146,"284":1.61037015914917,"285":0.84860759973526,"286":-0.4708283543586731,"287":0.022196535021066666,"288":-1.7596874237060547,"289":-0.3196089565753937,"290":-0.9883679747581482,"291":0.06965352594852448,"292":1.0867007970809937,"293":-0.3240509033203125,"294":0.5140810608863831,"295":0.9971566796302795,"296":1.2712324857711792,"297":0.051396626979112625,"298":0.11495976895093918,"299":-1.8614579439163208,"300":-0.8428441882133484,"301":-1.2318803071975708,"302":0.5162613987922668,"303":-0.27534961700439453,"304":1.2109476327896118,"305":-1.2555980682373047,"306":0.5415013432502747,"307":-0.13865447044372559,"308":0.4748725891113281,"309":0.05266975611448288,"310":0.5876785516738892,"311":0.5200306177139282,"312":0.053343046456575394,"313":1.183257818222046,"314":0.5392759442329407,"315":-1.1758838891983032,"316":-1.9733407497406006,"317":0.6905925273895264,"318":1.5334230661392212,"319":-0.5819401144981384,"320":-0.3178726136684418,"321":0.5835731029510498,"322":1.664671540260315,"323":0.21907071769237518,"324":-0.9521471858024597,"325":0.25445282459259033,"326":-0.6501131653785706,"327":-0.6766608953475952,"328":1.5527127981185913,"329":0.4175495207309723,"330":-3.2540066242218018,"331":-2.057060718536377,"332":-1.4834131002426147,"333":-1.908713459968567,"334":0.16681510210037231,"335":-0.06299448758363724,"336":-0.06189582124352455,"337":-0.49679839611053467,"338":0.2101047784090042,"339":-0.6336104869842529,"340":0.43915480375289917,"341":0.29168906807899475,"342":0.07564374804496765,"343":-1.5903161764144897,"344":-1.6934831142425537,"345":-0.14356105029582977,"346":0.781182587146759,"347":0.17484045028686523,"348":-0.3572160005569458,"349":1.1810736656188965,"350":0.33800622820854187,"351":1.1320788860321045,"352":-0.046183694154024124,"353":-1.524325966835022,"354":-0.45190945267677307,"355":0.2994067668914795,"356":-1.1374913454055786,"357":-1.4483602046966553,"358":1.015079379081726,"359":0.6540970802307129,"360":0.2921125888824463,"361":0.33709174394607544,"362":0.14588172733783722,"363":-1.2199276685714722,"364":0.122658871114254,"365":0.24416698515415192,"366":-0.2126941829919815,"367":0.33733975887298584,"368":2.568674325942993,"369":0.3482223153114319,"370":-0.18082888424396515,"371":-0.34676647186279297,"372":1.1982825994491577,"373":0.4234136939048767,"374":-0.07919620722532272,"375":-0.6697118878364563,"376":0.9231293201446533,"377":0.7538837194442749,"378":1.9048932790756226,"379":-0.8980718851089478,"380":-0.42265892028808594,"381":-0.7286254167556763,"382":-1.7265269756317139,"383":-0.16763819754123688,