{"type":"LSTM","options":{"inputSize":20,"inputRange":20,"hiddenLayers":[20,20],"outputSize":20,"decayRate":0.999,"smoothEps":1e-8,"regc":0.000001,"clipval":5,"maxPredictionLength":100,"dataFormatter":null},"input":{"rows":21,"columns":20,"weights":{"0":0.06028551980853081,"1":0.07214877754449844,"2":0.043363358825445175,"3":0.02694159746170044,"4":-0.009428727440536022,"5":0.03214754909276962,"6":0.05235610902309418,"7":0.021993709728121758,"8":0.05800820514559746,"9":0.03685739263892174,"10":-0.07954484224319458,"11":-0.005852474365383387,"12":0.021141601726412773,"13":-0.03869860619306564,"14":0.06780313700437546,"15":0.021939316764473915,"16":-0.013385331258177757,"17":-0.06811697036027908,"18":-0.05407792329788208,"19":0.06620584428310394,"20":-0.04466657713055611,"21":-0.031762417405843735,"22":-0.060441162437200546,"23":-0.009753873571753502,"24":0.002666376531124115,"25":-0.05957147851586342,"26":0.05946539714932442,"27":-0.04001639038324356,"28":0.047730278223752975,"29":0.05223814398050308,"30":0.016320714727044106,"31":0.019990403205156326,"32":-0.02182721346616745,"33":-0.07872248440980911,"34":-0.021309375762939453,"35":0.0062813726253807545,"36":0.0677260085940361,"37":-0.046132102608680725,"38":-0.04381901025772095,"39":0.056347329169511795,"40":-0.012720574624836445,"41":-0.05309794098138809,"42":0.05638467147946358,"43":-0.05270378291606903,"44":-0.017818154767155647,"45":0.0624285452067852,"46":0.04165295138955116,"47":0.07983575761318207,"48":-0.07336097210645676,"49":-0.011417720466852188,"50":0.07821135967969894,"51":-0.023544887080788612,"52":0.005436214152723551,"53":-0.01416794303804636,"54":0.019771890714764595,"55":-0.06449392437934875,"56":-0.03425970301032066,"57":0.04535851627588272,"58":-0.050485141575336456,"59":0.05440809577703476,"60":0.006993512157350779,"61":0.05925179645419121,"62":-0.05216429755091667,"63":-0.017936429008841515,"64":-0.03772073984146118,"65":0.07749013602733612,"66":0.009758304804563522,"67":0.011360681615769863,"68":-0.06695128977298737,"69":-0.06148037686944008,"70":0.06790738552808762,"71":-0.024110686033964157,"72":-0.06105490401387215,"73":-0.04075629264116287,"74":-0.037079766392707825,"75":0.06803519278764725,"76":-0.06677383929491043,"77":-0.001424893969669938,"78":0.007683885283768177,"79":0.033752962946891785,"80":-0.06725560873746872,"81":-0.04673914611339569,"82":-0.044443756341934204,"83":-0.04174727946519852,"84":0.022268060594797134,"85":0.0063841454684734344,"86":0.004051031079143286,"87":-0.07983572036027908,"88":0.026204494759440422,"89":0.05646222084760666,"90":-0.023945404216647148,"91":0.043020959943532944,"92":-0.04771875962615013,"93":-0.05418838933110237,"94":0.012644053436815739,"95":0.0741608664393425,"96":-0.01968948356807232,"97":-0.007651064079254866,"98":-0.04753415659070015,"99":-0.028292082250118256,"100":-0.03244342282414436,"101":0.0017071077600121498,"102":0.03092915564775467,"103":-0.07134328037500381,"104":-0.009376014582812786,"105":-0.0007565304404124618,"106":-0.06951534003019333,"107":-0.02190190926194191,"108":0.07793164253234863,"109":0.07168827950954437,"110":-0.039373259991407394,"111":0.008164315484464169,"112":0.07477648556232452,"113":0.04912789911031723,"114":-0.02803780697286129,"115":-0.0017636894481256604,"116":-0.06644973158836365,"117":0.025297941640019417,"118":-0.01383308693766594,"119":0.034265317022800446,"120":-0.030911721289157867,"121":-0.03656122833490372,"122":0.0015577418962493539,"123":-0.04999784380197525,"124":0.041101254522800446,"125":0.028359249234199524,"126":-0.06889411062002182,"127":0.027836591005325317,"128":-0.03913344070315361,"129":-0.0744054764509201,"130":0.017201915383338928,"131":-0.006695196032524109,"132":0.009045379236340523,"133":0.01750260218977928,"134":0.0590679906308651,"135":0.06466598063707352,"136":-0.06076822057366371,"137":0.008198575116693974,"138":0.0019662296399474144,"139":0.01122842077165842,"140":-0.0717126652598381,"141":0.0276576466858387,"142":0.04481224715709686,"143":-0.03833577781915665,"144":0.06400074809789658,"145":-0.043404605239629745,"146":-0.04535616189241409,"147":0.07479354739189148,"148":-0.03728436306118965,"149":0.06217993423342705,"150":0.07855461537837982,"151":0.06530429422855377,"152":0.0182667076587677,"153":0.0722653716802597,"154":-0.04147868603467941,"155":0.048856887966394424,"156":-0.035346418619155884,"157":-0.07161559164524078,"158":-0.03919551894068718,"159":0.03777948394417763,"160":0.01572689786553383,"161":0.06315167993307114,"162":0.04862899333238602,"163":0.0599055290222168,"164":0.0072539253160357475,"165":-0.023163393139839172,"166":0.07947992533445358,"167":0.027420349419116974,"168":0.06424064189195633,"169":-0.019407764077186584,"170":0.07984709739685059,"171":0.016628323122859,"172":0.02242574281990528,"173":0.07612721621990204,"174":0.027407148852944374,"175":0.06967335939407349,"176":-0.00610780343413353,"177":0.030703509226441383,"178":0.026383407413959503,"179":0.0748349204659462,"180":-0.06911887228488922,"181":-0.01568589173257351,"182":-0.0020609083585441113,"183":-0.0007364579360000789,"184":-0.05308057367801666,"185":0.04869426041841507,"186":0.03829008713364601,"187":-0.050760816782712936,"188":0.04971699416637421,"189":-0.024466978386044502,"190":-0.06566789001226425,"191":0.03938667103648186,"192":0.06146708503365517,"193":-0.00431163189932704,"194":-0.07902388274669647,"195":0.03062635101377964,"196":-0.07695570588111877,"197":0.0651797205209732,"198":-0.048820652067661285,"199":0.008332583121955395,"200":0.03647094592452049,"201":-0.06662628054618835,"202":-0.05195292457938194,"203":-0.04590005800127983,"204":0.03986192122101784,"205":0.05765619874000549,"206":0.009918611496686935,"207":0.06049146130681038,"208":0.018707560375332832,"209":0.04679757356643677,"210":-0.009270474314689636,"211":0.016350405290722847,"212":0.054257817566394806,"213":0.07762690633535385,"214":-0.0309869684278965,"215":-0.06885769218206406,"216":-0.05034615471959114,"217":-0.05321952700614929,"218":-0.009446212090551853,"219":0.01111619547009468,"220":0.05226845294237137,"221":-0.07786105573177338,"222":0.01608557254076004,"223":0.03165506571531296,"224":0.07022975385189056,"225":0.032793331891298294,"226":-0.02742318995296955,"227":0.007678001653403044,"228":0.008971430361270905,"229":0.06991777569055557,"230":-0.06721022725105286,"231":-0.029883772134780884,"232":0.05393126606941223,"233":0.047559935599565506,"234":-0.005863410420715809,"235":-0.07560475170612335,"236":-0.0064377207309007645,"237":-0.021099964156746864,"238":-0.06667634844779968,"239":-0.029926221817731857,"240":0.00688394159078598,"241":0.06699114292860031,"242":-0.054095931351184845,"243":0.015807291492819786,"244":0.054161958396434784,"245":-0.008396926335990429,"246":-0.004733565263450146,"247":-0.007279577199369669,"248":0.06177205964922905,"249":-0.000929681642446667,"250":-0.06974396854639053,"251":-0.05581912398338318,"252":-0.05371188744902611,"253":0.04186074808239937,"254":0.03237812593579292,"255":-0.01434270665049553,"256":-0.060921721160411835,"257":-0.024612950161099434,"258":-0.06088660657405853,"259":0.04202843829989433,"260":0.07221752405166626,"261":-0.03339415416121483,"262":-0.03613880276679993,"263":0.02379451133310795,"264":-0.02145128697156906,"265":0.07687431573867798,"266":0.012791942805051804,"267":0.02462686225771904,"268":-0.07195964455604553,"269":0.06463269144296646,"270":-0.025708528235554695,"271":-0.037729036062955856,"272":0.012528562918305397,"273":-0.0060292696580290794,"274":0.07387933880090714,"275":-0.050599105656147,"276":-0.0070336973294615746,"277":-0.027336157858371735,"278":-0.057366982102394104,"279":-0.016968343406915665,"280":-0.005688167177140713,"281":-0.03967990353703499,"282":0.011737587861716747,"283":-0.05102065950632095,"284":-0.062092941254377365,"285":-0.011442311108112335,"286":0.0422474630177021,"287":-0.01030077412724495,"288":0.04239113628864288,"289":0.05189969018101692,"290":-0.0787196159362793,"291":-0.04005127027630806,"292":-0.04586675390601158,"293":0.06763200461864471,"294":-0.07326887547969818,"295":0.007721737027168274,"296":0.06456461548805237,"297":-0.07358250766992569,"298":-0.04318899288773537,"299":-0.004530271980911493,"300":-0.07315570116043091,"301":0.07977866381406784,"302":0.01205546222627163,"303":-0.022574840113520622,"304":-0.04743044078350067,"305":-0.01707279123365879,"306":-0.07625342905521393,"307":0.07482388615608215,"308":0.033654410392045975,"309":-0.07789432257413864,"310":-0.06919220834970474,"311":0.0632689818739891,"312":0.03511437028646469,"313":0.06659049540758133,"314":0.0531621091067791,"315":0.03184163197875023,"316":0.02924642153084278,"317":0.00024052831577137113,"318":0.03959330543875694,"319":0.04734453186392784,"320":-0.07058796286582947,"321":0.04274247959256172,"322":0.04608163982629776,"323":-0.0345110259950161,"324":0.055146511644124985,"325":0.004801122471690178,"326":0.031880833208560944,"327":-0.06887923926115036,"328":-0.07283909618854523,"329":-0.0479377917945385,"330":0.018686916679143906,"331":-0.019927600398659706,"332":-0.05099121481180191,"333":-0.0015448532067239285,"334":0.0045759170316159725,"335":0.04864325001835823,"336":-0.05904143303632736,"337":-0.051250290125608444,"338":0.025189468637108803,"339":0.03183571249246597,"340":0.06316308677196503,"341":-0.07199881970882416,"342":-0.0009562379564158618,"343":0.019465291872620583,"344":-0.0612696073949337,"345":0.009425260126590729,"346":0.052380699664354324,"347":0.03707794100046158,"348":-0.05055619776248932,"349":-0.06920647621154785,"350":-0.03894494101405144,"351":-0.07037835568189621,"352":-0.04129040986299515,"353":0.0010864009382203221,"354":-0.03974538668990135,"355":0.06214428320527077,"356":0.011332668364048004,"357":-0.032946374267339706,"358":-0.015278687700629234,"359":0.04391727223992348,"360":0.027881165966391563,"361":-0.025090975686907768,"362":-0.02491879276931286,"363":0.004372988361865282,"364":-0.015547891147434711,"365":-0.059028077870607376,"366":0.046690721064805984,"367":-0.06407516449689865,"368":-0.05009901151061058,"369":0.02025923877954483,"370":0.048329588025808334,"371":-0.04094250872731209,"372":-0.003545789048075676,"373":0.07274333387613297,"374":-0.03860697150230408,"375":0.011754191480576992,"376":-0.07721260190010071,"377":0.07395949214696884,"378":0.03507645055651665,"379":-0.01916654221713543,"380":0.045399513095617294,"381":0.0063395146280527115,"382":0.01659417897462845,"383":0.048574332147836685,"384":0.06814231723546982,"385":-0.02618633769452572,"386":0.07023008912801743,"387":0.028278866782784462,"388":-0.07731658220291138,"389":-0.00820892583578825,"390":-0.0035327901132404804,"391":0.05792497470974922,"392":-0.0013445118675008416,"393":0.030391370877623558,"394":0.06598476320505142,"395":-0.057689543813467026,"396":0.07888023555278778,"397":0.031108463183045387,"398":0.00414781179279089,"399":-0.023456718772649765,"400":-0.02392895705997944,"401":-0.07623828947544098,"402":0.04417950659990311,"403":0.06566230952739716,"404":0.0703272819519043,"405":0.06329403072595596,"406":0.0663151741027832,"407":-0.008607168681919575,"408":-0.05075943470001221,"409":-0.010601249523460865,"410":0.044947728514671326,"411":0.009176562540233135,"412":0.04767470434308052,"413":-0.03747281804680824,"414":-0.036406997591257095,"415":-0.03635957092046738,"416":-0.03189494460821152,"417":-0.059394776821136475,"418":0.0066176969558000565,"419":-0.058757483959198}},"hiddenLayers":[{"inputMatrix":{"rows":20,"columns":20,"weights":{"0":-0.0321783646941185,"1":0.018375452607870102,"2":-0.05016782879829407,"3":-0.012338144704699516,"4":-0.07316699624061584,"5":-0.06744244694709778,"6":0.03757600113749504,"7":-0.013299031183123589,"8":-0.005425631999969482,"9":-0.07598043233156204,"10":-0.06067349389195442,"11":-0.04836539924144745,"12":0.0684136152267456,"13":-0.024471215903759003,"14":-0.02871956117451191,"15":-0.06390306353569031,"16":0.011668870225548744,"17":-0.05772995576262474,"18":0.05168148875236511,"19":-0.07006170600652695,"20":0.07882095873355865,"21":0.06634312123060226,"22":0.07381868362426758,"23":0.0658198744058609,"24":0.02732711285352707,"25":-0.002258868422359228,"26":0.016301065683364868,"27":-0.044405367225408554,"28":0.07764382660388947,"29":0.01508079282939434,"30":0.07492174953222275,"31":0.018686160445213318,"32":0.03695785254240036,"33":-0.008670343086123466,"34":-0.07469803094863892,"35":0.04771186411380768,"36":-0.07605879008769989,"37":0.013525836169719696,"38":-0.0008244337514042854,"39":0.034130312502384186,"40":-0.011873366311192513,"41":0.02104073390364647,"42":0.021124141290783882,"43":-0.013734675943851471,"44":0.014174029231071472,"45":-0.07942955195903778,"46":0.003273011650890112,"47":-0.011045457795262337,"48":-0.03572603687644005,"49":0.018198007717728615,"50":-0.022184589877724648,"51":0.030607765540480614,"52":0.056367095559835434,"53":-0.01225526724010706,"54":-0.041667334735393524,"55":-0.04133595526218414,"56":-0.010314456187188625,"57":-0.021186523139476776,"58":-0.0050065177492797375,"59":0.04147304221987724,"60":-0.03289255127310753,"61":-0.04608679190278053,"62":-0.05358006805181503,"63":0.04878772422671318,"64":0.032649580389261246,"65":0.05389297008514404,"66":-0.032899148762226105,"67":0.07854435592889786,"68":-0.06793411821126938,"69":-0.07905315607786179,"70":-0.011610575020313263,"71":0.011638850905001163,"72":0.0439160019159317,"73":-0.020775165408849716,"74":0.05270304158329964,"75":-0.011621076613664627,"76":-0.06971873342990875,"77":0.06237239018082619,"78":-0.05556318536400795,"79":0.028530968353152275,"80":0.06981796771287918,"81":0.07595231384038925,"82":-0.02186726965010166,"83":-0.014408783055841923,"84":0.04859962314367294,"85":0.05818816274404526,"86":-0.06999542564153671,"87":-0.001972871832549572,"88":0.01092933677136898,"89":-0.0023745810613036156,"90":0.065854512155056,"91":-0.0708542913198471,"92":0.012448451481759548,"93":-0.016319653019309044,"94":-0.010533359833061695,"95":-0.005214529111981392,"96":0.0352245457470417,"97":0.06004534289240837,"98":0.05335179343819618,"99":-0.01250661164522171,"100":-0.0077700079418718815,"101":-0.025217298418283463,"102":-0.03902009129524231,"103":0.01090725976973772,"104":-0.06419159471988678,"105":0.06411993503570557,"106":0.04568791016936302,"107":-0.05251314118504524,"108":0.010602635331451893,"109":0.07445963472127914,"110":-0.0006843357114121318,"111":-0.037834495306015015,"112":0.015041020698845387,"113":-0.044563181698322296,"114":-0.020628757774829865,"115":-0.04873942583799362,"116":-0.03594987466931343,"117":0.07513222843408585,"118":0.06168846786022186,"119":-0.07197311520576477,"120":0.038287971168756485,"121":0.013147814199328423,"122":0.034422487020492554,"123":-0.05254167318344116,"124":-0.04823559522628784,"125":-0.03507868945598602,"126":0.06897732615470886,"127":-0.017033161595463753,"128":0.05783648043870926,"129":0.0025793693494051695,"130":-0.07791135460138321,"131":-0.04451313614845276,"132":-0.020328857004642487,"133":-0.04087537154555321,"134":0.006778867915272713,"135":0.0796552523970604,"136":-0.07556349784135818,"137":-0.013248718343675137,"138":0.04463799670338631,"139":0.02293539047241211,"140":-0.017725354060530663,"141":-0.003830952802672982,"142":0.04549035802483559,"143":0.02373829111456871,"144":0.06850556284189224,"145":0.000954261573497206,"146":-0.0583980493247509,"147":0.00046886710333637893,"148":0.028272191062569618,"149":0.046962715685367584,"150":-0.03522506356239319,"151":-0.00797958392649889,"152":0.06487365067005157,"153":-0.05234018713235855,"154":0.045953236520290375,"155":0.03609192743897438,"156":-0.07149688154459,"157":0.04733920469880104,"158":-0.06671421229839325,"159":0.04122434929013252,"160":0.015767961740493774,"161":-0.07058871537446976,"162":0.07072701305150986,"163":0.0456489622592926,"164":-0.023314926773309708,"165":0.057504814118146896,"166":0.05738304927945137,"167":-0.040013156831264496,"168":-0.03281683474779129,"169":0.010696332901716232,"170":0.0741375982761383,"171":-0.06832751631736755,"172":-0.07428499311208725,"173":0.019893350079655647,"174":0.02363893948495388,"175":0.025631172582507133,"176":0.07672027498483658,"177":-0.029052257537841797,"178":0.008611357770860195,"179":-0.006544005125761032,"180":0.025864453986287117,"181":-0.05814768001437187,"182":0.06365422159433365,"183":-0.06058695167303085,"184":-0.07056096941232681,"185":0.012933703139424324,"186":-0.024595437571406364,"187":-0.028250109404325485,"188":-0.04135531932115555,"189":0.055865779519081116,"190":-0.02493315190076828,"191":0.07186364382505417,"192":-0.04940912872552872,"193":-0.027684276923537254,"194":0.07206017524003983,"195":0.02519216574728489,"196":-0.055436696857213974,"197":-0.06913767755031586,"198":0.05096461996436119,"199":0.05910873785614967,"200":0.07915111631155014,"201":0.019816946238279343,"202":0.058312639594078064,"203":-0.04587710648775101,"204":0.012373036704957485,"205":-0.058779552578926086,"206":0.03866603970527649,"207":0.02086460590362549,"208":0.057007402181625366,"209":0.07509949803352356,"210":0.04282062500715256,"211":-0.04043802246451378,"212":0.03633362427353859,"213":-0.04205511510372162,"214":-0.07566890120506287,"215":-0.006862443871796131,"216":0.06741420179605484,"217":-0.07146832346916199,"218":-0.06957759708166122,"219":0.058532021939754486,"220":0.06088949367403984,"221":-0.020310260355472565,"222":-0.0013570449082180858,"223":-0.0009536293218843639,"224":0.032531581819057465,"225":0.06630270183086395,"226":0.009548259899020195,"227":-0.04620347172021866,"228":0.05343461036682129,"229":0.0608413890004158,"230":0.04319940507411957,"231":0.030848762020468712,"232":-0.0213833786547184,"233":-0.02179693803191185,"234":0.056818921118974686,"235":-0.00003953992563765496,"236":-0.0797979012131691,"237":0.0049380105920135975,"238":-0.056211117655038834,"239":0.04227619990706444,"240":-0.07950109988451004,"241":-0.0238680150359869,"242":-0.010978045873343945,"243":0.07085604965686798,"244":0.0795898512005806,"245":0.04178167134523392,"246":-0.0587698332965374,"247":-0.07753908634185791,"248":-0.0789371058344841,"249":-0.05386146157979965,"250":0.04510064795613289,"251":-0.023153824731707573,"252":-0.028395408764481544,"253":0.018049385398626328,"254":-0.012034575454890728,"255":-0.015013587661087513,"256":0.07658567279577255,"257":0.03987829387187958,"258":0.07980279624462128,"259":0.01749005913734436,"260":-0.0007465151720680296,"261":-0.06988481432199478,"262":0.018705405294895172,"263":0.0407477430999279,"264":-0.05882294848561287,"265":0.0329466313123703,"266":0.0728457123041153,"267":0.06526684761047363,"268":0.009337149560451508,"269":0.05825051665306091,"270":0.07649411261081696,"271":-0.05013429746031761,"272":0.044296056032180786,"273":0.03924206271767616,"274":0.013231657445430756,"275":-0.06088147684931755,"276":-0.009481983259320259,"277":-0.01699657365679741,"278":0.04313172772526741,"279":-0.0022639872040599585,"280":0.0721357986330986,"281":-0.03967548906803131,"282":-0.013277056626975536,"283":-0.023129340261220932,"284":-0.008744754828512669,"285":0.030811840668320656,"286":0.021669890731573105,"287":-0.05186164379119873,"288":0.06552859395742416,"289":0.019684093073010445,"290":-0.03439559414982796,"291":-0.01843775436282158,"292":0.024573909118771553,"293":-0.0006127981469035149,"294":-0.05233341455459595,"295":0.01024589128792286,"296":-0.05250098183751106,"297":0.026426488533616066,"298":-0.014324723742902279,"299":0.07176577299833298,"300":-0.05268476903438568,"301":0.05217204988002777,"302":-0.05758446082472801,"303":0.07937274873256683,"304":-0.05972046032547951,"305":0.06565159559249878,"306":-0.014669444411993027,"307":-0.01975177973508835,"308":0.05738271400332451,"309":-0.02776113711297512,"310":-0.031431280076503754,"311":0.011123858392238617,"312":0.017837585881352425,"313":0.009745988994836807,"314":-0.009301330894231796,"315":-0.059248775243759155,"316":0.00014674782869406044,"317":0.021316947415471077,"318":-0.04592876136302948,"319":-0.045549340546131134,"320":-0.012956229969859123,"321":-0.0638623759150505,"322":-0.07220496237277985,"323":0.0017460172530263662,"324":-0.06529843062162399,"325":-0.04894100874662399,"326":-0.051673829555511475,"327":-0.06039983779191971,"328":-0.06068143621087074,"329":-0.04235577955842018,"330":0.07663024961948395,"331":0.04046817868947983,"332":0.048188913613557816,"333":0.04005351662635803,"334":-0.0007153043407015502,"335":-0.03449689969420433,"336":0.022521773353219032,"337":-0.04006601497530937,"338":-0.0799071416258812,"339":0.033673372119665146,"340":0.039955463260412216,"341":-0.023904774338006973,"342":0.047146838158369064,"343":-0.01464548148214817,"344":-0.017622018232941628,"345":-0.07031004130840302,"346":-0.05116648972034454,"347":0.05762519687414169,"348":0.00202415999956429,"349":-0.020718485116958618,"350":0.059381142258644104,"351":-0.017859671264886856,"352":0.043610867112874985,"353":-0.02076505683362484,"354":-0.07468270510435104,"355":-0.06044926866889,"356":0.04482287913560867,"357":-0.0034908363595604897,"358":0.018622400239109993,"359":-0.041900407522916794,"360":-0.049161747097969055,"361":-0.028545714914798737,"362":0.04854238033294678,"363":0.02467428706586361,"364":-0.07333878427743912,"365":-0.026828480884432793,"366":-0.03175468370318413,"367":-0.06659071147441864,"368":0.07030793279409409,"369":-0.04910379648208618,"370":0.023454997688531876,"371":-0.03585123270750046,"372":-0.06351255625486374,"373":0.02644212730228901,"374":0.0031962816137820482,"375":-0.04361175373196602,"376":0.0789770558476448,"377":0.005841547157615423,"378":-0.049299195408821106,"379":0.05429070442914963,"380":0.07386495918035507,"381":0.0736004039645195,"382":0.02057555504143238,"383":0.016916748136281967,"384":-0.0036371182650327682,"385":-0.061241377145051956,"386":0.04904654994606972,"387":-0.023032959550619125,"388":-0.030594903975725174,"389":0.024063715711236,"390":0.0050520398654043674,"391":-0.0773431733250618,"392":0.004470959771424532,"393":0.03065565414726734,"394":0.005679945927113295,"395":0.04571511968970299,"396":-0.06384436786174774,"397":0.0005732977297157049,"398":-0.017005177214741707,"399":0.022239195182919502}},"inputHidden":{"rows":20,"columns":20,"weights":{"0":-0.038859397172927856,"1":0.01854146085679531,"2":0.01436958834528923,"3":-0.009062777273356915,"4":0.023717522621154785,"5":-0.07162174582481384,"6":-0.04086273908615112,"7":-0.06554818898439407,"8":-0.043206918984651566,"9":-0.045576244592666626,"10":-0.014511330053210258,"11":-0.06479135155677795,"12":0.0736939087510109,"13":0.049873705953359604,"14":-0.043126944452524185,"15":-0.07490648329257965,"16":-0.008746027946472168,"17":0.07546568661928177,"18":-0.06314671039581299,"19":-0.005505131091922522,"20":0.06475745141506195,"21":-0.07695700228214264,"22":-0.007327640894800425,"23":0.05948295071721077,"24":0.000624011445324868,"25":0.05746062472462654,"26":0.05897114798426628,"27":0.04525148123502731,"28":-0.05866418406367302,"29":0.014696512371301651,"30":0.03264152631163597,"31":-0.06502698361873627,"32":0.057660456746816635,"33":0.031795185059309006,"34":0.006509874016046524,"35":-0.006910585332661867,"36":0.03271408751606941,"37":-0.041928596794605255,"38":0.038884472101926804,"39":-0.02589823119342327,"40":-0.06553474068641663,"41":0.0779350996017456,"42":0.04766624793410301,"43":0.05557788535952568,"44":0.0209408700466156,"45":0.07912062853574753,"46":0.030794505029916763,"47":-0.038589172065258026,"48":0.07322955876588821,"49":-0.018292009830474854,"50":-0.06334473192691803,"51":-0.009866847656667233,"52":0.07263045758008957,"53":-0.05862915888428688,"54":-0.00769472774118185,"55":0.03296148031949997,"56":0.04772789031267166,"57":0.059420790523290634,"58":0.03762475401163101,"59":-0.020699992775917053,"60":-0.06754585355520248,"61":0.0686323493719101,"62":-0.07595674693584442,"63":0.07945238053798676,"64":-0.026353156194090843,"65":0.07349935919046402,"66":0.07243422418832779,"67":0.07444890588521957,"68":0.034693386405706406,"69":-0.0684569701552391,"70":-0.06676367670297623,"71":0.05279567465186119,"72":0.009412122890353203,"73":0.001812417060136795,"74":0.031664613634347916,"75":-0.005723280366510153,"76":-0.004856435116380453,"77":0.002027363982051611,"78":0.06147873029112816,"79":-0.013638151809573174,"80":-0.04776718467473984,"81":0.01545560359954834,"82":0.005093386396765709,"83":-0.02578706294298172,"84":0.025373945012688637,"85":0.05086769536137581,"86":0.000012721568054985255,"87":-0.0603492297232151,"88":0.07246382534503937,"89":0.06533178687095642,"90":0.04399482533335686,"91":-0.07204213738441467,"92":-0.037486542016267776,"93":0.007548976223915815,"94":-0.076299287378788,"95":-0.02497066929936409,"96":0.00031667453004047275,"97":-0.027253083884716034,"98":-0.0746697261929512,"99":-0.0791269987821579,"100":-0.010806304402649403,"101":-0.07318484783172607,"102":-0.015342731028795242,"103":0.04247298464179039,"104":-0.03160060942173004,"105":-0.03813343495130539,"106":0.017672359943389893,"107":-0.004176241811364889,"108":0.02848314866423607,"109":0.045484982430934906,"110":0.0564107671380043,"111":0.007516872603446245,"112":-0.04976937547326088,"113":-0.029908964410424232,"114":-0.07460436969995499,"115":0.05622239038348198,"116":-0.001567884930409491,"117":-0.06938087940216064,"118":-0.03485347330570221,"119":-0.005095268599689007,"120":0.06417033821344376,"121":0.054367147386074066,"122":0.07310105860233307,"123":-0.03770024701952934,"124":0.029228001832962036,"125":0.07571331411600113,"126":0.07949109375476837,"127":0.07046487927436829,"128":0.023144448176026344,"129":-0.017363831400871277,"130":0.0048910765908658504,"131":-0.005595787428319454,"132":-0.03362984210252762,"133":-0.077361561357975,"134":-0.03402585908770561,"135":0.07320328801870346,"136":-0.022484304383397102,"137":-0.013694367371499538,"138":-0.07344983518123627,"139":0.025420643389225006,"140":0.056258440017700195,"141":-0.054179251194000244,"142":-0.07705751806497574,"143":-0.010204234160482883,"144":-0.002904909895732999,"145":-0.021519998088479042,"146":-0.06484945118427277,"147":0.060870829969644547,"148":-0.033328864723443985,"149":-0.0033278309274464846,"150":0.04042861983180046,"151":-0.06417199224233627,"152":0.0777372196316719,"153":0.07244446128606796,"154":0.04197436943650246,"155":0.021697131916880608,"156":-0.05534663796424866,"157":-0.05196259170770645,"158":0.06430362910032272,"159":-0.07139484584331512,"160":0.06961721181869507,"161":0.06597542017698288,"162":0.06518760323524475,"163":0.05657852068543434,"164":-0.03496424853801727,"165":0.04289984330534935,"166":0.009701710194349289,"167":0.07593291997909546,"168":0.017216548323631287,"169":-0.03598828986287117,"170":-0.05285787582397461,"171":-0.03596524894237518,"172":0.07663817703723907,"173":-0.0551040917634964,"174":0.07889425754547119,"175":-0.06368240714073181,"176":-0.012081059627234936,"177":0.04747453331947327,"178":0.034147586673498154,"179":-0.01897517964243889,"180":-0.06739656627178192,"181":-0.05042191967368126,"182":0.06365371495485306,"183":0.0789053738117218,"184":0.043716028332710266,"185":0.06059751287102699,"186":0.006074555683881044,"187":-0.0589563325047493,"188":-0.055442266166210175,"189":-0.046860311180353165,"190":-0.06696060299873352,"191":-0.02847384475171566,"192":-0.039925288408994675,"193":-0.07364866137504578,"194":-0.03467929735779762,"195":-0.0783529207110405,"196":-0.0756937563419342,"197":-0.06245464086532593,"198":0.06057991087436676,"199":-0.04683760181069374,"200":0.060365643352270126,"201":0.06968078762292862,"202":-0.047915417701005936,"203":0.03682476654648781,"204":-0.04342823848128319,"205":-0.07734645903110504,"206":-0.06832805275917053,"207":0.004826079588383436,"208":0.019895439967513084,"209":-0.012368708848953247,"210":0.05855768546462059,"211":-0.02801361307501793,"212":-0.061647459864616394,"213":-0.06321242451667786,"214":-0.0019024757202714682,"215":-0.022301077842712402,"216":0.05488818883895874,"217":-0.03308485448360443,"218":-0.014644470997154713,"219":-0.018689436838030815,"220":-0.012398960068821907,"221":0.05298297479748726,"222":-0.018151018768548965,"223":-0.025581132620573044,"224":-0.0634443461894989,"225":-0.032862719148397446,"226":-0.004658982157707214,"227":0.07814048230648041,"228":0.050060201436281204,"229":-0.07271543145179749,"230":-0.05320058763027191,"231":-0.007721265312284231,"232":0.04441685974597931,"233":0.07651888579130173,"234":-0.02964652143418789,"235":-0.023967286571860313,"236":0.03281571716070175,"237":0.005743644665926695,"238":-0.04430004209280014,"239":-0.03449348360300064,"240":0.07065541297197342,"241":0.05539877712726593,"242":0.07730548828840256,"243":-0.006030820310115814,"244":0.010495340451598167,"245":-0.05879494175314903,"246":-0.017609523609280586,"247":-0.07513377815485,"248":-0.0050924476236104965,"249":-0.0208230372518301,"250":-0.009688199497759342,"251":0.03147214278578758,"252":0.0053381784819066525,"253":0.006863072980195284,"254":0.019695045426487923,"255":-0.05636989325284958,"256":0.055994920432567596,"257":-0.019031226634979248,"258":-0.06297776103019714,"259":0.06370290368795395,"260":-0.024362703785300255,"261":-0.014690516516566277,"262":0.0671025812625885,"263":0.045806221663951874,"264":0.04277458041906357,"265":-0.006890593096613884,"266":-0.009910531342029572,"267":-0.05632096901535988,"268":-0.031203242018818855,"269":0.03196747973561287,"270":-0.006694955285638571,"271":0.012506433762609959,"272":-0.053208183497190475,"273":-0.042699821293354034,"274":0.0523730032145977,"275":-0.022694135084748268,"276":-0.03966045752167702,"277":0.03973599523305893,"278":-0.0382642038166523,"279":-0.07404091209173203,"280":0.07170924544334412,"281":0.05354950204491615,"282":0.010545534081757069,"283":-0.06820374727249146,"284":0.07132292538881302,"285":0.0450139082968235,"286":-0.06314067542552948,"287":0.07919586449861526,"288":0.03342369571328163,"289":0.025803640484809875,"290":0.03029332496225834,"291":-0.07742521166801453,"292":-0.0573873408138752,"293":0.0347638800740242,"294":0.0006373991491273046,"295":-0.029799625277519226,"296":0.004854399245232344,"297":0.03660441190004349,"298":-0.0228428952395916,"299":0.057975925505161285,"300":-0.0381489023566246,"301":0.0506991446018219,"302":0.05641603842377663,"303":-0.050682295113801956,"304":-0.03994764760136604,"305":0.05509616434574127,"306":0.021204419434070587,"307":-0.07657483220100403,"308":-0.021566372364759445,"309":0.0318148210644722,"310":0.0280973669141531,"311":-0.0497620552778244,"312":0.017734909430146217,"313":-0.06374113261699677,"314":-0.05479507893323898,"315":-0.07138577848672867,"316":-0.0019350366201251745,"317":-0.012098272331058979,"318":-0.0019473948050290346,"319":-0.04466695338487625,"320":0.03310474380850792,"321":0.04464009031653404,"322":-0.05678399279713631,"323":-0.028390832245349884,"324":0.06188390031456947,"325":-0.06228087097406387,"326":-0.0010987757705152035,"327":0.049070216715335846,"328":0.035860996693372726,"329":-0.056056417524814606,"330":-0.0005930542829446495,"331":-0.042910318821668625,"332":-0.04783147573471069,"333":-0.011748000979423523,"334":-0.002817875938490033,"335":0.07763364911079407,"336":-0.055976491421461105,"337":-0.018736692145466805,"338":0.023275582119822502,"339":0.07445699721574783,"340":-0.07359354943037033,"341":-0.004447526298463345,"342":0.0067331306636333466,"343":-0.03214678168296814,"344":0.010098692961037159,"345":-0.05238718166947365,"346":-0.028089486062526703,"347":-0.07913718372583389,"348":0.017954785376787186,"349":-0.05947472155094147,"350":-0.054406363517045975,"351":0.027942325919866562,"352":-0.06050163879990578,"353":-0.032101020216941833,"354":0.0032696120906621218,"355":0.015406748279929161,"356":0.06971334666013718,"357":-0.05616508051753044,"358":0.05969482660293579,"359":-0.06074146553874016,"360":-0.03921456262469292,"361":0.019281649962067604,"362":-0.060774024575948715,"363":0.024544870480895042,"364":0.07071909308433533,"365":0.026304379105567932,"366":0.04773280397057533,"367":0.06830260157585144,"368":-0.07261556386947632,"369":0.065678671002388,"370":0.003553092945367098,"371":0.06776175647974014,"372":-0.018406657502055168,"373":-0.034431710839271545,"374":-0.07613728940486908,"375":0.07370040565729141,"376":0.042683813720941544,"377":0.040628623217344284,"378":-0.06643514335155487,"379":0.04077093303203583,"380":-0.01852472871541977,"381":-0.014023136347532272,"382":0.042852360755205154,"383":-0.005454714875668287,"384":0.047021761536598206,"385":0.0268173236399889,"386":0.043708983808755875,"387":0.05682210251688957,"388":-0.07867302000522614,"389":0.030304821208119392,"390":-0.06496727466583252,"391":0.047461364418268204,"392":-0.05423986539244652,"393":-0.02989128604531288,"394":-0.0056536090560257435,"395":-0.0313556008040905,"396":-0.0621144063770771,"397":0.03410576656460762,"398":-0.07136452198028564,"399":-0.003748764982447028}},"inputBias":{"rows":20,"columns":1,"weights":{"0":0,"1":0,"2":0,"3":0,"4":0,"5":0,"6":0,"7":0,"8":0,"9":0,"10":0,"11":0,"12":0,"13":0,"14":0,"15":0,"16":0,"17":0,"18":0,"19":0}},"forgetMatrix":{"rows":20,"columns":20,"weights":{"0":-0.05812977999448776,"1":0.013439689762890339,"2":-0.038224104791879654,"3":0.05208166316151619,"4":0.07196171581745148,"5":-0.03797192871570587,"6":0.04505602642893791,"7":-0.07211636751890182,"8":-0.05880367383360863,"9":0.013577856123447418,"10":-0.005822472274303436,"11":0.04507774859666824,"12":-0.02972717396914959,"13":-0.013508053496479988,"14":-0.07093194872140884,"15":0.03951863944530487,"16":-0.020870666950941086,"17":0.041888028383255005,"18":0.05655346438288689,"19":-0.01842917501926422,"20":-0.007687000557780266,"21":0.033461183309555054,"22":-0.011408526450395584,"23":-0.07595831155776978,"24":-0.04162200167775154,"25":0.024130547419190407,"26":-0.009218751452863216,"27":0.03576640039682388,"28":-0.003324190154671669,"29":-0.06262560188770294,"30":-0.07365376502275467,"31":0.06557975709438324,"32":0.03662043437361717,"33":0.026146335527300835,"34":0.04834109917283058,"35":0.07964770495891571,"36":-0.061520323157310486,"37":0.06399425864219666,"38":0.026288343593478203,"39":-0.0034062345512211323,"40":0.027213716879487038,"41":-0.060880739241838455,"42":-0.025704214349389076,"43":-0.03082752227783203,"44":-0.061845455318689346,"45":0.04078618064522743,"46":0.014947687275707722,"47":0.05389716103672981,"48":0.031060103327035904,"49":-0.0022937182802706957,"50":-0.06597700715065002,"51":0.07730229198932648,"52":-0.029109636321663857,"53":0.013709569349884987,"54":-0.04565589874982834,"55":-0.0616912879049778,"56":0.0655767023563385,"57":-0.05718090385198593,"58":-0.06537115573883057,"59":-0.048397693783044815,"60":-0.046323440968990326,"61":-0.06281916797161102,"62":0.02428359165787697,"63":-0.005410599056631327,"64":0.02342507243156433,"65":-0.024439020082354546,"66":-0.02809225767850876,"67":0.05562686547636986,"68":-0.015928136184811592,"69":0.024493485689163208,"70":-0.07382124662399292,"71":-0.0728752613067627,"72":0.01300992164760828,"73":-0.05391136556863785,"74":-0.06445404887199402,"75":-0.05863538756966591,"76":-0.050374142825603485,"77":-0.02972131036221981,"78":-0.019219396635890007,"79":-0.010695069096982479,"80":-0.002468481892719865,"81":0.006751529406756163,"82":-0.06834372133016586,"83":0.07893463969230652,"84":-0.028167959302663803,"85":0.07804276049137115,"86":-0.06703905761241913,"87":0.013351182453334332,"88":-0.011836434714496136,"89":-0.05232725292444229,"90":0.06482838839292526,"91":0.06879488378763199,"92":0.028808683156967163,"93":0.0634574219584465,"94":0.06422856450080872,"95":-0.04508868604898453,"96":-0.024286260828375816,"97":-0.03319316729903221,"98":-0.056387610733509064,"99":-0.03405049815773964,"100":-0.07393331080675125,"101":0.028227899223566055,"102":-0.045009564608335495,"103":0.04578449949622154,"104":0.051141493022441864,"105":0.06369354575872421,"106":0.07238046079874039,"107":0.057123731821775436,"108":0.033040497452020645,"109":-0.028624434024095535,"110":-0.05310516804456711,"111":0.003384189447388053,"112":-0.008358785882592201,"113":0.04372190684080124,"114":-0.05484059080481529,"115":0.013723859563469887,"116":0.032611388713121414,"117":-0.03660659119486809,"118":-0.031104188412427902,"119":0.0017166431061923504,"120":-0.07982691377401352,"121":0.03374466300010681,"122":0.05940089002251625,"123":0.07733569294214249,"124":0.035248614847660065,"125":0.030862582847476006,"126":0.018309451639652252,"127":0.029358034953475,"128":0.01689092069864273,"129":0.07669307291507721,"130":-0.06746674329042435,"131":-0.013470888137817383,"132":-0.05014503002166748,"133":0.01909438893198967,"134":-0.06137749180197716,"135":-0.043483149260282516,"136":0.02026856504380703,"137":0.04712166264653206,"138":-0.05459706857800484,"139":0.06595060229301453,"140":0.026386212557554245,"141":0.041534606367349625,"142":-0.03652505576610565,"143":0.07529690861701965,"144":0.011054976843297482,"145":-0.019125403836369514,"146":-0.02011578157544136,"147":0.07755952328443527,"148":-0.03347725048661232,"149":-0.04513091221451759,"150":0.05740325152873993,"151":0.033342331647872925,"152":0.05833758786320686,"153":0.01528148539364338,"154":-0.007035442627966404,"155":0.03455834090709686,"156":-0.05442918837070465,"157":0.016678733751177788,"158":-0.06177742779254913,"159":0.05165354534983635,"160":0.012139728292822838,"161":0.07675578445196152,"162":0.05705634504556656,"163":-0.05861736088991165,"164":0.00010512302105780691,"165":-0.05290629342198372,"166":-0.02566322311758995,"167":0.03941890224814415,"168":-0.05489058047533035,"169":-0.032703690230846405,"170":-0.07642180472612381,"171":-0.05210971087217331,"172":-0.03210833668708801,"173":0.0019818474538624287,"174":-0.03375658765435219,"175":0.02625099942088127,"176":-0.07667150348424911,"177":0.030285436660051346,"178":0.005533203948289156,"179":0.005333436653017998,"180":0.01005110889673233,"181":-0.06985536217689514,"182":0.0333201065659523,"183":-0.020036716014146805,"184":-0.07582388073205948,"185":0.07689988613128662,"186":0.030616136267781258,"187":-0.06973271816968918,"188":0.0720529556274414,"189":0.0597604401409626,"190":-0.05460529401898384,"191":-0.0691017359495163,"192":-0.03300831839442253,"193":-0.022486038506031036,"194":0.023766949772834778,"195":-0.06407774239778519,"196":-0.03899797424674034,"197":-0.03437213599681854,"198":-0.0031184491235762835,"199":0.04075561463832855,"200":0.02388036996126175,"201":0.054269611835479736,"202":0.07086855918169022,"203":0.03880778327584267,"204":0.04420460760593414,"205":0.0794607624411583,"206":-0.024829266592860222,"207":0.07169340550899506,"208":-0.04685065150260925,"209":0.0787181481719017,"210":-0.0501553937792778,"211":-0.01000696700066328,"212":0.051771290600299835,"213":-0.017506010830402374,"214":0.05890761315822601,"215":-0.06426628679037094,"216":-0.02675057202577591,"217":-0.063350610435009,"218":-0.0676020011305809,"219":0.03954095393419266,"220":-0.038756925612688065,"221":-0.0029782766941934824,"222":0.04051649197936058,"223":0.031415101140737534,"224":0.07418282330036163,"225":0.05119874328374863,"226":-0.007776463869959116,"227":0.05724779888987541,"228":0.0640358254313469,"229":-0.06418851763010025,"230":0.01939142867922783,"231":-0.05340874195098877,"232":-0.0012978785671293736,"233":-0.014627661556005478,"234":0.014590769074857235,"235":0.0599462166428566,"236":-0.015995727851986885,"237":0.06823616474866867,"238":0.01030044723302126,"239":0.060248881578445435,"240":0.02705937996506691,"241":-0.001270995824597776,"242":-0.028751440346240997,"243":-0.07403382658958435,"244":0.06469564139842987,"245":-0.07463380694389343,"246":-0.04069548100233078,"247":-0.011244099587202072,"248":0.0755026564002037,"249":-0.048475366085767746,"250":-0.04044286906719208,"251":-0.05654388293623924,"252":-0.01815354824066162,"253":0.0006888649659231305,"254":-0.03607029467821121,"255":0.06331987679004669,"256":-0.02328367345035076,"257":-0.06137663498520851,"258":0.04325425252318382,"259":0.07665159553289413,"260":-0.0048412843607366085,"261":0.03204929828643799,"262":0.032827652990818024,"263":0.06327071785926819,"264":-0.003108574543148279,"265":0.06057339534163475,"266":0.046965088695287704,"267":-0.012359365820884705,"268":0.048938702791929245,"269":-0.07921893149614334,"270":-0.06809021532535553,"271":0.012032995000481606,"272":-0.05750881880521774,"273":-0.016439173370599747,"274":0.05508120730519295,"275":-0.049316681921482086,"276":-0.06936773657798767,"277":-0.059289589524269104,"278":0.019191620871424675,"279":0.002261280780658126,"280":-0.003668357850983739,"281":0.06426599621772766,"282":0.06355324387550354,"283":-0.031035931780934334,"284":0.028902187943458557,"285":-0.04294866696000099,"286":0.05120624974370003,"287":0.05391613394021988,"288":0.013372756540775299,"289":0.03667899966239929,"290":0.0608304925262928,"291":0.009471585042774677,"292":0.011331558227539062,"293":0.02950192801654339,"294":0.018762467429041862,"295":-0.014938977546989918,"296":0.050273191183805466,"297":0.042684298008680344,"298":-0.04370763525366783,"299":-0.07108122110366821,"300":-0.07490949332714081,"301":0.06523853540420532,"302":0.05752495303750038,"303":0.0720125362277031,"304":0.05089731141924858,"305":-0.0020817494951188564,"306":0.041492659598588943,"307":0.07177913933992386,"308":-0.03281155601143837,"309":-0.020278779789805412,"310":0.04410091042518616,"311":0.002590105403214693,"312":0.0781722366809845,"313":0.011601313017308712,"314":-0.06101466342806816,"315":-0.046817347407341,"316":-0.004401052370667458,"317":-0.04207054153084755,"318":-0.06139422580599785,"319":0.0766107365489006,"320":-0.07654138654470444,"321":0.07084684818983078,"322":-0.07671134918928146,"323":0.07099910825490952,"324":-0.0704093724489212,"325":0.01934799924492836,"326":0.021616710349917412,"327":-0.05950611084699631,"328":-0.03050440177321434,"329":0.016885794699192047,"330":-0.07742229849100113,"331":0.04554015025496483,"332":-0.020154369994997978,"333":-0.029253125190734863,"334":-0.005753927864134312,"335":0.02798045240342617,"336":-0.07099998742341995,"337":0.05205376446247101,"338":0.015117421746253967,"339":-0.01970132440328598,"340":0.026170603930950165,"341":-0.05425781384110451,"342":-0.04920836165547371,"343":0.06182357668876648,"344":-0.054556600749492645,"345":0.022859295830130577,"346":-0.05183358117938042,"347":-0.05199911817908287,"348":-0.019708950072526932,"349":-0.03557506576180458,"350":0.026444464921951294,"351":0.04719551280140877,"352":0.017901744693517685,"353":-0.05898497626185417,"354":-0.009574664756655693,"355":0.0761466920375824,"356":-0.05312881991267204,"357":-0.07998468726873398,"358":0.004467919934540987,"359":-0.05664604902267456,"360":-0.020447177812457085,"361":0.0624777153134346,"362":0.07420067489147186,"363":0.07985822856426239,"364":-0.025325767695903778,"365":0.011574577540159225,"366":0.003596501424908638,"367":0.032756607979536057,"368":0.029330875724554062,"369":-0.0029325983487069607,"370":-0.07740623503923416,"371":-0.006328238639980555,"372":-0.03281848505139351,"373":0.06517238169908524,"374":-0.060944657772779465,"375":-0.01593068055808544,"376":0.013298624195158482,"377":0.0033130161464214325,"378":0.0674600824713707,"379":0.03930884972214699,"380":0.008035893552005291,"381":-0.02962714619934559,"382":0.02443133294582367,"383":0.024631276726722717,"384":-0.0005321407807059586,"385":-0.02286973036825657,"386":0.07148261368274689,"387":0.07115592062473297,"388":-0.05559602379798889,"389":0.07587793469429016,"390":0.0033762427046895027,"391":0.03292657434940338,"392":0.06977130472660065,"393":-0.05158562585711479,"394":-0.07540234178304672,"395":-0.02741244249045849,"396":0.023682117462158203,"397":0.029886920005083084,"398":0.07878170162439346,"399":0.07402490079402924}},"forgetHidden":{"rows":20,"columns":20,"weights":{"0":0.07950769364833832,"1":0.06315700709819794,"2":-0.05636100471019745,"3":0.05658579245209694,"4":0.07278814166784286,"5":0.061801161617040634,"6":-0.03402242064476013,"7":0.00892376247793436,"8":-0.02777409367263317,"9":0.004451052751392126,"10":-0.03479691222310066,"11":0.05300356075167656,"12":0.04019656032323837,"13":0.017428388819098473,"14":0.043065864592790604,"15":0.0556054413318634,"16":0.05716054514050484,"17":0.020150044932961464,"18":0.07580137997865677,"19":-0.07929886877536774,"20":-0.05809168145060539,"21":0.02503829076886177,"22":-0.025767767801880836,"23":-0.00010943404777208343,"24":-0.003229669062420726,"25":0.03521546721458435,"26":-0.02103401906788349,"27":-0.03199852630496025,"28":0.0065476722083985806,"29":-0.07226129621267319,"30":-0.055298756808042526,"31":-0.04951438680291176,"32":-0.06239629536867142,"33":-0.007479260675609112,"34":0.02098289132118225,"35":-0.02816714160144329,"36":0.02249283529818058,"37":-0.07240895926952362,"38":-0.025475865229964256,"39":-0.020233916118741035,"40":0.009931230917572975,"41":-0.051187705248594284,"42":-0.050718870013952255,"43":-0.03248389810323715,"44":0.07920945435762405,"45":-0.01889554038643837,"46":0.03591841086745262,"47":-0.009596030227839947,"48":0.02933605946600437,"49":-0.06394083797931671,"50":-0.0175910796970129,"51":0.03928893432021141,"52":-0.06107725575566292,"53":0.07191254198551178,"54":0.07972528785467148,"55":0.04380660504102707,"56":0.03762909770011902,"57":-0.041435886174440384,"58":-0.032053034752607346,"59":0.07425099611282349,"60":0.021955758333206177,"61":-0.0724756196141243,"62":-0.029431477189064026,"63":0.05340525880455971,"64":0.04861067235469818,"65":-0.07724380493164062,"66":0.03674767538905144,"67":-0.03320465236902237,"68":-0.048612408339977264,"69":0.05127742141485214,"70":-0.029882360249757767,"71":-0.07474209368228912,"72":0.052005719393491745,"73":-0.0762205496430397,"74":0.020505398511886597,"75":0.061437059193849564,"76":-0.0064739566296339035,"77":-0.01369350403547287,"78":-0.06289594620466232,"79":0.01894332841038704,"80":0.00954490713775158,"81":-0.028650298714637756,"82":0.070338673889637,"83":-0.05422068387269974,"84":0.0262456014752388,"85":-0.0475672222673893,"86":0.015036049298942089,"87":0.038346387445926666,"88":-0.0635540559887886,"89":-0.022528819739818573,"90":0.06385056674480438,"91":0.03198131546378136,"92":0.038522738963365555,"93":-0.07516118884086609,"94":0.01759311929345131,"95":0.0026581597048789263,"96":-0.06313338875770569,"97":0.019264431670308113,"98":0.05018354952335358,"99":0.02531682699918747,"100":0.004546718671917915,"101":0.04748300462961197,"102":0.04949891194701195,"103":0.0423877090215683,"104":-0.01867976225912571,"105":-0.042965859174728394,"106":-0.028528975322842598,"107":0.01964624412357807,"108":0.002307129791006446,"109":0.06333190947771072,"110":0.07401461899280548,"111":0.001136237639002502,"112":-0.02882033959031105,"113":-0.04194887354969978,"114":0.05462043359875679,"115":-0.06346748769283295,"116":0.014870326034724712,"117":0.01992225833237171,"118":-0.04282428324222565,"119":0.06599955260753632,"120":-0.00670851394534111,"121":0.03558189794421196,"122":0.039241723716259,"123":-0.013503867201507092,"124":0.009032141417264938,"125":0.02797836810350418,"126":-0.013740591704845428,"127":-0.06576471775770187,"128":0.046572376042604446,"129":0.016657566651701927,"130":-0.02574094757437706,"131":0.028290240094065666,"132":0.07261905819177628,"133":0.027056043967604637,"134":0.04044715315103531,"135":-0.031199051067233086,"136":0.03350014239549637,"137":0.05012441799044609,"138":0.013778476044535637,"139":0.06996661424636841,"140":-0.00837469007819891,"141":0.01109367422759533,"142":-0.006722400896251202,"143":0.07546978443861008,"144":0.07760199159383774,"145":-0.07016786187887192,"146":0.020959651097655296,"147":0.03173092007637024,"148":0.03552224487066269,"149":-0.033672574907541275,"150":0.016094520688056946,"151":0.036110103130340576,"152":-0.01904323138296604,"153":0.028643712401390076,"154":0.05446344614028931,"155":-0.0029405211098492146,"156":0.05191870778799057,"157":0.004220851697027683,"158":0.05426320061087608,"159":0.02358892373740673,"160":-0.05845591798424721,"161":-0.01247697975486517,"162":-0.050152238458395004,"163":0.06820715963840485,"164":0.07842947542667389,"165":-0.0705869272351265,"166":-0.01919388584792614,"167":-0.011482047848403454,"168":-0.05961520969867706,"169":-0.039054010063409805,"170":0.019479941576719284,"171":-0.06603563576936722,"172":0.05505095422267914,"173":-0.0378996804356575,"174":-0.023800626397132874,"175":-0.06737209111452103,"176":0.0705045685172081,"177":-0.03289997577667236,"178":-0.06810276955366135,"179":0.010588755831122398,"180":0.07389376312494278,"181":-0.05035027861595154,"182":0.039377469569444656,"183":0.053554732352495193,"184":0.004705770872533321,"185":0.034440647810697556,"186":0.07700925320386887,"187":-0.04564099386334419,"188":0.0013093816814944148,"189":-0.07223130017518997,"190":0.0654837116599083,"191":0.06313204020261765,"192":-0.019402839243412018,"193":0.055556703358888626,"194":-0.06468147784471512,"195":-0.023882072418928146,"196":0.0160217247903347,"197":0.013957316055893898,"198":-0.07248197495937347,"199":-0.05393696576356888,"200":-0.028416091576218605,"201":0.07222041487693787,"202":0.03453893959522247,"203":-0.03844019025564194,"204":-0.04248812049627304,"205":-0.009922998957335949,"206":-0.07716599851846695,"207":0.04993873089551926,"208":0.030734701082110405,"209":-0.07884243875741959,"210":0.043534498661756516,"211":-0.028377216309309006,"212":0.07562348246574402,"213":0.07762569934129715,"214":0.07884006202220917,"215":-0.013497039675712585,"216":0.02067503333091736,"217":-0.0564860925078392,"218":-0.009605332277715206,"219":0.056754790246486664,"220":-0.010980210267007351,"221":0.02457895502448082,"222":0.033366650342941284,"223":0.011703749187290668,"224":-0.06411084532737732,"225":0.02568218484520912,"226":0.04647492244839668,"227":-0.05734841898083687,"228":0.0494021438062191,"229":-0.03933300822973251,"230":-0.02285919524729252,"231":-0.0685444250702858,"232":0.06218171492218971,"233":0.05377403646707535,"234":-0.04236657917499542,"235":0.032603729516267776,"236":-0.004147696308791637,"237":0.012664766982197762,"238":-0.04190290719270706,"239":-0.018615497276186943,"240":0.004962689243257046,"241":0.009244507178664207,"242":-0.06731605529785156,"243":-0.07945463806390762,"244":0.01319230068475008,"245":0.004976025782525539,"246":0.006736690644174814,"247":-0.03719594329595566,"248":0.06979867815971375,"249":-0.044670093804597855,"250":-0.07610823214054108,"251":-0.07528200000524521,"252":-0.03303739055991173,"253":-0.017216317355632782,"254":0.04687890782952309,"255":-0.044201381504535675,"256":-0.044064752757549286,"257":0.05360177531838417,"258":-0.050582949072122574,"259":-0.01915547251701355,"260":-0.017963023856282234,"261":-0.011645079590380192,"262":0.008404245600104332,"263":0.03793829679489136,"264":-0.07638555020093918,"265":0.039344578981399536,"266":0.060650087893009186,"267":0.07156361639499664,"268":-0.07370410859584808,"269":0.06919971853494644,"270":-0.043453142046928406,"271":0.040535662323236465,"272":0.011880329810082912,"273":0.039377860724925995,"274":0.07144065946340561,"275":0.03397255018353462,"276":-0.009961353614926338,"277":-0.024403732270002365,"278":-0.06329316645860672,"279":0.06151542067527771,"280":0.07039070129394531,"281":0.06136012822389603,"282":-0.03470601513981819,"283":-0.033105622977018356,"284":-0.06902416050434113,"285":-0.07990338653326035,"286":0.07654199749231339,"287":-0.06661731749773026,"288":0.07701291888952255,"289":-0.0036143192555755377,"290":-0.006554680876433849,"291":0.03157058358192444,"292":-0.028525857254862785,"293":-0.047319378703832626,"294":-0.05625486001372337,"295":-0.07438293099403381,"296":0.010678610764443874,"297":-0.0730702131986618,"298":-0.07887213677167892,"299":0.03489949554204941,"300":-0.07354293763637543,"301":0.03719940036535263,"302":-0.013912012800574303,"303":0.03851664438843727,"304":0.00603140564635396,"305":0.07611194252967834,"306":-0.07480353116989136,"307":0.06400547176599503,"308":-0.048541683703660965,"309":-0.016612611711025238,"310":0.03509374335408211,"311":-0.051289789378643036,"312":-0.009926187805831432,"313":-0.055890608578920364,"314":0.07661784440279007,"315":-0.0022207903675734997,"316":0.024994509294629097,"317":0.040237829089164734,"318":0.0000036030721730639925,"319":-0.004520602989941835,"320":-0.011327694170176983,"321":0.0592585913836956,"322":-0.046685896813869476,"323":-0.05519939959049225,"324":-0.05112048611044884,"325":-0.07357587665319443,"326":0.045086342841386795,"327":0.04649454355239868,"328":-0.025906212627887726,"329":0.025030463933944702,"330":0.027023550122976303,"331":0.06751380860805511,"332":0.052280474454164505,"333":-0.07776330411434174,"334":-0.034925393760204315,"335":0.010461174882948399,"336":-0.04905613139271736,"337":0.005508922040462494,"338":0.06373772025108337,"339":0.01721837930381298,"340":-0.048943016678094864,"341":-0.04445179924368858,"342":-0.0032563696149736643,"343":-0.023971155285835266,"344":0.004168751649558544,"345":0.04693290963768959,"346":0.0018316041678190231,"347":-0.03296598419547081,"348":-0.05071188136935234,"349":-0.028584228828549385,"350":-0.02144109457731247,"351":-0.02834891527891159,"352":0.0020245083142071962,"353":0.07200853526592255,"354":0.05984526872634888,"355":-0.05079168453812599,"356":0.03157646581530571,"357":-0.032399408519268036,"358":0.017835242673754692,"359":0.06381712108850479,"360":0.026641499251127243,"361":0.0694723054766655,"362":-0.02716844342648983,"363":-0.01115984283387661,"364":0.07476609200239182,"365":-0.07988254725933075,"366":-0.002751435386016965,"367":0.053479742258787155,"368":0.0022566828411072493,"369":0.06661947071552277,"370":-0.010409392416477203,"371":-0.06388689577579498,"372":0.026911409571766853,"373":0.05993765592575073,"374":0.036420054733753204,"375":-0.06461348384618759,"376":0.049613941460847855,"377":0.021659383550286293,"378":-0.020277114585042,"379":-0.007654255721718073,"380":-0.07614269107580185,"381":-0.030661655589938164,"382":-0.02641286700963974,"383":-0.0044289324432611465,"384":-0.06603044271469116,"385":-0.015107439830899239,"386":-0.052511170506477356,"387":-0.04846072196960449,"388":0.07658690959215164,"389":-0.006319146603345871,"390":0.07516186684370041,"391":-0.025880396366119385,"392":0.07614563405513763,"393":-0.05961119383573532,"394":-0.022922830656170845,"395":0.04906684160232544,"396":-0.019384747371077538,"397":-0.03374191373586655,"398":-0.06475711613893509,"399":-0.07880208641290665}},"forgetBias":{"rows":20,"columns":1,"weights":{"0":0,"1":0,"2":0,"3":0,"4":0,"5":0,"6":0,"7":0,"8":0,"9":0,"10":0,"11":0,"12":0,"13":0,"14":0,"15":0,"16":0,"17":0,"18":0,"19":0}},"outputMatrix":{"rows":20,"columns":20,"weights":{"0":0.06799951195716858,"1":0.055598415434360504,"2":-0.011435425840318203,"3":-0.013729613274335861,"4":0.03897017985582352,"5":-0.07136961072683334,"6":-0.013202040456235409,"7":0.041750386357307434,"8":-0.02765432372689247,"9":-0.04741141200065613,"10":-0.05037339776754379,"11":0.03255118802189827,"12":0.05245479941368103,"13":0.025862766429781914,"14":0.052312061190605164,"15":0.06200045719742775,"16":0.06960216164588928,"17":-0.015570346266031265,"18":-0.026957876980304718,"19":-0.05949527770280838,"20":0.03600175306200981,"21":-0.015018406324088573,"22":0.012541738338768482,"23":0.02976103499531746,"24":0.05077439919114113,"25":-0.0171140655875206,"26":-0.035960447043180466,"27":-0.02071959525346756,"28":0.012564004398882389,"29":0.024066109210252762,"30":0.03949442878365517,"31":-0.03643124923110008,"32":0.0007341095479205251,"33":-0.04694162309169769,"34":-0.05935799330472946,"35":0.07323630899190903,"36":-0.038382574915885925,"37":0.06538786739110947,"38":0.0023885758128017187,"39":0.04081820696592331,"40":-0.07848548144102097,"41":0.013034846633672714,"42":-0.0742090493440628,"43":-0.0598565898835659,"44":0.021648818626999855,"45":-0.035171836614608765,"46":0.0247759111225605,"47":-0.06495864689350128,"48":-0.06114739179611206,"49":-0.07688060402870178,"50":0.06373929977416992,"51":0.010997990146279335,"52":0.07002387195825577,"53":0.060378942638635635,"54":-0.05966705083847046,"55":-0.07583315670490265,"56":-0.03254832327365875,"57":-0.000382381520466879,"58":-0.015837568789720535,"59":0.00011840060324175283,"60":0.034221332520246506,"61":0.05847087875008583,"62":0.06772629916667938,"63":-0.04901071637868881,"64":-0.0045791310258209705,"65":0.050290998071432114,"66":0.03585970029234886,"67":-0.01411581039428711,"68":-0.05399349331855774,"69":0.05107192322611809,"70":0.04917549714446068,"71":0.069910928606987,"72":0.0681600496172905,"73":0.07419513911008835,"74":0.0729251280426979,"75":-0.056894298642873764,"76":-0.048764172941446304,"77":-0.013508463278412819,"78":-0.014335399493575096,"79":0.039375852793455124,"80":-0.0015257707564160228,"81":0.039243172854185104,"82":0.07670120894908905,"83":-0.0008508065948262811,"84":-0.008465729653835297,"85":-0.0353916697204113,"86":-0.02110125683248043,"87":-0.010663099586963654,"88":-0.027994224801659584,"89":0.04427850618958473,"90":0.07120486348867416,"91":-0.033222608268260956,"92":-0.06063871458172798,"93":-0.024495704099535942,"94":0.02404828742146492,"95":0.03704243153333664,"96":-0.014118166640400887,"97":0.0016564810648560524,"98":-0.0041403090581297874,"99":-0.03530256822705269,"100":0.02423836849629879,"101":-0.001665523392148316,"102":-0.05924280360341072,"103":-0.07379495352506638,"104":0.05954717472195625,"105":-0.06839825212955475,"106":-0.06284704804420471,"107":0.059506870806217194,"108":-0.035419072955846786,"109":-0.0691605880856514,"110":0.01191951334476471,"111":0.0398433543741703,"112":-0.05442377179861069,"113":-0.04167009890079498,"114":-0.07973949611186981,"115":-0.0012907934142276645,"116":-0.0003810499038081616,"117":-0.06423816829919815,"118":0.043490175157785416,"119":-0.027243223041296005,"120":0.018056945875287056,"121":-0.013545557856559753,"122":0.03282124176621437,"123":-0.06709606200456619,"124":-0.07920441031455994,"125":0.01813790388405323,"126":-0.06333157420158386,"127":0.05432039871811867,"128":-0.02569018118083477,"129":0.0627649575471878,"130":-0.00711027579382062,"131":-0.045132968574762344,"132":-0.03924388810992241,"133":-0.04224637523293495,"134":-0.022138670086860657,"135":-0.026978908106684685,"136":0.016288673505187035,"137":0.027501780539751053,"138":0.03181712329387665,"139":0.07046102732419968,"140":0.0568353570997715,"141":-0.01900130696594715,"142":0.04192690923810005,"143":0.0797593742609024,"144":0.021561749279499054,"145":-0.006107479799538851,"146":0.0554228201508522,"147":-0.011675629764795303,"148":-0.0791807770729065,"149":0.029609331861138344,"150":0.0492115281522274,"151":0.01537479367107153,"152":-0.05196171626448631,"153":-0.06829897314310074,"154":-0.04219747707247734,"155":-0.07586463540792465,"156":0.01493037585169077,"157":0.06298654526472092,"158":-0.018108252435922623,"159":0.0349292978644371,"160":-0.047431472688913345,"161":-0.054920680820941925,"162":0.02738105319440365,"163":0.051110006868839264,"164":0.03880568966269493,"165":0.002235697116702795,"166":0.04263679310679436,"167":-0.07900958508253098,"168":0.06508003920316696,"169":0.052385106682777405,"170":-0.008050207048654556,"171":0.0027272633742541075,"172":0.06758705526590347,"173":-0.00046979731996543705,"174":0.058918118476867676,"175":-0.06908144801855087,"176":-0.06329508125782013,"177":-0.06030917912721634,"178":-0.06914424896240234,"179":0.018507491797208786,"180":-0.055465493351221085,"181":0.01871403120458126,"182":0.02878393419086933,"183":-0.022340327501296997,"184":-0.079386405646801,"185":0.011436458677053452,"186":-0.008365157060325146,"187":0.04846084862947464,"188":0.004493240732699633,"189":0.06822476536035538,"190":0.01202478352934122,"191":0.0340641550719738,"192":-0.030730295926332474,"193":-0.039301399141550064,"194":-0.003310557221993804,"195":0.022224780172109604,"196":-0.026105603203177452,"197":-0.01705757901072502,"198":-0.011305744759738445,"199":-0.07084600627422333,"200":0.020064176991581917,"201":-0.03074377216398716,"202":0.05183737352490425,"203":-0.007360879797488451,"204":0.05720183253288269,"205":-0.03196010738611221,"206":-0.06272640824317932,"207":-0.03640657290816307,"208":0.025931719690561295,"209":-0.006222274620085955,"210":0.058736879378557205,"211":0.054274626076221466,"212":0.027507221326231956,"213":0.07972098141908646,"214":0.018090492114424706,"215":-0.004255903419107199,"216":0.05155958607792854,"217":0.021574117243289948,"218":-0.06042573228478432,"219":0.06307192146778107,"220":-0.02127017267048359,"221":-0.057881440967321396,"222":-0.017691629007458687,"223":-0.010572200641036034,"224":-0.0005173406098037958,"225":0.03448090702295303,"226":-0.011131007224321365,"227":-0.022907229140400887,"228":0.0020890370942652225,"229":0.02545943111181259,"230":-0.055617332458496094,"231":0.07098889350891113,"232":-0.0370032973587513,"233":-0.02008327655494213,"234":-0.04837512597441673,"235":0.06546559184789658,"236":-0.06914883106946945,"237":-0.0632617175579071,"238":-0.01326016616076231,"239":0.014244630932807922,"240":-0.03737400472164154,"241":0.0400843620300293,"242":0.02562841773033142,"243":0.005604455713182688,"244":0.058348942548036575,"245":-0.07243815809488297,"246":-0.07472200691699982,"247":0.03450370207428932,"248":-0.06985151767730713,"249":-0.03044775128364563,"250":0.013134055770933628,"251":0.05829429626464844,"252":-0.05252980440855026,"253":0.005550355650484562,"254":0.02169487066566944,"255":0.031654540449380875,"256":0.07944471389055252,"257":-0.07847298681735992,"258":0.035032257437705994,"259":-0.07193321734666824,"260":-0.031630516052246094,"261":-0.048911429941654205,"262":0.051288314163684845,"263":0.014655865728855133,"264":0.04010152071714401,"265":0.03604492172598839,"266":-0.023627011105418205,"267":-0.04577438533306122,"268":0.013495959341526031,"269":-0.018335748463869095,"270":-0.0632677674293518,"271":-0.04269929230213165,"272":0.03265519440174103,"273":0.03298576921224594,"274":0.04558990150690079,"275":0.05421355739235878,"276":0.051251694560050964,"277":0.05230449512600899,"278":0.048265185207128525,"279":0.041373975574970245,"280":0.04312484338879585,"281":-0.06487361341714859,"282":0.019040875136852264,"283":0.0384671650826931,"284":-0.036949265748262405,"285":0.03433913737535477,"286":0.07367313653230667,"287":-0.026265734806656837,"288":-0.048553094267845154,"289":0.046379730105400085,"290":-0.03754448518157005,"291":0.04491923004388809,"292":-0.07630501687526703,"293":-0.06924284249544144,"294":-0.02815873548388481,"295":0.06732288002967834,"296":-0.028099196031689644,"297":0.0002351612492930144,"298":0.07418838888406754,"299":-0.012202699668705463,"300":0.07449682801961899,"301":0.06403456628322601,"302":0.05799378827214241,"303":-0.02602086216211319,"304":-0.03625660389661789,"305":0.002575809368863702,"306":-0.07905792444944382,"307":-0.0025918581523001194,"308":0.07022356986999512,"309":-0.02490631490945816,"310":-0.06332018226385117,"311":-0.061392642557621,"312":0.02520022727549076,"313":-0.05541636422276497,"314":0.017051411792635918,"315":-0.021689703688025475,"316":0.06711723655462265,"317":0.014279749244451523,"318":0.00871608592569828,"319":0.037341225892305374,"320":0.016206659376621246,"321":0.000507958116941154,"322":-0.03774403780698776,"323":0.037433672696352005,"324":-0.06475421786308289,"325":-0.0647113099694252,"326":0.030212149024009705,"327":0.020778123289346695,"328":-0.03150086849927902,"329":0.028489232063293457,"330":0.024955354630947113,"331":0.013147537596523762,"332":-0.01439946424216032,"333":-0.07001634687185287,"334":-0.07158259302377701,"335":0.02797820419073105,"336":-0.02788274921476841,"337":0.030922284349799156,"338":-0.06398119032382965,"339":0.04532143473625183,"340":-0.04714803770184517,"341":0.04624977335333824,"342":0.05465935170650482,"343":0.045879095792770386,"344":-0.0020456239581108093,"345":-0.025463201105594635,"346":-0.061493925750255585,"347":-0.06740220636129379,"348":-0.03354548290371895,"349":-0.005236189346760511,"350":-0.01642739586532116,"351":0.004797069355845451,"352":0.019285935908555984,"353":0.029158243909478188,"354":0.04703294858336449,"355":-0.015625761821866035,"356":0.06552843749523163,"357":-0.057246673852205276,"358":0.007958817295730114,"359":-0.037597980350255966,"360":0.05118970945477486,"361":0.03124874457716942,"362":0.07079413533210754,"363":0.04245194420218468,"364":-0.048165034502744675,"365":-0.021405665203928947,"366":-0.054243214428424835,"367":0.06819106638431549,"368":0.06237192451953888,"369":0.008443823084235191,"370":0.010654029436409473,"371":-0.04390445351600647,"372":0.04922337457537651,"373":-0.006737107876688242,"374":0.03455062955617905,"375":-0.059041768312454224,"376":0.04765869677066803,"377":-0.0008396611083298922,"378":0.023205339908599854,"379":0.0071393647231161594,"380":-0.008074028417468071,"381":-0.05123398080468178,"382":0.02227838523685932,"383":0.02565336413681507,"384":0.06699392199516296,"385":-0.06388169527053833,"386":-0.010162780061364174,"387":-0.05835767090320587,"388":0.05545182526111603,"389":0.028133094310760498,"390":0.031860556453466415,"391":-0.020448412746191025,"392":-0.05596254765987396,"393":-0.039734892547130585,"394":0.015296000987291336,"395":0.07897810637950897,"396":-0.07535729557275772,"397":0.03381388261914253,"398":-0.03760257735848427,"399":0.05540044978260994}},"outputHidden":{"rows":20,"columns":20,"weights":{"0":0.0341656319797039,"1":0.03617585822939873,"2":0.02420184388756752,"3":-0.002655288903042674,"4":-0.025715244933962822,"5":-0.0606115497648716,"6":-0.024173429235816002,"7":0.02584712766110897,"8":-0.07948534190654755,"9":-0.04736433923244476,"10":-0.05913101136684418,"11":-0.053592562675476074,"12":-0.05222493037581444,"13":0.07340040057897568,"14":0.06743452697992325,"15":0.02950330078601837,"16":-0.03415340185165405,"17":-0.025071244686841965,"18":-0.060390301048755646,"19":0.03927011415362358,"20":0.008076118305325508,"21":-0.0224489513784647,"22":-0.012865300290286541,"23":0.07911990582942963,"24":-0.07063746452331543,"25":0.03097223863005638,"26":0.077194444835186,"27":-0.028490178287029266,"28":0.027094803750514984,"29":-0.002532395999878645,"30":-0.01697489432990551,"31":0.03571433201432228,"32":0.07800531387329102,"33":0.002291884971782565,"34":0.03451861813664436,"35":0.048452358692884445,"36":-0.009804229252040386,"37":-0.015214999206364155,"38":-0.006727535743266344,"39":-0.039923377335071564,"40":-0.03244176134467125,"41":0.04978198558092117,"42":0.0549275279045105,"43":-0.004657909739762545,"44":-0.0350765623152256,"45":-0.03428755700588226,"46":0.047668661922216415,"47":0.05603405833244324,"48":-0.06255075335502625,"49":0.01639452576637268,"50":0.035508330911397934,"51":-0.049058396369218826,"52":0.04971523955464363,"53":0.020964914932847023,"54":0.03538825735449791,"55":0.031326573342084885,"56":0.04986186698079109,"57":0.05493710935115814,"58":-0.019129915162920952,"59":0.0380016528069973,"60":0.030456170439720154,"61":0.05225610360503197,"62":-0.07714644819498062,"63":0.06756675988435745,"64":0.03821774199604988,"65":-0.007417428307235241,"66":-0.040829602628946304,"67":-0.0015542752807959914,"68":-0.06384028494358063,"69":-0.0012056903215125203,"70":0.04695143923163414,"71":0.07224789261817932,"72":0.06788455694913864,"73":-0.027351640164852142,"74":-0.04989375174045563,"75":0.05989144742488861,"76":-0.026659907773137093,"77":0.009778300300240517,"78":0.0714564174413681,"79":-0.04020482674241066,"80":-0.049255579710006714,"81":-0.0647597685456276,"82":-0.005266697611659765,"83":0.029372839257121086,"84":-0.06516556441783905,"85":-0.07644630968570709,"86":0.07274015247821808,"87":-0.04748787358403206,"88":-0.037268951535224915,"89":0.028318440541625023,"90":-0.02000563219189644,"91":-0.04334799200296402,"92":0.010002898052334785,"93":0.0015873175580054522,"94":-0.02648068778216839,"95":-0.07612957060337067,"96":0.07995351403951645,"97":-0.01862652599811554,"98":0.023452380672097206,"99":-0.010072028264403343,"100":0.0008841761155053973,"101":0.05279159918427467,"102":-0.02820327691733837,"103":-0.07070830464363098,"104":-0.03633815422654152,"105":0.0733228474855423,"106":-0.050398148596286774,"107":0.06884634494781494,"108":0.0659637451171875,"109":-0.06321322917938232,"110":-0.03692631423473358,"111":0.06044059246778488,"112":0.032039035111665726,"113":-0.06187507137656212,"114":0.020640278235077858,"115":0.07630114257335663,"116":0.017370620742440224,"117":-0.03292457386851311,"118":-0.027870263904333115,"119":-0.05363614484667778,"120":-0.05529074743390083,"121":0.04857804626226425,"122":-0.03367546945810318,"123":-0.04994000121951103,"124":-0.035784926265478134,"125":0.03601224720478058,"126":-0.015874583274126053,"127":0.020092936232686043,"128":0.01624363660812378,"129":0.03040667623281479,"130":0.07289813458919525,"131":-0.011640183627605438,"132":0.024672970175743103,"133":-0.04641672223806381,"134":0.0020347798708826303,"135":0.07245028018951416,"136":-0.031064296141266823,"137":-0.07272608578205109,"138":0.0018089633667841554,"139":-0.04983648657798767,"140":0.034442439675331116,"141":0.06688123196363449,"142":0.06854066252708435,"143":-0.06572713702917099,"144":-0.021576030179858208,"145":0.004416137468069792,"146":0.05585550516843796,"147":-0.07891423255205154,"148":0.07742694765329361,"149":-0.06304407119750977,"150":-0.011259125545620918,"151":-0.028499657288193703,"152":-0.07000380754470825,"153":-0.013177314773201942,"154":0.06132451072335243,"155":0.009323349222540855,"156":-0.013465652242302895,"157":0.06712906062602997,"158":0.015811940655112267,"159":0.0563075952231884,"160":-0.020349137485027313,"161":-0.0327894426882267,"162":0.05286950618028641,"163":-0.04308499023318291,"164":0.0397188626229763,"165":-0.02151777595281601,"166":-0.009087398648262024,"167":-0.018195031210780144,"168":0.02916087582707405,"169":-0.04389575868844986,"170":-0.0676669180393219,"171":0.07238740473985672,"172":0.0625661090016365,"173":0.0730273425579071,"174":-0.06441745907068253,"175":-0.039532363414764404,"176":0.06141166016459465,"177":-0.038932763040065765,"178":-0.03488535061478615,"179":0.07628846913576126,"180":-0.056673724204301834,"181":-0.04437616467475891,"182":-0.04415220022201538,"183":0.032024186104536057,"184":-0.01884498819708824,"185":0.029571905732154846,"186":0.003888192819431424,"187":0.07315196841955185,"188":0.06180424988269806,"189":-0.019100351259112358,"190":0.001720314146950841,"191":-0.06631866842508316,"192":-0.002705689985305071,"193":-0.025850597769021988,"194":-0.005718262400478125,"195":-0.042326752096414566,"196":0.008760962635278702,"197":-0.07278532534837723,"198":0.03464817255735397,"199":0.027377894148230553,"200":-0.026350168511271477,"201":0.04619511216878891,"202":-0.06259362399578094,"203":-0.03462086617946625,"204":-0.03732958436012268,"205":0.04243523254990578,"206":0.00933469831943512,"207":0.06595122814178467,"208":0.024923434481024742,"209":0.06264150142669678,"210":-0.002081694547086954,"211":-0.041250407695770264,"212":-0.02288232557475567,"213":-0.06329869478940964,"214":0.025358445942401886,"215":0.006725105922669172,"216":-0.05838647857308388,"217":0.07667378336191177,"218":-0.0467698872089386,"219":0.022029083222150803,"220":0.06471375375986099,"221":-0.064188152551651,"222":-0.03296198323369026,"223":0.019450165331363678,"224":0.029231863096356392,"225":0.009931902401149273,"226":-0.057314567267894745,"227":-0.03913852944970131,"228":-0.07998213917016983,"229":-0.010549255646765232,"230":0.011082477867603302,"231":0.07397075742483139,"232":0.018329620361328125,"233":0.059043534100055695,"234":0.026016252115368843,"235":-0.07793717831373215,"236":0.0093824602663517,"237":-0.05013376846909523,"238":0.07454515993595123,"239":-0.023082399740815163,"240":-0.010107751004397869,"241":0.0006601278437301517,"242":0.008832251653075218,"243":0.0332496203482151,"244":0.03724522516131401,"245":0.05459171161055565,"246":0.062157221138477325,"247":-0.004781030584126711,"248":0.07034584879875183,"249":-0.021935848519206047,"250":-0.059040267020463943,"251":0.026269985362887383,"252":0.04656384140253067,"253":-0.0007026649545878172,"254":0.0012423173757269979,"255":-0.029558874666690826,"256":-0.03893814980983734,"257":-0.053834471851587296,"258":-0.06485939770936966,"259":-0.03384026512503624,"260":0.032547321170568466,"261":0.017635487020015717,"262":0.07784871757030487,"263":-0.03706243261694908,"264":0.05489884316921234,"265":-0.04623055085539818,"266":0.017354154959321022,"267":0.06791859120130539,"268":-0.052918799221515656,"269":0.05383055657148361,"270":0.07409649342298508,"271":0.04069812595844269,"272":0.07973778992891312,"273":-0.02916075848042965,"274":0.05466507747769356,"275":0.024281924590468407,"276":-0.07602650672197342,"277":-0.02077512815594673,"278":-0.04831088334321976,"279":0.07120078057050705,"280":0.0346265509724617,"281":0.051049623638391495,"282":0.015521831810474396,"283":0.04133708029985428,"284":-0.078451968729496,"285":-0.008469091728329659,"286":-0.045427773147821426,"287":-0.004659781698137522,"288":0.009406867437064648,"289":0.021687742322683334,"290":0.016765302047133446,"291":0.0015605302760377526,"292":0.03885657712817192,"293":-0.07334037125110626,"294":0.03193449229001999,"295":0.030739881098270416,"296":0.03956563398241997,"297":0.017315704375505447,"298":0.047479379922151566,"299":-0.019456859678030014,"300":0.06357532739639282,"301":-0.05430946871638298,"302":-0.01396250445395708,"303":0.07076508551836014,"304":0.06458970159292221,"305":0.0553443506360054,"306":-0.05050092563033104,"307":-0.052828315645456314,"308":0.04371728375554085,"309":0.06348388642072678,"310":0.043256014585494995,"311":-0.0466933436691761,"312":-0.07671339064836502,"313":0.0006034792168065906,"314":-0.055190399289131165,"315":-0.034895192831754684,"316":-0.04723425954580307,"317":-0.01997113972902298,"318":0.07986857742071152,"319":-0.053881097584962845,"320":0.0254753977060318,"321":-0.01618984341621399,"322":0.027923228219151497,"323":-0.07556066662073135,"324":-0.003327334998175502,"325":-0.06632773578166962,"326":-0.058042217046022415,"327":-0.06530557572841644,"328":-0.03527960926294327,"329":-0.021833304315805435,"330":-0.032931167632341385,"331":0.044849563390016556,"332":-0.03136327490210533,"333":-0.047676730901002884,"334":-0.00834852084517479,"335":-0.04590313881635666,"336":-0.03955951705574989,"337":-0.03575744107365608,"338":0.06162946671247482,"339":-0.06497807055711746,"340":-0.03746996447443962,"341":-0.004204804543405771,"342":-0.027962714433670044,"343":0.05293525755405426,"344":0.01322340127080679,"345":-0.00892636924982071,"346":0.04628809168934822,"347":-0.07681933045387268,"348":0.005596147384494543,"349":0.009071025997400284,"350":0.008847933262586594,"351":0.03629560023546219,"352":-0.03891011327505112,"353":-0.05735062062740326,"354":-0.010769347660243511,"355":0.0445777028799057,"356":0.07431294023990631,"357":0.04752017930150032,"358":0.04139936342835426,"359":0.07584209740161896,"360":0.027338935062289238,"361":-0.07400941103696823,"362":0.05504479259252548,"363":-0.03626248240470886,"364":0.0747600793838501,"365":-0.0689900815486908,"366":0.07794027775526047,"367":0.04471903294324875,"368":-0.02155003696680069,"369":0.04294285550713539,"370":0.0022950193379074335,"371":-0.06329555064439774,"372":-0.06572762131690979,"373":-0.05716992914676666,"374":0.009346499107778072,"375":0.03737390786409378,"376":0.07564395666122437,"377":-0.05491143465042114,"378":0.03898436576128006,"379":-0.03939476236701012,"380":0.037597812712192535,"381":-0.02408703602850437,"382":0.07626402378082275,"383":0.0610174797475338,"384":-0.04223315790295601,"385":0.044855061918497086,"386":-0.03735809773206711,"387":0.07323632389307022,"388":-0.0013945236569270492,"389":-0.023071959614753723,"390":-0.06293706595897675,"391":-0.0742817223072052,"392":-0.035990022122859955,"393":0.06026717647910118,"394":-0.024430790916085243,"395":0.015574133023619652,"396":0.058721013367176056,"397":-0.030351361259818077,"398":0.05009354278445244,"399":0.0035766621585935354}},"outputBias":{"rows":20,"columns":1,"weights":{"0":0,"1":0,"2":0,"3":0,"4":0,"5":0,"6":0,"7":0,"8":0,"9":0,"10":0,"11":0,"12":0,"13":0,"14":0,"15":0,"16":0,"17":0,"18":0,"19":0}},"cellActivationMatrix":{"rows":20,"columns":20,"weights":{"0":0.012902637012302876,"1":-0.03381436690688133,"2":-0.05775844678282738,"3":-0.0502358004450798,"4":-0.0025570017751306295,"5":0.005177819635719061,"6":-0.004754914436489344,"7":-0.03615126386284828,"8":-0.04751703143119812,"9":0.07309933751821518,"10":0.06454197317361832,"11":-0.030168525874614716,"12":0.012676147744059563,"13":0.06982168555259705,"14":0.012748850509524345,"15":-0.03821532800793648,"16":0.07703056931495667,"17":0.021904775872826576,"18":0.015094905160367489,"19":0.014364674687385559,"20":0.043319221585989,"21":-0.03442874550819397,"22":-0.018726522102952003,"23":-0.03285811468958855,"24":-0.06270124018192291,"25":0.0561591237783432,"26":0.04162128269672394,"27":0.006870585959404707,"28":-0.03145565092563629,"29":0.027413643896579742,"30":0.048007816076278687,"31":-0.04654727503657341,"32":0.05880655720829964,"33":0.0118933767080307,"34":0.030240343883633614,"35":0.052517279982566833,"36":-0.012880934402346611,"37":0.020539553835988045,"38":0.054313547909259796,"39":0.054477568715810776,"40":-0.03517432510852814,"41":0.039270080626010895,"42":0.06676340103149414,"43":-0.02270139567553997,"44":0.060486532747745514,"45":0.03365613892674446,"46":0.03444972634315491,"47":-0.013508178293704987,"48":-0.05852146074175835,"49":-0.005000109784305096,"50":0.01196179911494255,"51":-0.0537448525428772,"52":-0.01238476112484932,"53":-0.055662740021944046,"54":-0.045553065836429596,"55":0.03518494963645935,"56":0.006777000613510609,"57":0.028194382786750793,"58":-0.0517960749566555,"59":-0.02438623644411564,"60":-0.07225324958562851,"61":-0.03892337903380394,"62":0.02282533422112465,"63":0.07069700211286545,"64":0.07588992267847061,"65":-0.04931437969207764,"66":-0.07611734420061111,"67":0.0015350858448073268,"68":0.015268079936504364,"69":-0.05679471418261528,"70":0.030698662623763084,"71":0.03936445713043213,"72":-0.0299307182431221,"73":-0.07969396561384201,"74":0.01077739242464304,"75":-0.03292881324887276,"76":-0.022811803966760635,"77":-0.0037766569294035435,"78":0.03603402525186539,"79":-0.06898742914199829,"80":-0.034498121589422226,"81":0.01496207807213068,"82":0.02194756455719471,"83":-0.011108010075986385,"84":0.059588756412267685,"85":0.06020033359527588,"86":0.06637109071016312,"87":0.06571800261735916,"88":0.013513118959963322,"89":-0.010498426854610443,"90":0.013334435410797596,"91":-0.03576366975903511,"92":-0.0663101077079773,"93":-0.027154825627803802,"94":0.04919537529349327,"95":-0.05955849215388298,"96":0.06923358887434006,"97":-0.010473106056451797,"98":0.010769101791083813,"99":-0.024438997730612755,"100":-0.007287392858415842,"101":0.06313672661781311,"102":0.06822920590639114,"103":-0.0747830793261528,"104":0.06389845162630081,"105":0.030272338539361954,"106":-0.022163541987538338,"107":-0.04725412651896477,"108":-0.02543862909078598,"109":0.03182514011859894,"110":-0.06191883236169815,"111":0.03801977261900902,"112":-0.03265794739127159,"113":-0.0671277865767479,"114":0.05522320792078972,"115":-0.07450459152460098,"116":-0.03700699657201767,"117":0.019738538190722466,"118":0.0016143483808264136,"119":0.042144812643527985,"120":-0.07067397236824036,"121":0.06399820744991302,"122":0.00971960835158825,"123":-0.07279364764690399,"124":-0.06907651573419571,"125":-0.046913594007492065,"126":0.011340383440256119,"127":0.0032727650832384825,"128":-0.004549590405076742,"129":-0.0675865188241005,"130":0.0011914619244635105,"131":-0.021942676976323128,"132":-0.06135477498173714,"133":0.05512036383152008,"134":0.028447959572076797,"135":0.018575437366962433,"136":-0.025187714025378227,"137":-0.0056858304888010025,"138":0.0150582455098629,"139":0.05072149634361267,"140":-0.004170871805399656,"141":-0.016784271225333214,"142":-0.02515157125890255,"143":0.012375595979392529,"144":-0.034004829823970795,"145":0.03317290171980858,"146":-0.046362634748220444,"147":-0.07996470481157303,"148":0.046415939927101135,"149":0.04605606198310852,"150":-0.03070973791182041,"151":-0.07299403101205826,"152":-0.018651233986020088,"153":-0.013959675095975399,"154":0.0667286291718483,"155":-0.06190100312232971,"156":-0.036489684134721756,"157":-0.039496876299381256,"158":-0.051504626870155334,"159":-0.020799994468688965,"160":0.040275394916534424,"161":0.0763264000415802,"162":-0.054600656032562256,"163":-0.052754517644643784,"164":-0.021956054493784904,"165":-0.024525143206119537,"166":-0.03265250474214554,"167":-0.052673544734716415,"168":-0.06458842009305954,"169":0.024419814348220825,"170":0.035745639353990555,"171":0.06559528410434723,"172":-0.019297614693641663,"173":-0.07905207574367523,"174":0.024103427305817604,"175":0.00026708896621130407,"176":-0.014888814650475979,"177":0.029801297932863235,"178":0.04338836669921875,"179":-0.00649152509868145,"180":-0.06338545680046082,"181":-0.017285726964473724,"182":0.018973615020513535,"183":0.038846250623464584,"184":0.013156579807400703,"185":0.01334069762378931,"186":-0.04742446541786194,"187":0.012749637477099895,"188":0.07100111991167068,"189":-0.013784973882138729,"190":0.07134068012237549,"191":0.019351901486516,"192":0.04786111041903496,"193":0.03060085140168667,"194":0.04819710925221443,"195":0.04531083628535271,"196":-0.0037294484209269285,"197":0.06191115081310272,"198":0.04124775528907776,"199":0.013334803283214569,"200":0.012828669510781765,"201":0.012636729516088963,"202":0.050171103328466415,"203":-0.03538713604211807,"204":-0.0500585213303566,"205":-0.006943395361304283,"206":0.0657953992486,"207":-0.07033919543027878,"208":0.018477562814950943,"209":-0.057642314583063126,"210":-0.008959067985415459,"211":0.04053197056055069,"212":-0.0012721671955659986,"213":-0.05743546411395073,"214":-0.029503745958209038,"215":0.025047585368156433,"216":-0.043982986360788345,"217":-0.058054909110069275,"218":-0.03461221233010292,"219":-0.07721215486526489,"220":-0.05158349126577377,"221":0.05417326092720032,"222":-0.06406450271606445,"223":-0.00681726960465312,"224":0.007521264720708132,"225":-0.013168896548449993,"226":0.019666776061058044,"227":0.015538128092885017,"228":-0.03623894974589348,"229":0.07523895800113678,"230":-0.06570316851139069,"231":-0.026628689840435982,"232":0.011325870640575886,"233":-0.027625054121017456,"234":-0.0012791493209078908,"235":0.0018887839978560805,"236":0.05380674824118614,"237":-0.06550618261098862,"238":-0.04796934127807617,"239":0.023428240790963173,"240":-0.062067918479442596,"241":0.07383415848016739,"242":0.007560813799500465,"243":0.0792037844657898,"244":0.017466925084590912,"245":0.06522591412067413,"246":0.051679547876119614,"247":0.010192216373980045,"248":-0.04095091670751572,"249":-0.04213646799325943,"250":0.038578372448682785,"251":0.023524820804595947,"252":0.004806646145880222,"253":0.06163295730948448,"254":-0.03542674705386162,"255":-0.01916550099849701,"256":-0.07052423059940338,"257":0.007325322832912207,"258":0.06339331716299057,"259":-0.020746266469359398,"260":-0.002574810991063714,"261":-0.0011500671971589327,"262":-0.051062941551208496,"263":0.06787879765033722,"264":-0.02978770062327385,"265":-0.039160653948783875,"266":-0.06883371621370316,"267":-0.023546656593680382,"268":-0.035712603479623795,"269":0.04533896967768669,"270":0.049661144614219666,"271":-0.06217704713344574,"272":0.06682827323675156,"273":-0.05962333828210831,"274":0.035891540348529816,"275":-0.051568303257226944,"276":-0.02347591705620289,"277":-0.04464976489543915,"278":0.02723783068358898,"279":-0.030821364372968674,"280":-0.05954575166106224,"281":-0.03785732015967369,"282":-0.03125343099236488,"283":-0.05867202579975128,"284":0.0007924638921394944,"285":-0.002500861184671521,"286":-0.06927936524152756,"287":-0.04221639037132263,"288":-0.02331160567700863,"289":-0.03637542575597763,"290":-0.02088557742536068,"291":-0.03702929615974426,"292":0.011274443008005619,"293":0.030226409435272217,"294":0.04245927557349205,"295":-0.014671933837234974,"296":-0.06942148506641388,"297":-0.01486680842936039,"298":-0.05550925433635712,"299":-0.0193276759237051,"300":-0.03484084829688072,"301":-0.009121354669332504,"302":0.04942573606967926,"303":0.06451382488012314,"304":0.06583961099386215,"305":0.05401374399662018,"306":-0.01692311465740204,"307":0.0337335579097271,"308":0.07127178460359573,"309":0.05030440539121628,"310":-0.0022041250485926867,"311":0.002317603910341859,"312":0.07951907813549042,"313":0.016499288380146027,"314":0.016443690285086632,"315":0.04994926229119301,"316":0.030284591019153595,"317":0.010809831321239471,"318":-0.006357377395033836,"319":0.07997062802314758,"320":-0.06841765344142914,"321":0.02035803347826004,"322":0.03450676053762436,"323":-0.07134370505809784,"324":-0.013740924187004566,"325":0.02123706415295601,"326":0.024947937577962875,"327":-0.05696120858192444,"328":-0.001916103414259851,"329":0.06060096248984337,"330":0.07779980450868607,"331":-0.013094320893287659,"332":-0.048900458961725235,"333":-0.06641076505184174,"334":0.06617333739995956,"335":0.06477569788694382,"336":-0.06771602481603622,"337":-0.0398145355284214,"338":-0.05723363161087036,"339":-0.05685132369399071,"340":-0.053891539573669434,"341":-0.052063919603824615,"342":0.01400668267160654,"343":0.07427027076482773,"344":-0.07173310220241547,"345":0.06611444801092148,"346":0.05335237830877304,"347":0.03762110695242882,"348":0.03756814822554588,"349":-0.026641057804226875,"350":0.04219936579465866,"351":-0.05288080871105194,"352":-0.07578327506780624,"353":0.062132660299539566,"354":0.0544145442545414,"355":-0.03629813343286514,"356":-0.05864308029413223,"357":-0.06830868870019913,"358":0.07387255877256393,"359":-0.0638364776968956,"360":0.016301488503813744,"361":-0.05557308718562126,"362":-0.06603043526411057,"363":0.07080205529928207,"364":0.06155704706907272,"365":-0.00967995822429657,"366":-0.049073319882154465,"367":0.06244473531842232,"368":0.0009298959048464894,"369":0.05012158676981926,"370":-0.049474652856588364,"371":0.07987283915281296,"372":-0.014310023747384548,"373":0.020229877904057503,"374":0.040727730840444565,"375":-0.03920499607920647,"376":0.07710316777229309,"377":0.039303358644247055,"378":0.03882455825805664,"379":0.014279929921030998,"380":-0.05524742603302002,"381":0.05767655372619629,"382":-0.05608316510915756,"383":0.03823498263955116,"384":-0.03860422596335411,"385":0.07413158565759659,"386":0.0391697883605957,"387":0.026508672162890434,"388":0.012754926458001137,"389":0.04933589696884155,"390":-0.0021576471626758575,"391":0.058232467621564865,"392":0.0253586582839489,"393":0.04243499040603638,"394":0.042046770453453064,"395":-0.02765616774559021,"396":-0.031139757484197617,"397":-0.042732447385787964,"398":0.02213950827717781,"399":-0.02278965525329113}},"cellActivationHidden":{"rows":20,"columns":20,"weights":{"0":0.057496968656778336,"1":0.06438791751861572,"2":0.06515790522098541,"3":-0.005328035913407803,"4":-0.015442543663084507,"5":0.02264220640063286,"6":-0.05991892144083977,"7":0.038588203489780426,"8":-0.07541564106941223,"9":0.009759830310940742,"10":-0.07000654935836792,"11":0.07522518932819366,"12":0.0761021077632904,"13":0.03487500548362732,"14":-0.03917314484715462,"15":-0.04751842841506004,"16":-0.018699701875448227,"17":-0.0210068691521883,"18":0.04105054959654808,"19":-0.039360105991363525,"20":-0.017070867121219635,"21":-0.07157222181558609,"22":-0.01705213449895382,"23":-0.051072269678115845,"24":0.06526843458414078,"25":0.019869353622198105,"26":0.018311651423573494,"27":0.03400733321905136,"28":0.060006748884916306,"29":-0.05779296159744263,"30":-0.02736874483525753,"31":0.06535443663597107,"32":-0.05022095516324043,"33":0.07238501310348511,"34":-0.004288623109459877,"35":0.0525536984205246,"36":0.034566137939691544,"37":0.027167830616235733,"38":-0.017532721161842346,"39":0.010668436996638775,"40":0.008401479572057724,"41":-0.07376991212368011,"42":-0.059236932545900345,"43":-0.024303961545228958,"44":0.07087577879428864,"45":-0.06818665564060211,"46":0.0013651539338752627,"47":0.04104391857981682,"48":0.060943786054849625,"49":-0.014478906989097595,"50":-0.006127357482910156,"51":-0.018331347033381462,"52":-0.014944887720048428,"53":0.0002637584984768182,"54":-0.0362037718296051,"55":-0.07485681772232056,"56":-0.06262164562940598,"57":-0.07929971814155579,"58":0.004270050209015608,"59":0.07293123751878738,"60":-0.015311353839933872,"61":-0.03530124947428703,"62":-0.0031318978872150183,"63":-0.06514720618724823,"64":-0.04572993516921997,"65":-0.03768815100193024,"66":0.07305020093917847,"67":0.024268990382552147,"68":0.020603103563189507,"69":-0.05267680808901787,"70":0.0654883086681366,"71":-0.016080616042017937,"72":0.07980711758136749,"73":-0.028766216710209846,"74":-0.07248082011938095,"75":-0.06367310881614685,"76":-0.00031668832525610924,"77":0.0007752207457087934,"78":-0.015251128934323788,"79":-0.067052461206913,"80":-0.05784570053219795,"81":-0.07424500584602356,"82":-0.040813807398080826,"83":0.053784407675266266,"84":0.03054829314351082,"85":0.013510569930076599,"86":0.05219701677560806,"87":-0.013593669980764389,"88":0.07899122685194016,"89":-0.009519731625914574,"90":0.036360304802656174,"91":0.02808178775012493,"92":0.07251826673746109,"93":-0.03278253227472305,"94":0.062233664095401764,"95":0.02895715832710266,"96":-0.0394061841070652,"97":-0.056577954441308975,"98":-0.06667033582925797,"99":0.030821675434708595,"100":0.0024303083773702383,"101":-0.06427348405122757,"102":0.06905222684144974,"103":0.0275800209492445,"104":0.021762464195489883,"105":-0.0631512999534607,"106":-0.06766098737716675,"107":0.005511064548045397,"108":0.07451487332582474,"109":0.024712780490517616,"110":0.0553094781935215,"111":0.07002514600753784,"112":0.05529176443815231,"113":0.05536840483546257,"114":0.06678909063339233,"115":-0.024654628708958626,"116":-0.0687074363231659,"117":-0.017500797286629677,"118":-0.0725795105099678,"119":0.016311530023813248,"120":0.056371673941612244,"121":0.024143503978848457,"122":0.0325092077255249,"123":0.04507013037800789,"124":0.047305405139923096,"125":-0.07177089899778366,"126":-0.04490102827548981,"127":0.0019096318865194917,"128":-0.016289256513118744,"129":0.0465330146253109,"130":0.05588959529995918,"131":0.036680616438388824,"132":0.05839286372065544,"133":0.03491773083806038,"134":0.06060488894581795,"135":0.012111201882362366,"136":-0.03484778851270676,"137":0.0639687180519104,"138":-0.047022294253110886,"139":0.0053602284751832485,"140":0.018940431997179985,"141":-0.022592691704630852,"142":-0.016701990738511086,"143":-0.07059743255376816,"144":0.0668511688709259,"145":0.05912647768855095,"146":-0.0188149381428957,"147":-0.05350346490740776,"148":-0.006187834776937962,"149":0.07560159265995026,"150":-0.026963351294398308,"151":-0.07720234245061874,"152":-0.06749923527240753,"153":-0.055252015590667725,"154":-0.004227994941174984,"155":-0.05687323585152626,"156":-0.04987437278032303,"157":0.022823385894298553,"158":0.02160538174211979,"159":0.004318151623010635,"160":0.036421407014131546,"161":-0.006196035537868738,"162":-0.009704175405204296,"163":-0.061994608491659164,"164":0.06571511179208755,"165":0.053647369146347046,"166":0.05746810883283615,"167":-0.003268118714913726,"168":-0.014756359159946442,"169":0.04954526573419571,"170":-0.02933475561439991,"171":-0.03542391210794449,"172":0.059796858578920364,"173":0.01889844238758087,"174":-0.026562804356217384,"175":0.022241581231355667,"176":0.017261894419789314,"177":-0.056389350444078445,"178":0.02334972657263279,"179":0.03341692313551903,"180":-0.027186809107661247,"181":0.014635132625699043,"182":-0.031672656536102295,"183":-0.007628160994499922,"184":0.07820508629083633,"185":0.04510687291622162,"186":0.06517999619245529,"187":-0.0525507926940918,"188":0.007967268116772175,"189":0.009771673940122128,"190":0.018534481525421143,"191":-0.07944833487272263,"192":-0.032562144100666046,"193":0.07728936523199081,"194":-0.027725184336304665,"195":-0.06648266315460205,"196":0.047171927988529205,"197":0.07764143496751785,"198":-0.02081170305609703,"199":-0.0726068764925003,"200":-0.06619397550821304,"201":-0.053370509296655655,"202":0.016936734318733215,"203":-0.029204465448856354,"204":0.0673963725566864,"205":0.05193852260708809,"206":0.019631531089544296,"207":-0.05162177234888077,"208":-0.0499153807759285,"209":-0.036729101091623306,"210":0.04769933223724365,"211":-0.04958939179778099,"212":-0.04155130684375763,"213":0.0071578314527869225,"214":-0.01736360974609852,"215":-0.006066558882594109,"216":-0.02194972336292267,"217":-0.04509088397026062,"218":0.010504817590117455,"219":0.020037442445755005,"220":0.07839562743902206,"221":-0.04599875584244728,"222":-0.03300748020410538,"223":-0.0752665251493454,"224":-0.029568593949079514,"225":0.02490917034447193,"226":-0.026374729350209236,"227":-0.047557931393384933,"228":-0.031163765117526054,"229":0.029557740315794945,"230":-0.07112175226211548,"231":-0.03789638727903366,"232":-0.0593828484416008,"233":0.04079427197575569,"234":0.03472868725657463,"235":-0.049021027982234955,"236":-0.07704031467437744,"237":-0.031959131360054016,"238":-0.0421491339802742,"239":0.03232808783650398,"240":0.008553772233426571,"241":0.0591336227953434,"242":0.07695519924163818,"243":0.0009181908098980784,"244":-0.04738776758313179,"245":0.00700470432639122,"246":0.005444168578833342,"247":-0.0497126542031765,"248":-0.01834781840443611,"249":0.07523766905069351,"250":-0.010668545961380005,"251":-0.0730670839548111,"252":-0.07428441196680069,"253":0.07382147014141083,"254":-0.06674816459417343,"255":0.06961096078157425,"256":-0.02682623453438282,"257":-0.023289568722248077,"258":-0.07401145994663239,"259":0.07398690283298492,"260":-0.0422234944999218,"261":-0.010719687677919865,"262":-0.07739047706127167,"263":0.05498042702674866,"264":0.06851154565811157,"265":0.012792409397661686,"266":-0.014829061925411224,"267":0.07434995472431183,"268":0.056060776114463806,"269":0.057176075875759125,"270":-0.06164424493908882,"271":0.04585443437099457,"272":-0.025543736293911934,"273":0.01242805551737547,"274":-0.0016820005839690566,"275":-0.06434507668018341,"276":0.02088017947971821,"277":-0.0396493524312973,"278":-0.07028988003730774,"279":-0.0076822806149721146,"280":-0.014749335125088692,"281":-0.01763823628425598,"282":0.07202684134244919,"283":0.05760163068771362,"284":-0.02314629592001438,"285":0.06992422789335251,"286":-0.023864079266786575,"287":-0.0776471197605133,"288":-0.04970284551382065,"289":0.028503505513072014,"290":0.05537083372473717,"291":-0.065550796687603,"292":0.003763871965929866,"293":-0.0767359659075737,"294":-0.025112422183156013,"295":0.025476550683379173,"296":-0.07020610570907593,"297":-0.06299837678670883,"298":0.028195280581712723,"299":0.06772883236408234,"300":-0.07565242797136307,"301":-0.03697359189391136,"302":-0.051627762615680695,"303":0.014707870781421661,"304":0.04912932217121124,"305":0.0731324702501297,"306":0.06778144836425781,"307":-0.03217635303735733,"308":-0.06051557883620262,"309":0.053516093641519547,"310":0.04497081786394119,"311":-0.001693354919552803,"312":-0.01929258555173874,"313":-0.03569239750504494,"314":0.058384381234645844,"315":-0.01744573563337326,"316":0.07835955172777176,"317":0.01065733004361391,"318":-0.013080939650535583,"319":-0.019053924828767776,"320":-0.0016962152440100908,"321":-0.01117854192852974,"322":-0.06726514548063278,"323":0.04282607510685921,"324":-0.04411032050848007,"325":0.06202934309840202,"326":0.019227834418416023,"327":-0.019906099885702133,"328":-0.013873851858079433,"329":0.034970372915267944,"330":0.018411966040730476,"331":0.024229764938354492,"332":0.0654471144080162,"333":-0.058821458369493484,"334":0.02611777000129223,"335":0.07446606457233429,"336":-0.020624255761504173,"337":0.07360105961561203,"338":0.027458038181066513,"339":0.06226783245801926,"340":0.05294560641050339,"341":-0.02667931839823723,"342":0.03535866364836693,"343":-0.02186173014342785,"344":-0.04535042122006416,"345":-0.04897145554423332,"346":0.012215415947139263,"347":0.051396530121564865,"348":0.02208225056529045,"349":0.06873158365488052,"350":0.058598872274160385,"351":-0.06629584729671478,"352":-0.018424440175294876,"353":0.0597669743001461,"354":0.06084221601486206,"355":0.039719801396131516,"356":0.026678085327148438,"357":-0.05030530318617821,"358":0.029602263122797012,"359":0.05731623247265816,"360":-0.03116570971906185,"361":0.0013938731281086802,"362":0.028462588787078857,"363":-0.016989436000585556,"364":0.0547211654484272,"365":0.07227014005184174,"366":0.038259804248809814,"367":-0.015772072598338127,"368":-0.07410890609025955,"369":0.009436509571969509,"370":0.06865336000919342,"371":-0.008570173755288124,"372":-0.052400898188352585,"373":0.038806818425655365,"374":-0.07798254489898682,"375":-0.07987850904464722,"376":0.03594931960105896,"377":-0.06226164475083351,"378":-0.04048210754990578,"379":-0.06922154873609543,"380":-0.01811818592250347,"381":0.019400976598262787,"382":-0.008170003071427345,"383":0.05095627158880234,"384":-0.03269823268055916,"385":-0.036834605038166046,"386":-0.07747834920883179,"387":0.06335330009460449,"388":-0.023096242919564247,"389":-0.06198303773999214,"390":-0.007439990993589163,"391":-0.040489647537469864,"392":0.04442897066473961,"393":0.002847337396815419,"394":-0.06000979617238045,"395":0.050443463027477264,"396":-0.04415168985724449,"397":0.018904276192188263,"398":0.03857124596834183,"399":0.06795219331979752}},"cellActivationBias":{"rows":20,"columns":1,"weights":{"0":0,"1":0,"2":0,"3":0,"4":0,"5":0,"6":0,"7":0,"8":0,"9":0,"10":0,"11":0,"12":0,"13":0,"14":0,"15":0,"16":0,"17":0,"18":0,"19":0}}},{"inputMatrix":{"rows":20,"columns":20,"weights":{"0":-0.03657541051506996,"1":-0.015179618261754513,"2":-0.061599306762218475,"3":-0.04264741390943527,"4":-0.0765802338719368,"5":0.06613330543041229,"6":-0.06883958727121353,"7":0.010324752889573574,"8":-0.0029578786343336105,"9":0.038884952664375305,"10":-0.015769774094223976,"11":0.046361200511455536,"12":0.07167816907167435,"13":0.043654728680849075,"14":-0.06223710626363754,"15":-0.075765460729599,"16":0.06284383684396744,"17":-0.0742710530757904,"18":-0.048208944499492645,"19":-0.05488179996609688,"20":-0.07650121301412582,"21":0.049804531037807465,"22":0.07895249128341675,"23":0.06178630515933037,"24":-0.06743164360523224,"25":-0.06370088458061218,"26":0.022472413256764412,"27":0.034068815410137177,"28":-0.0517224445939064,"29":0.04533853009343147,"30":-0.025430990383028984,"31":-0.06889796257019043,"32":0.0167485773563385,"33":0.007486896589398384,"34":-0.014036913402378559,"35":0.006448371801525354,"36":0.020661836490035057,"37":0.049870315939188004,"38":-0.005648458376526833,"39":-0.07017076760530472,"40":-0.023019159212708473,"41":-0.01499007735401392,"42":0.03774932026863098,"43":-0.0030954612884670496,"44":0.012740904465317726,"45":0.0723339095711708,"46":-0.04984565079212189,"47":-0.04262704774737358,"48":0.058628156781196594,"49":0.05368410423398018,"50":0.034843821078538895,"51":-0.05701911449432373,"52":-0.06529437005519867,"53":-0.07828614860773087,"54":-0.008670779876410961,"55":-0.011405370198190212,"56":-0.029741376638412476,"57":0.06532394140958786,"58":0.06350550055503845,"59":0.03908849135041237,"60":0.06536996364593506,"61":-0.05726510286331177,"62":-0.06218557804822922,"63":0.01201743446290493,"64":0.03506031632423401,"65":-0.021763067692518234,"66":-0.04346948862075806,"67":0.05624629557132721,"68":0.026537805795669556,"69":-0.008426169864833355,"70":0.005543314386159182,"71":-0.07615770399570465,"72":0.053789813071489334,"73":-0.05786274001002312,"74":0.07188541442155838,"75":0.07189556211233139,"76":0.04272469878196716,"77":-0.07848113775253296,"78":-0.04759018123149872,"79":-0.07358558475971222,"80":-0.02091340161859989,"81":0.06284759193658829,"82":0.010829661972820759,"83":0.06992384791374207,"84":0.019841421395540237,