{"type":"LSTM","options":{"inputSize":35,"inputRange":35,"hiddenLayers":[20,20],"outputSize":35,"decayRate":0.999,"smoothEps":1e-8,"regc":0.000001,"clipval":5,"maxPredictionLength":100,"dataFormatter":{"values":["I am an intelligent AI","I am fine, thank you","Why don't scientists trust atoms? Because they make up everything!","goodbye","hello","hi there","how are you","see you later","tell me a joke","what is your name"],"indexTable":{"I":0," ":1,"a":2,"m":3,"n":4,"i":5,"t":6,"e":7,"l":8,"g":9,"A":10,"f":11,",":12,"h":13,"k":14,"y":15,"o":16,"u":17,"W":18,"d":19,"'":20,"s":21,"c":22,"r":23,"?":24,"B":25,"p":26,"v":27,"!":28,"b":29,"w":30,"j":31,"stop-input":32,"start-output":33,"unrecognized":34},"characterTable":{"0":"I","1":" ","2":"a","3":"m","4":"n","5":"i","6":"t","7":"e","8":"l","9":"g","10":"A","11":"f","12":",","13":"h","14":"k","15":"y","16":"o","17":"u","18":"W","19":"d","20":"'","21":"s","22":"c","23":"r","24":"?","25":"B","26":"p","27":"v","28":"!","29":"b","30":"w","31":"j","32":null,"33":null,"34":null},"characters":["I"," ","a","m","n","i","t","e","l","g","A","f",",","h","k","y","o","u","W","d","'","s","c","r","?","B","p","v","!","b","w","j","stop-input","start-output","unrecognized"],"specialIndexes":[32,33,34]}},"input":{"rows":36,"columns":35,"weights":{"0":1.5042327642440796,"1":-0.29252752661705017,"2":0.380555123090744,"3":2.4035146236419678,"4":-0.07748227566480637,"5":1.5973420143127441,"6":-1.6915537118911743,"7":0.37288880348205566,"8":-0.07005742192268372,"9":-0.8781067728996277,"10":0.38747426867485046,"11":-1.8999911546707153,"12":-1.2480278015136719,"13":-1.1283684968948364,"14":-0.9163773059844971,"15":0.562292754650116,"16":-0.37735944986343384,"17":0.4784960448741913,"18":0.0031933037098497152,"19":1.839368224143982,"20":0.3160894215106964,"21":1.5252488851547241,"22":-1.192987322807312,"23":-0.16545571386814117,"24":1.2165712118148804,"25":0.3912283182144165,"26":0.01025056466460228,"27":0.711127519607544,"28":-0.046043530106544495,"29":-2.796642541885376,"30":1.032235026359558,"31":1.453604817390442,"32":-0.023324018344283104,"33":-1.8375482559204102,"34":-0.5218679904937744,"35":3.3278450965881348,"36":-1.9160096645355225,"37":-1.0249724388122559,"38":-0.2026747316122055,"39":1.742135763168335,"40":-3.3110435009002686,"41":1.8345969915390015,"42":-3.2649898529052734,"43":-2.290755271911621,"44":0.12031275033950806,"45":4.855460166931152,"46":-0.08381488174200058,"47":1.6250114440917969,"48":-1.1841256618499756,"49":2.189708948135376,"50":-3.3164010047912598,"51":-1.3629412651062012,"52":3.922264575958252,"53":-0.32922816276550293,"54":0.9668785333633423,"55":-1.006477952003479,"56":1.4794141054153442,"57":-0.20966680347919464,"58":-2.9458961486816406,"59":0.4559606611728668,"60":4.257418155670166,"61":-2.8895950317382812,"62":-0.15935586392879486,"63":-2.9093172550201416,"64":0.10637842118740082,"65":0.17603039741516113,"66":-1.5137521028518677,"67":3.4058899879455566,"68":1.7496531009674072,"69":0.49237313866615295,"70":-0.04750772938132286,"71":0.32152196764945984,"72":0.06633388996124268,"73":-0.6680215001106262,"74":0.02284541167318821,"75":0.865757405757904,"76":-0.4873995780944824,"77":-0.1897175908088684,"78":0.5055336356163025,"79":0.388353168964386,"80":-0.9147319793701172,"81":-0.8638985753059387,"82":0.031311750411987305,"83":0.475435733795166,"84":0.04847916215658188,"85":-0.522953987121582,"86":-1.4042223691940308,"87":0.8964853882789612,"88":2.9877729415893555,"89":1.7038674354553223,"90":1.0043959617614746,"91":0.9628548622131348,"92":2.966968536376953,"93":-0.6585307717323303,"94":-0.5717929005622864,"95":0.19574463367462158,"96":-0.7804278135299683,"97":0.839309811592102,"98":-0.44146448373794556,"99":-2.074751138687134,"100":1.124031662940979,"101":0.1708427369594574,"102":0.05006638541817665,"103":-2.223520278930664,"104":-0.7043845057487488,"105":-0.3459118604660034,"106":1.1733952760696411,"107":0.0201819259673357,"108":-0.045756034553050995,"109":0.025672614574432373,"110":1.2224435806274414,"111":-0.7368213534355164,"112":-0.7141211628913879,"113":-0.022250156849622726,"114":-0.3256411552429199,"115":0.5547045469284058,"116":-0.28414690494537354,"117":-0.06462568044662476,"118":-0.01748051680624485,"119":-0.9764763712882996,"120":0.9040808081626892,"121":0.46909549832344055,"122":-4.102663993835449,"123":0.9544255137443542,"124":-0.4059184193611145,"125":0.07312954217195511,"126":-1.8316689729690552,"127":-1.4322926998138428,"128":1.509022831916809,"129":-1.0729926824569702,"130":0.22611114382743835,"131":4.84765100479126,"132":-1.7284382581710815,"133":5.894418239593506,"134":0.0036236958112567663,"135":0.05679020658135414,"136":-0.9078237414360046,"137":-1.416430115699768,"138":-0.11794940382242203,"139":-0.3298604488372803,"140":-1.3972872495651245,"141":0.8779945969581604,"142":2.455371856689453,"143":0.6333051323890686,"144":-2.5427634716033936,"145":4.7690629959106445,"146":-5.706619739532471,"147":1.229794979095459,"148":4.253774642944336,"149":0.9303240180015564,"150":0.5789200067520142,"151":-4.696850299835205,"152":4.167051792144775,"153":1.4714316129684448,"154":-0.5001181364059448,"155":2.2948873043060303,"156":-3.330491304397583,"157":1.4689877033233643,"158":0.13058987259864807,"159":1.8348208665847778,"160":0.45961740612983704,"161":-0.36866500973701477,"162":-2.045732021331787,"163":1.7628294229507446,"164":1.0642454624176025,"165":-1.5239561796188354,"166":2.3326165676116943,"167":-0.02315770834684372,"168":-0.32265692949295044,"169":-4.379270553588867,"170":1.4658035039901733,"171":0.9893129467964172,"172":-1.1543290615081787,"173":-5.863097190856934,"174":1.6231666803359985,"175":-1.7155876159667969,"176":-2.1979727745056152,"177":0.24492351710796356,"178":-2.901618719100952,"179":0.12929269671440125,"180":-1.4601513147354126,"181":0.7922540307044983,"182":2.501934051513672,"183":0.16480718553066254,"184":0.21849337220191956,"185":1.9192559719085693,"186":-1.6593968868255615,"187":0.1389465034008026,"188":-0.6573957800865173,"189":2.0164544582366943,"190":-2.124124050140381,"191":4.557762145996094,"192":4.055835247039795,"193":0.5527455806732178,"194":-1.6145037412643433,"195":-0.3465099632740021,"196":2.026357889175415,"197":2.282740831375122,"198":-3.661451578140259,"199":1.715672492980957,"200":1.7401052713394165,"201":-3.30517578125,"202":-1.0616296529769897,"203":-2.446364641189575,"204":2.2936577796936035,"205":0.7066051363945007,"206":1.9148503541946411,"207":-0.2635685205459595,"208":1.0066332817077637,"209":-1.524446725845337,"210":-0.3535584509372711,"211":0.2323930859565735,"212":1.0424574613571167,"213":-0.8352922797203064,"214":-0.598980724811554,"215":-0.02205861546099186,"216":-0.9584614038467407,"217":-0.5523544549942017,"218":0.6263659000396729,"219":-1.155971884727478,"220":-1.1146262884140015,"221":-1.7202502489089966,"222":0.15952029824256897,"223":0.5587674379348755,"224":-0.9121935963630676,"225":-0.7293524146080017,"226":-1.2437620162963867,"227":-0.8194628357887268,"228":1.4586669206619263,"229":-0.4643304646015167,"230":-0.842405378818512,"231":0.3375193774700165,"232":1.6655564308166504,"233":-0.9860445261001587,"234":-2.526733636856079,"235":1.289876937866211,"236":-0.7015241384506226,"237":0.35861077904701233,"238":0.6625791192054749,"239":-0.33652958273887634,"240":2.4872565269470215,"241":-0.6102625131607056,"242":0.8887853026390076,"243":-1.7779738903045654,"244":-1.464381456375122,"245":-0.020889129489660263,"246":0.9132572412490845,"247":1.9000358581542969,"248":1.3319803476333618,"249":-0.9495478868484497,"250":0.16833874583244324,"251":-0.0507776141166687,"252":0.23917733132839203,"253":-0.5434533357620239,"254":-0.1090596467256546,"255":0.08236118406057358,"256":0.006187082268297672,"257":-0.30275359749794006,"258":0.6528617739677429,"259":0.13928988575935364,"260":-0.7789342403411865,"261":-0.3996540307998657,"262":-0.24094130098819733,"263":0.7114707827568054,"264":-0.1192162036895752,"265":-1.2114591598510742,"266":-0.26913347840309143,"267":-0.29917043447494507,"268":-0.9083458781242371,"269":1.5906181335449219,"270":0.33196601271629333,"271":-0.9381199479103088,"272":1.1681636571884155,"273":0.432031512260437,"274":-1.5983657836914062,"275":0.5951541066169739,"276":1.1458200216293335,"277":-0.7524269223213196,"278":-0.6172558069229126,"279":-0.39718738198280334,"280":0.06290453672409058,"281":-1.233818531036377,"282":0.6871803998947144,"283":0.9254903197288513,"284":-0.34823504090309143,"285":0.0024716807529330254,"286":0.03508013114333153,"287":-0.35136598348617554,"288":0.2011478990316391,"289":3.374821662902832,"290":0.629442572593689,"291":0.15956808626651764,"292":-0.24801281094551086,"293":1.3001309633255005,"294":1.8173044919967651,"295":-0.9557381272315979,"296":-0.7331962585449219,"297":3.028630495071411,"298":0.012090261094272137,"299":1.612504482269287,"300":2.5510048866271973,"301":0.15018784999847412,"302":0.06871430575847626,"303":-0.3240889608860016,"304":0.45621567964553833,"305":0.09667453914880753,"306":0.9238860011100769,"307":0.18698066473007202,"308":-1.4899035692214966,"309":0.42077314853668213,"310":-1.0507863759994507,"311":-0.18981045484542847,"312":1.404861569404602,"313":-0.17064964771270752,"314":1.987931489944458,"315":-0.9930288195610046,"316":0.17579665780067444,"317":1.4599778652191162,"318":-2.207505464553833,"319":-1.536268711090088,"320":-0.33103978633880615,"321":0.3578437864780426,"322":-1.1395819187164307,"323":-1.116230845451355,"324":1.1767209768295288,"325":-0.04502342641353607,"326":1.7599329948425293,"327":0.5685795545578003,"328":-0.2674480974674225,"329":0.7550876140594482,"330":-1.095615267753601,"331":0.7532749176025391,"332":1.7699477672576904,"333":-1.2064229249954224,"334":0.6429758667945862,"335":0.7964528203010559,"336":0.041963398456573486,"337":1.479256272315979,"338":-0.24300923943519592,"339":-0.5245383381843567,"340":-0.36715665459632874,"341":-2.1990373134613037,"342":-1.2234045267105103,"343":-1.7023637294769287,"344":3.140155076980591,"345":-0.06355194002389908,"346":-2.403019666671753,"347":0.08776688575744629,"348":-0.2909407615661621,"349":1.7409343719482422,"350":2.679654121398926,"351":-1.075907826423645,"352":-0.7848812937736511,"353":2.025864839553833,"354":0.6394650340080261,"355":-0.7758486866950989,"356":-0.4083985388278961,"357":-1.3589855432510376,"358":-0.42194604873657227,"359":-4.627915382385254,"360":-0.25937730073928833,"361":-0.17123083770275116,"362":-0.3160395622253418,"363":-1.166390061378479,"364":-1.759473204612732,"365":-0.8965973258018494,"366":-1.5660842657089233,"367":-1.2916045188903809,"368":-0.5329688191413879,"369":1.8675023317337036,"370":-2.501840114593506,"371":0.4382208287715912,"372":2.0383708477020264,"373":2.1312971115112305,"374":-2.135040044784546,"375":-0.4325733780860901,"376":1.3928312063217163,"377":0.9880096912384033,"378":0.15102440118789673,"379":0.27392786741256714,"380":0.7022714614868164,"381":-0.16767345368862152,"382":1.576676368713379,"383":-0.3911074101924896,"384":-2.924318552017212,"385":-1.038169503211975,"386":3.413463592529297,"387":2.739572048187256,"388":5.525604248046875,"389":-2.0554697513580322,"390":1.65156090259552,"391":0.08554668724536896,"392":3.0845389366149902,"393":4.439328193664551,"394":0.6038789749145508,"395":-1.5316870212554932,"396":-1.3609626293182373,"397":0.9027567505836487,"398":2.821579694747925,"399":0.7211698889732361,"400":-2.5399060249328613,"401":-4.671674728393555,"402":-3.143159866333008,"403":2.150193929672241,"404":-0.766324520111084,"405":0.17723263800144196,"406":-1.6183438301086426,"407":3.3738012313842773,"408":-2.2945268154144287,"409":4.6894121170043945,"410":-2.1444356441497803,"411":-0.24304567277431488,"412":5.68032169342041,"413":3.3359270095825195,"414":-3.2806899547576904,"415":1.3490045070648193,"416":4.460002899169922,"417":-5.022341251373291,"418":-2.680790424346924,"419":-2.852994918823242,"420":-4.212967395782471,"421":2.910942316055298,"422":-2.248511552810669,"423":1.9544966220855713,"424":3.4854841232299805,"425":-2.266587972640991,"426":-0.6697149872779846,"427":-2.2933144569396973,"428":-2.910568952560425,"429":1.8653590679168701,"430":-1.5632450580596924,"431":1.712990641593933,"432":-0.3667497932910919,"433":-4.184563159942627,"434":-0.3422343134880066,"435":-1.693393588066101,"436":4.3682861328125,"437":-7.897070407867432,"438":2.4011497497558594,"439":-1.542123556137085,"440":-2.7113730907440186,"441":-3.1567604541778564,"442":-4.160550594329834,"443":0.5080217719078064,"444":3.521848440170288,"445":1.8608909845352173,"446":2.844517469406128,"447":0.3733830451965332,"448":8.411170959472656,"449":0.8528820872306824,"450":1.5680702924728394,"451":-4.45794677734375,"452":3.621701240539551,"453":4.118153095245361,"454":-2.115028142929077,"455":-0.6321420669555664,"456":0.027180371806025505,"457":1.7089365720748901,"458":5.93673849105835,"459":0.49680495262145996,"460":3.7021758556365967,"461":-2.036503791809082,"462":0.15392422676086426,"463":3.292672634124756,"464":-2.970299482345581,"465":-3.2894229888916016,"466":-2.1789963245391846,"467":3.31614351272583,"468":0.6583321690559387,"469":-0.4681409001350403,"470":0.752469539642334,"471":-4.55234432220459,"472":-3.4260623455047607,"473":-2.7697594165802,"474":0.14505188167095184,"475":-3.6088855266571045,"476":-2.344726085662842,"477":-3.9926133155822754,"478":-1.850708246231079,"479":2.03828763961792,"480":-1.7611994743347168,"481":-1.2653472423553467,"482":4.082620143890381,"483":0.30317479372024536,"484":-1.7164382934570312,"485":-1.0269837379455566,"486":0.9408804774284363,"487":-0.38841360807418823,"488":-2.2809345722198486,"489":-0.623680591583252,"490":-0.2723543345928192,"491":-1.7187244892120361,"492":2.1107325553894043,"493":-0.49181342124938965,"494":-1.3556896448135376,"495":2.285773992538452,"496":-2.3083407878875732,"497":-0.5649399161338806,"498":2.2839913368225098,"499":0.5240185260772705,"500":-1.088019609451294,"501":-1.3382233381271362,"502":0.34062713384628296,"503":1.0685653686523438,"504":0.00018910113431047648,"505":-0.6314385533332825,"506":-1.8049041032791138,"507":-0.7198699116706848,"508":0.8111869692802429,"509":1.2640798091888428,"510":0.20341117680072784,"511":1.5158982276916504,"512":1.3486816883087158,"513":-0.08716126531362534,"514":-2.6476924419403076,"515":-0.7684935927391052,"516":-0.5400272607803345,"517":0.12406996637582779,"518":-0.1381395012140274,"519":-0.7137129902839661,"520":1.3294168710708618,"521":-1.437222957611084,"522":0.9952226877212524,"523":-2.679456949234009,"524":-0.0502534843981266,"525":0.3822871148586273,"526":1.6294398307800293,"527":0.19384968280792236,"528":4.978708267211914,"529":-0.776441752910614,"530":-2.4025843143463135,"531":2.967214822769165,"532":1.3536655902862549,"533":-0.3085082471370697,"534":-2.899991273880005,"535":-3.1230244636535645,"536":-0.3290708363056183,"537":0.07874979078769684,"538":0.8778532147407532,"539":0.4307412803173065,"540":1.5212219953536987,"541":-1.0370490550994873,"542":-0.9228029847145081,"543":-0.8647270798683167,"544":-0.49700868129730225,"545":-3.665872097015381,"546":-1.1351057291030884,"547":3.1015310287475586,"548":-3.414492130279541,"549":3.987941265106201,"550":-1.058824896812439,"551":-0.5923009514808655,"552":0.9878836870193481,"553":-0.6990290284156799,"554":-0.283145934343338,"555":0.7365105748176575,"556":6.780110836029053,"557":-1.5036990642547607,"558":-0.4410828948020935,"559":-3.8871145248413086,"560":0.6713283061981201,"561":-0.36847856640815735,"562":-0.387625128030777,"563":-1.7608225345611572,"564":0.514773964881897,"565":-1.571267008781433,"566":2.233186721801758,"567":-0.9162648320198059,"568":-1.9967395067214966,"569":0.9692848324775696,"570":2.7356929779052734,"571":1.0488594770431519,"572":-1.2945880889892578,"573":-0.08573424071073532,"574":1.398425579071045,"575":-1.5662645101547241,"576":0.9095116257667542,"577":0.7782948613166809,"578":-0.18052992224693298,"579":-0.44896599650382996,"580":-0.18344293534755707,"581":0.15812774002552032,"582":1.4097859859466553,"583":-1.7804769277572632,"584":-0.9599932432174683,"585":2.8831417560577393,"586":-1.0913012027740479,"587":-1.2438158988952637,"588":0.2400616854429245,"589":1.150684118270874,"590":-1.3398422002792358,"591":-1.1815181970596313,"592":1.1470985412597656,"593":1.2462332248687744,"594":1.1070672273635864,"595":-0.36611104011535645,"596":0.21134088933467865,"597":1.1070246696472168,"598":0.3822227120399475,"599":-1.134697437286377,"600":0.3383251428604126,"601":-1.000133752822876,"602":0.052163027226924896,"603":0.44134101271629333,"604":-0.15639644861221313,"605":0.39434003829956055,"606":-0.4429471790790558,"607":1.2145750522613525,"608":0.7460532188415527,"609":-0.6679231524467468,"610":-0.8347459435462952,"611":-0.9068045616149902,"612":-0.03668747842311859,"613":0.07180960476398468,"614":-0.3218672275543213,"615":-0.7744132280349731,"616":0.2679309546947479,"617":-0.24866876006126404,"618":-0.10430070012807846,"619":0.8441330194473267,"620":0.01611916720867157,"621":-1.2993971109390259,"622":0.6068313717842102,"623":-0.41294047236442566,"624":-0.5060164928436279,"625":0.9212255477905273,"626":-0.3745678663253784,"627":-0.0170744638890028,"628":-0.6662852764129639,"629":-0.9451698064804077,"630":-0.18970967829227448,"631":-0.4537830054759979,"632":2.326345443725586,"633":0.6909171342849731,"634":-0.7391713857650757,"635":2.8147337436676025,"636":-1.6809486150741577,"637":-0.34558695554733276,"638":4.691983222961426,"639":1.260906457901001,"640":-0.1516045778989792,"641":-3.3842735290527344,"642":1.8126955032348633,"643":2.4254305362701416,"644":0.39847278594970703,"645":-0.38110384345054626,"646":-3.5307986736297607,"647":-0.8498049378395081,"648":0.3310302197933197,"649":1.0342297554016113,"650":0.4286082684993744,"651":-0.3167332112789154,"652":-0.15224187076091766,"653":1.1391762495040894,"654":-1.1038391590118408,"655":-1.3519686460494995,"656":0.4973970055580139,"657":1.6188669204711914,"658":-0.48754122853279114,"659":-3.22581148147583,"660":0.9240689277648926,"661":0.06569398939609528,"662":-0.669218122959137,"663":-0.5258420705795288,"664":0.29544609785079956,"665":-2.2796690464019775,"666":0.048745863139629364,"667":2.075845241546631,"668":1.3881151676177979,"669":-1.5189244747161865,"670":1.6281360387802124,"671":-1.654710054397583,"672":1.4923598766326904,"673":-0.8361544013023376,"674":-2.0440163612365723,"675":-3.0768539905548096,"676":0.3158603608608246,"677":-3.222294330596924,"678":-3.4857559204101562,"679":0.39362645149230957,"680":-0.7153134942054749,"681":4.617095470428467,"682":-0.989525556564331,"683":0.17319071292877197,"684":-2.5265331268310547,"685":-7.651270389556885,"686":1.1144436597824097,"687":-4.246324062347412,"688":3.0171103477478027,"689":-1.7658514976501465,"690":-0.27653026580810547,"691":-3.945798635482788,"692":-0.9239418506622314,"693":6.035079479217529,"694":2.7470881938934326,"695":4.6681809425354,"696":-0.6822919249534607,"697":-1.1120140552520752,"698":-2.30454158782959,"699":-0.9958351850509644,"700":4.188815116882324,"701":-1.9932453632354736,"702":-0.30720311403274536,"703":-0.6764246821403503,"704":0.7538474202156067,"705":-0.10982098430395126,"706":0.8222850561141968,"707":-2.5981907844543457,"708":-0.24998916685581207,"709":6.079047203063965,"710":2.907655954360962,"711":0.8363984823226929,"712":-0.321882426738739,"713":-0.6034444570541382,"714":0.6043189764022827,"715":-0.9750296473503113,"716":-0.8130736947059631,"717":0.5129871368408203,"718":-1.721463680267334,"719":-0.292041152715683,"720":5.1183180809021,"721":2.972536325454712,"722":0.8093901872634888,"723":0.5806359648704529,"724":-3.578312873840332,"725":0.8596229553222656,"726":0.45540857315063477,"727":-0.78155118227005,"728":-0.9373611807823181,"729":0.17758230865001678,"730":-1.3488569259643555,"731":0.9099152088165283,"732":0.17459037899971008,"733":-0.20747575163841248,"734":1.8935495615005493,"735":2.9564321041107178,"736":-0.45685628056526184,"737":2.0219125747680664,"738":9.822154998779297,"739":0.6245368123054504,"740":-0.05888044834136963,"741":1.3017547130584717,"742":1.6987472772598267,"743":0.2627696990966797,"744":0.5834438800811768,"745":4.036838531494141,"746":-0.9306095242500305,"747":-2.570263385772705,"748":2.472520351409912,"749":2.4365601539611816,"750":-3.1321399211883545,"751":-3.1258299350738525,"752":4.206893444061279,"753":-1.6552233695983887,"754":3.915922164916992,"755":-2.0128421783447266,"756":0.10477430373430252,"757":-2.417818069458008,"758":-2.850008249282837,"759":2.0963566303253174,"760":-0.5106630921363831,"761":-1.9586353302001953,"762":2.1446266174316406,"763":-5.898932933807373,"764":-5.853628158569336,"765":1.0447901487350464,"766":0.8342275619506836,"767":-1.1008349657058716,"768":1.8621559143066406,"769":3.2000644207000732,"770":-0.31623879075050354,"771":3.185521364212036,"772":1.4428242444992065,"773":2.6023671627044678,"774":-0.9563530087471008,"775":1.0197609663009644,"776":-1.6018438339233398,"777":3.3743412494659424,"778":1.5992364883422852,"779":-1.2471673488616943,"780":-1.1687943935394287,"781":-1.817795753479004,"782":1.7982532978057861,"783":-0.07263423502445221,"784":-0.369404673576355,"785":2.078941822052002,"786":-0.48623597621917725,"787":-5.598426342010498,"788":1.5617042779922485,"789":-1.024280309677124,"790":-3.3094747066497803,"791":-1.773064136505127,"792":-0.41537708044052124,"793":0.19749021530151367,"794":1.0348641872406006,"795":-0.3838469684123993,"796":2.6342663764953613,"797":0.3400890529155731,"798":3.0145483016967773,"799":-0.41077619791030884,"800":-1.4795641899108887,"801":1.7505018711090088,"802":-2.535126209259033,"803":-1.6804709434509277,"804":-3.2939512729644775,"805":0.8795761466026306,"806":-1.7437633275985718,"807":0.2628428041934967,"808":-2.2413949966430664,"809":3.6150729656219482,"810":0.18805374205112457,"811":2.214064598083496,"812":2.6099069118499756,"813":1.2126140594482422,"814":-0.469406396150589,"815":-4.127404689788818,"816":4.926163673400879,"817":-7.77517557144165,"818":-1.6152101755142212,"819":0.5684472322463989,"820":0.7372572422027588,"821":0.7751488089561462,"822":-1.9042514562606812,"823":-7.000792980194092,"824":-4.258391857147217,"825":1.0735085010528564,"826":0.5522010326385498,"827":2.5344505310058594,"828":-1.925287127494812,"829":-3.99149227142334,"830":1.6336897611618042,"831":-1.84871244430542,"832":-4.197025775909424,"833":2.1938278675079346,"834":6.645963191986084,"835":-3.4193503856658936,"836":-2.527533769607544,"837":0.3919858932495117,"838":0.6362376809120178,"839":0.5585410594940186,"840":1.8515312671661377,"841":0.8895117044448853,"842":-1.2080703973770142,"843":0.6112670302391052,"844":0.8390780091285706,"845":-0.22382822632789612,"846":0.5922972559928894,"847":-0.9976346492767334,"848":-0.9607395529747009,"849":0.5361101031303406,"850":0.16720741987228394,"851":0.8907530307769775,"852":0.4738262891769409,"853":-0.6235610246658325,"854":-0.6409552097320557,"855":-0.10287956893444061,"856":0.9835888743400574,"857":0.6790509223937988,"858":-2.0464980602264404,"859":-2.080847978591919,"860":1.1388782262802124,"861":-1.2416788339614868,"862":0.360235333442688,"863":-0.10779594630002975,"864":-1.6973893642425537,"865":0.5373878479003906,"866":0.01157747209072113,"867":-1.506603717803955,"868":0.33742284774780273,"869":1.0063352584838867,"870":-1.2236647605895996,"871":-1.1517484188079834,"872":0.4217296838760376,"873":1.0230236053466797,"874":1.018149495124817,"875":-2.1336584091186523,"876":0.09760662913322449,"877":1.4678339958190918,"878":0.2061261236667633,"879":-1.7077429294586182,"880":2.210550308227539,"881":-0.35706210136413574,"882":0.8435582518577576,"883":3.267435073852539,"884":4.18049955368042,"885":-2.4155707359313965,"886":-2.0841197967529297,"887":1.1476424932479858,"888":3.0259947776794434,"889":3.7027995586395264,"890":1.725477695465088,"891":-2.9276559352874756,"892":-1.0361151695251465,"893":-0.2364136129617691,"894":2.333606481552124,"895":2.72169828414917,"896":0.0597088597714901,"897":-4.728996276855469,"898":4.079831123352051,"899":0.2047642469406128,"900":-4.550506114959717,"901":2.5161404609680176,"902":-0.8572162389755249,"903":-0.9926614165306091,"904":-1.9785445928573608,"905":0.7104299664497375,"906":0.3176346719264984,"907":-2.051132917404175,"908":-2.084200143814087,"909":0.772574245929718,"910":2.331028938293457,"911":0.6261252164840698,"912":-1.0422978401184082,"913":-2.7647132873535156,"914":0.8887048959732056,"915":-1.6474897861480713,"916":2.22397518157959,"917":2.2921760082244873,"918":-4.178370952606201,"919":0.23997405171394348,"920":-1.92624831199646,"921":4.073348045349121,"922":-4.913720607757568,"923":-2.230290174484253,"924":-1.3423073291778564,"925":0.9729967713356018,"926":3.596672534942627,"927":-3.3558707237243652,"928":-2.7178330421447754,"929":-4.582691192626953,"930":-4.588849067687988,"931":0.63060063123703,"932":2.5773043632507324,"933":-0.5951617360115051,"934":-4.781683921813965,"935":-0.24349729716777802,"936":-0.8090706467628479,"937":-1.0891798734664917,"938":2.361396312713623,"939":3.338136911392212,"940":-0.07181473076343536,"941":-0.18598997592926025,"942":-1.5456849336624146,"943":2.164242744445801,"944":-6.74540901184082,"945":-8.2127046585083,"946":2.271880865097046,"947":3.1646804809570312,"948":-0.3222352862358093,"949":-3.794318199157715,"950":4.334254741668701,"951":-3.9590609073638916,"952":-0.7208949327468872,"953":3.8889400959014893,"954":2.350780963897705,"955":1.4498181343078613,"956":-7.470606327056885,"957":7.721096515655518,"958":4.263875961303711,"959":0.42935895919799805,"960":0.6042144894599915,"961":-4.864243030548096,"962":1.0084739923477173,"963":6.970404624938965,"964":0.7241559624671936,"965":-0.5600975751876831,"966":-2.611264705657959,"967":2.551053762435913,"968":1.8197605609893799,"969":-0.8858922123908997,"970":-2.2523910999298096,"971":0.917496383190155,"972":0.010592647828161716,"973":0.02796892262995243,"974":-6.440509796142578,"975":6.329404830932617,"976":1.9709954261779785,"977":-1.6309391260147095,"978":-4.461108684539795,"979":1.3096526861190796,"980":5.543593406677246,"981":-2.7931957244873047,"982":-0.5371962785720825,"983":2.442063331604004,"984":2.5542314052581787,"985":-4.568795680999756,"986":4.339963912963867,"987":-1.465038776397705,"988":-2.160543918609619,"989":-2.909769296646118,"990":0.24612845480442047,"991":2.5614287853240967,"992":-2.3058135509490967,"993":-5.332359790802002,"994":-1.2483375072479248,"995":0.0019411214161664248,"996":0.5221278071403503,"997":-1.9552732706069946,"998":-4.205508232116699,"999":-2.502885580062866,"1000":-4.6437907218933105,"1001":-2.43333101272583,"1002":-4.738186359405518,"1003":0.782203733921051,"1004":0.864356279373169,"1005":-0.8026111721992493,"1006":1.3425655364990234,"1007":4.1657609939575195,"1008":1.6561378240585327,"1009":0.41389191150665283,"1010":-4.587216377258301,"1011":3.0667953491210938,"1012":-0.0982319787144661,"1013":3.0021770000457764,"1014":-2.7761669158935547,"1015":1.4358311891555786,"1016":3.0220768451690674,"1017":-3.565140724182129,"1018":1.2688978910446167,"1019":4.135810375213623,"1020":-5.805560111999512,"1021":7.660774230957031,"1022":-4.84447717666626,"1023":-3.4298899173736572,"1024":4.134275913238525,"1025":-0.28457018733024597,"1026":6.324580669403076,"1027":-6.313944339752197,"1028":-1.6882001161575317,"1029":-0.8691194653511047,"1030":-4.193961143493652,"1031":4.080497741699219,"1032":2.015857696533203,"1033":-2.7239904403686523,"1034":-2.579160213470459,"1035":-1.928160548210144,"1036":3.44907283782959,"1037":-1.473548173904419,"1038":-3.8869686126708984,"1039":1.7110759019851685,"1040":1.0219472646713257,"1041":-3.6435000896453857,"1042":2.770447015762329,"1043":-1.2579028606414795,"1044":1.3374145030975342,"1045":-6.257778167724609,"1046":-2.670137643814087,"1047":-0.03658989444375038,"1048":3.700817108154297,"1049":0.7055370807647705,"1050":-1.6691676378250122,"1051":-7.288135051727295,"1052":-0.5014351010322571,"1053":1.7674616575241089,"1054":-1.4658961296081543,"1055":1.4817476272583008,"1056":-2.7133829593658447,"1057":-0.875494122505188,"1058":1.7661267518997192,"1059":-0.026176339015364647,"1060":-2.485727071762085,"1061":-5.013289451599121,"1062":2.9779598712921143,"1063":0.2812000811100006,"1064":1.5078508853912354,"1065":4.3144121170043945,"1066":-1.217362403869629,"1067":-2.717041254043579,"1068":1.0962469577789307,"1069":7.479525566101074,"1070":-2.723503828048706,"1071":4.962057113647461,"1072":-1.8669739961624146,"1073":2.5425474643707275,"1074":-1.3932243585586548,"1075":-0.2420407235622406,"1076":-0.5232864618301392,"1077":0.5568419098854065,"1078":-2.2435989379882812,"1079":-2.641613483428955,"1080":0.7423746585845947,"1081":-1.65751314163208,"1082":2.4841551780700684,"1083":-0.7219547033309937,"1084":-0.29427802562713623,"1085":1.9371227025985718,"1086":0.9351772665977478,"1087":0.07294009625911713,"1088":1.5262770652770996,"1089":1.7116460800170898,"1090":-0.30811935663223267,"1091":0.6071987748146057,"1092":-0.9608361124992371,"1093":0.7297430038452148,"1094":-2.2197816371917725,"1095":0.7740156054496765,"1096":0.2206379920244217,"1097":2.479536533355713,"1098":-1.4584498405456543,"1099":-1.9325053691864014,"1100":1.99421226978302,"1101":-2.9436585903167725,"1102":3.030463933944702,"1103":-4.787083148956299,"1104":-1.1603158712387085,"1105":1.2384817600250244,"1106":-0.4523264765739441,"1107":-1.654423475265503,"1108":1.1398223638534546,"1109":-2.0026063919067383,"1110":-0.3177453875541687,"1111":-4.874866485595703,"1112":-2.9760377407073975,"1113":-5.393937587738037,"1114":3.5300674438476562,"1115":-3.323105812072754,"1116":-3.656642198562622,"1117":2.0167601108551025,"1118":2.0903947353363037,"1119":2.365971565246582,"1120":-0.6490016579627991,"1121":6.088685989379883,"1122":-6.1780476570129395,"1123":0.5078833699226379,"1124":3.789829969406128,"1125":-4.124334812164307,"1126":3.930121421813965,"1127":-0.21498899161815643,"1128":-5.4409637451171875,"1129":-0.6789767146110535,"1130":2.872953176498413,"1131":6.526401996612549,"1132":-3.0013985633850098,"1133":-2.1844260692596436,"1134":1.0279772281646729,"1135":2.1392905712127686,"1136":1.0794837474822998,"1137":-0.7180463671684265,"1138":-3.4900054931640625,"1139":-1.149476408958435,"1140":-1.2862313985824585,"1141":-5.744868278503418,"1142":-2.9653849601745605,"1143":2.5797975063323975,"1144":3.0972161293029785,"1145":1.9711402654647827,"1146":2.2990946769714355,"1147":-0.41798633337020874,"1148":5.420529365539551,"1149":3.944767713546753,"1150":-2.2408015727996826,"1151":-0.3167893588542938,"1152":-1.4385148286819458,"1153":6.830562591552734,"1154":4.876505374908447,"1155":-0.5699856281280518,"1156":-1.25729238986969,"1157":-0.0014880200615152717,"1158":-0.8189032673835754,"1159":-0.13286587595939636,"1160":-0.9905964136123657,"1161":0.5822011828422546,"1162":-0.24621503055095673,"1163":-0.528857409954071,"1164":1.2782362699508667,"1165":1.3595046997070312,"1166":0.12689687311649323,"1167":0.3362651467323303,"1168":-0.6450850367546082,"1169":-0.5484698414802551,"1170":-0.9224379658699036,"1171":1.0375157594680786,"1172":-0.19453075528144836,"1173":-0.8157898187637329,"1174":-1.1280440092086792,"1175":-1.796676516532898,"1176":0.7044389247894287,"1177":-0.4219520688056946,"1178":-2.211383581161499,"1179":-1.1528874635696411,"1180":1.3198869228363037,"1181":-1.0883121490478516,"1182":-2.426377296447754,"1183":0.5696385502815247,"1184":1.2456344366073608,"1185":-0.21486976742744446,"1186":-2.2518527507781982,"1187":1.6300349235534668,"1188":1.1666685342788696,"1189":-1.4750099182128906,"1190":-1.2284717559814453,"1191":1.1818764209747314,"1192":0.283517986536026,"1193":0.017596784979104996,"1194":-0.6458994746208191,"1195":0.5732080340385437,"1196":-0.5232687592506409,"1197":1.4871360063552856,"1198":1.0056346654891968,"1199":1.2050467729568481,"1200":-0.031153935939073563,"1201":-0.4291253983974457,"1202":1.0816336870193481,"1203":0.31134843826293945,"1204":1.9838879108428955,"1205":0.11062514781951904,"1206":-0.04603426903486252,"1207":0.9206237196922302,"1208":1.316961407661438,"1209":-0.946314811706543,"1210":0.09350376576185226,"1211":-1.1913777589797974,"1212":0.8996171951293945,"1213":-1.0632493495941162,"1214":0.9066940546035767,"1215":-0.9371095299720764,"1216":-0.8022304773330688,"1217":0.0819210335612297,"1218":0.5833081007003784,"1219":0.14451999962329865,"1220":-0.42787685990333557,"1221":1.4999158382415771,"1222":-1.6123650074005127,"1223":-0.9476813673973083,"1224":-0.14524869620800018,"1225":0.07730189710855484,"1226":-0.07326172292232513,"1227":-0.010796565562486649,"1228":0.020973090082406998,"1229":0.05484956502914429,"1230":0.035711586475372314,"1231":-0.04857776686549187,"1232":-0.037810325622558594,"1233":0.05583834648132324,"1234":-0.05372849106788635,"1235":0.05260207876563072,"1236":-0.0022753847297281027,"1237":0.06943442672491074,"1238":-0.02533106692135334,"1239":-0.06473716348409653,"1240":0.019250962883234024,"1241":0.008287214674055576,"1242":0.03625239431858063,"1243":-0.06204284355044365,"1244":-0.07440756261348724,"1245":0.04004087299108505,"1246":-0.021764764562249184,"1247":-0.07310205698013306,"1248":-0.07228535413742065,"1249":0.005306841805577278,"1250":-0.04188067838549614,"1251":0.05603928118944168,"1252":0.03655270114541054,"1253":0.05135203152894974,"1254":0.04286758229136467,"1255":-0.05529871955513954,"1256":0.028482917696237564,"1257":0.017487069591879845,"1258":0.0582762137055397,"1259":0.06292702257633209}},"hiddenLayers":[{"inputMatrix":{"rows":20,"columns":35,"weights":{"0":0.22192567586898804,"1":0.6756114363670349,"2":0.08841785043478012,"3":0.9706773161888123,"4":0.40703311562538147,"5":-0.7996022701263428,"6":1.0610884428024292,"7":-0.2713187634944916,"8":-0.8666377663612366,"9":-1.1963791847229004,"10":0.6082597970962524,"11":0.7537118792533875,"12":0.03550446033477783,"13":-0.3083418607711792,"14":-0.8566846251487732,"15":-1.189162254333496,"16":1.2413593530654907,"17":-0.07365639507770538,"18":-0.10606145858764648,"19":-1.2862799167633057,"20":-1.7654285430908203,"21":-0.7340890765190125,"22":-2.3070485591888428,"23":-0.9048386812210083,"24":1.2467128038406372,"25":0.6631361246109009,"26":-2.160506248474121,"27":-0.1386481523513794,"28":0.024582073092460632,"29":0.31108468770980835,"30":-0.2834782302379608,"31":-1.0664902925491333,"32":-0.1307186335325241,"33":0.8638419508934021,"34":-0.002644042717292905,"35":-0.2503538429737091,"36":-1.681943416595459,"37":-1.6193583011627197,"38":0.3044070899486542,"39":1.2618037462234497,"40":-0.8267875909805298,"41":0.852409303188324,"42":-2.1387271881103516,"43":-1.2219520807266235,"44":-0.5134479403495789,"45":0.7417998313903809,"46":1.5768252611160278,"47":-1.3692622184753418,"48":-1.6087101697921753,"49":-0.17922912538051605,"50":0.3862876296043396,"51":1.4985994100570679,"52":0.26128169894218445,"53":-1.0677299499511719,"54":0.5883108377456665,"55":-0.781051516532898,"56":1.1295136213302612,"57":-1.8614473342895508,"58":2.2620863914489746,"59":-1.7548569440841675,"60":0.02242385223507881,"61":0.6432852745056152,"62":-0.697388768196106,"63":0.7892780900001526,"64":2.4434852600097656,"65":-0.14627325534820557,"66":-2.626214027404785,"67":1.4458929300308228,"68":1.3957197666168213,"69":-0.14019161462783813,"70":1.7386705875396729,"71":-0.03444979712367058,"72":-0.48549798130989075,"73":-0.6531790494918823,"74":1.0464414358139038,"75":-1.5345216989517212,"76":2.6034493446350098,"77":0.4004259407520294,"78":-0.11298663169145584,"79":2.5871737003326416,"80":1.650831699371338,"81":1.5215684175491333,"82":-0.14321407675743103,"83":-0.7487786412239075,"84":0.6618040800094604,"85":1.0408236980438232,"86":-0.01035145204514265,"87":2.0496883392333984,"88":-1.8771225214004517,"89":-0.6790121793746948,"90":2.406472682952881,"91":-2.4699249267578125,"92":-0.292193204164505,"93":-1.0380475521087646,"94":-0.41022491455078125,"95":0.33142638206481934,"96":0.07139212638139725,"97":-0.8632450103759766,"98":-0.900324821472168,"99":0.9087381362915039,"100":-1.756874680519104,"101":-0.265140175819397,"102":0.9336825013160706,"103":1.6788469552993774,"104":2.6086363792419434,"105":2.2128000259399414,"106":0.2094493955373764,"107":-2.1156554222106934,"108":0.14681807160377502,"109":1.150580644607544,"110":-0.27497658133506775,"111":0.3471924066543579,"112":0.3611280620098114,"113":-0.6671837568283081,"114":-0.7632014155387878,"115":-0.4774545729160309,"116":0.9083318710327148,"117":-1.047812581062317,"118":1.066012978553772,"119":-0.3476592004299164,"120":1.4035706520080566,"121":-0.5027323365211487,"122":0.7844098210334778,"123":-1.2113864421844482,"124":0.9852194786071777,"125":0.9155939221382141,"126":-0.7571309804916382,"127":-0.14410392940044403,"128":1.0580273866653442,"129":-0.08188153803348541,"130":-1.0336270332336426,"131":0.48369234800338745,"132":-0.16436022520065308,"133":-0.46136701107025146,"134":-0.2291603833436966,"135":-0.947249710559845,"136":1.3497258424758911,"137":-0.20893238484859467,"138":0.8041824102401733,"139":0.9716492295265198,"140":-1.0733904838562012,"141":0.3651755750179291,"142":1.1673593521118164,"143":0.5815001130104065,"144":-2.009033679962158,"145":3.209282159805298,"146":-2.1374528408050537,"147":0.22618573904037476,"148":2.997448444366455,"149":-0.4850347340106964,"150":0.6368415355682373,"151":-1.5523927211761475,"152":-0.0890885517001152,"153":1.05075204372406,"154":0.8551056385040283,"155":0.3134746849536896,"156":-1.3370630741119385,"157":-0.1302390992641449,"158":2.4804232120513916,"159":1.1861379146575928,"160":1.4361573457717896,"161":-1.0983188152313232,"162":-0.5541597008705139,"163":-0.061766352504491806,"164":1.8667511940002441,"165":0.22728626430034637,"166":0.9954213500022888,"167":1.0414243936538696,"168":-0.7990240454673767,"169":-3.2344751358032227,"170":1.2278878688812256,"171":0.567682683467865,"172":-0.5835872888565063,"173":-1.5829722881317139,"174":1.0544923543930054,"175":0.0012100948952138424,"176":-0.3245706558227539,"177":-0.8228318095207214,"178":0.1628156304359436,"179":0.2209310233592987,"180":0.2860654592514038,"181":-0.9184980392456055,"182":-0.39813676476478577,"183":2.4918105602264404,"184":-0.3832949995994568,"185":-0.3501874506473541,"186":-0.6693001389503479,"187":1.9611570835113525,"188":-0.1496744602918625,"189":-0.23273280262947083,"190":0.23277729749679565,"191":-1.4644478559494019,"192":-0.3666119873523712,"193":0.2787597179412842,"194":1.0063344240188599,"195":1.343798279762268,"196":0.6093479990959167,"197":-0.4053361415863037,"198":1.4153505563735962,"199":0.2675945460796356,"200":-0.4322046935558319,"201":1.2622838020324707,"202":0.506585955619812,"203":-0.01364690251648426,"204":-0.12080328911542892,"205":0.15841060876846313,"206":-0.18576861917972565,"207":0.7505461573600769,"208":-0.7640246152877808,"209":-0.28667405247688293,"210":-0.16025640070438385,"211":0.4463142454624176,"212":0.1684509664773941,"213":1.32405686378479,"214":0.4135838449001312,"215":-1.2243555784225464,"216":1.124455213546753,"217":0.7998952269554138,"218":-0.7904409766197205,"219":0.23810164630413055,"220":-0.1306859701871872,"221":0.8991556167602539,"222":0.33726224303245544,"223":-1.332383632659912,"224":0.13323020935058594,"225":0.0402478389441967,"226":1.575215458869934,"227":-0.21591170132160187,"228":-0.57097989320755,"229":-1.2905606031417847,"230":-0.12790317833423615,"231":-0.6572123765945435,"232":1.2928876876831055,"233":-0.7618887424468994,"234":1.935331106185913,"235":-0.5951985716819763,"236":-0.47873300313949585,"237":0.01784640923142433,"238":0.169785737991333,"239":0.9245488047599792,"240":-1.6742726564407349,"241":1.1000114679336548,"242":-0.4656550884246826,"243":1.002724528312683,"244":-0.8087590336799622,"245":-0.5123187303543091,"246":-0.45278993248939514,"247":0.5264682173728943,"248":-2.2647030353546143,"249":-0.0784236267209053,"250":0.2587452232837677,"251":-0.19721917808055878,"252":-1.4441277980804443,"253":1.6322193145751953,"254":1.0666451454162598,"255":0.7757847905158997,"256":-0.8077250123023987,"257":3.0304617881774902,"258":0.9433605074882507,"259":-0.655587911605835,"260":-1.919645071029663,"261":-0.800734281539917,"262":0.8089454770088196,"263":-0.013768588192760944,"264":-2.0305798053741455,"265":1.286394476890564,"266":0.8787743449211121,"267":1.803168773651123,"268":-2.012730121612549,"269":-2.274407148361206,"270":1.3995758295059204,"271":-2.362841844558716,"272":-1.401121735572815,"273":-0.9880991578102112,"274":-0.13676884770393372,"275":-0.09611856937408447,"276":-2.8722164630889893,"277":2.480736255645752,"278":0.1325831413269043,"279":0.698754608631134,"280":-0.064059317111969,"281":2.1328182220458984,"282":-0.7364848256111145,"283":0.7512852549552917,"284":1.024058222770691,"285":0.8727630972862244,"286":-0.31207743287086487,"287":1.3882683515548706,"288":1.3262369632720947,"289":-0.7546247243881226,"290":-1.1811888217926025,"291":0.9118684530258179,"292":-0.5001696944236755,"293":-0.8081583976745605,"294":-1.3100411891937256,"295":2.4937584400177,"296":0.15151003003120422,"297":-0.9314464330673218,"298":-0.5803481936454773,"299":-1.8724815845489502,"300":1.1799458265304565,"301":-2.3310372829437256,"302":-2.0579757690429688,"303":0.8290089964866638,"304":0.330187052488327,"305":-0.19733569025993347,"306":0.7705403566360474,"307":-0.24867552518844604,"308":0.26223042607307434,"309":-0.3514472544193268,"310":-0.453578919172287,"311":-0.24004529416561127,"312":-1.4932233095169067,"313":0.9076471328735352,"314":0.09865806996822357,"315":0.3464146554470062,"316":0.5732535123825073,"317":-0.45785999298095703,"318":1.1246615648269653,"319":0.5183430314064026,"320":-0.13842704892158508,"321":0.5817534923553467,"322":-1.5750943422317505,"323":0.22511793673038483,"324":-0.4088267683982849,"325":1.6345319747924805,"326":-0.916153609752655,"327":1.169845700263977,"328":0.08799275010824203,"329":0.34015515446662903,"330":0.7634960412979126,"331":-0.5637251138687134,"332":-0.7291386127471924,"333":0.23694491386413574,"334":0.031805023550987244,"335":0.42192205786705017,"336":-1.1757049560546875,"337":-0.052161216735839844,"338":-0.5676921606063843,"339":0.5909753441810608,"340":0.7653381824493408,"341":1.5635641813278198,"342":-0.9505401253700256,"343":0.6958226561546326,"344":-0.6277235746383667,"345":-1.8468997478485107,"346":-1.0195740461349487,"347":0.6845147609710693,"348":0.45128071308135986,"349":0.1891690045595169,"350":-2.5085718631744385,"351":-1.9603031873703003,"352":1.3200424909591675,"353":-0.37715861201286316,"354":-2.2633039951324463,"355":0.881822943687439,"356":-1.0706095695495605,"357":0.5272906422615051,"358":0.5583921074867249,"359":0.1564258635044098,"360":1.3248494863510132,"361":-1.0834859609603882,"362":0.4678584039211273,"363":0.8727604746818542,"364":1.5727643966674805,"365":-0.8075336217880249,"366":-0.5143953561782837,"367":1.1672388315200806,"368":1.1021779775619507,"369":1.355361819267273,"370":-0.9988493323326111,"371":1.803560495376587,"372":-1.0845263004302979,"373":-1.0565043687820435,"374":1.1786807775497437,"375":-0.3824913501739502,"376":-0.8936157822608948,"377":0.24355792999267578,"378":-1.7833479642868042,"379":-0.9666958451271057,"380":1.381742000579834,"381":0.03316758945584297,"382":0.5733709931373596,"383":-0.8453733921051025,"384":-0.47647130489349365,"385":0.09653706103563309,"386":-0.037230245769023895,"387":-1.949860692024231,"388":-1.793381929397583,"389":2.792787551879883,"390":-1.1710529327392578,"391":0.8667073249816895,"392":0.7274832129478455,"393":-2.5902469158172607,"394":0.24912799894809723,"395":1.1678051948547363,"396":1.2509652376174927,"397":-2.5298774242401123,"398":-2.039684534072876,"399":-0.16507107019424438,"400":0.5893739461898804,"401":3.058220148086548,"402":-0.39942970871925354,"403":-1.0404722690582275,"404":-1.5551124811172485,"405":-0.059995315968990326,"406":0.516155481338501,"407":0.21831752359867096,"408":0.38758584856987,"409":-1.2086799144744873,"410":0.99493408203125,"411":-1.4753271341323853,"412":-0.38686248660087585,"413":0.04484611749649048,"414":1.198379635810852,"415":0.476482093334198,"416":0.07974711060523987,"417":-0.2581928074359894,"418":2.256929874420166,"419":0.4074631929397583,"420":0.5342369675636292,"421":1.0149989128112793,"422":-1.3672617673873901,"423":-0.5871542692184448,"424":0.9777436852455139,"425":-0.9924533367156982,"426":0.641528308391571,"427":-1.536349892616272,"428":-1.1932768821716309,"429":-0.37498465180397034,"430":0.08240184187889099,"431":1.3513963222503662,"432":-1.640636920928955,"433":-1.4805662631988525,"434":-1.8586755990982056,"435":-0.09869279712438583,"436":0.23994649946689606,"437":-0.6884130835533142,"438":-0.703257143497467,"439":-1.0938138961791992,"440":0.5131508111953735,"441":-0.4938514232635498,"442":0.5779439210891724,"443":0.46396341919898987,"444":-4.554453372955322,"445":1.9347736835479736,"446":-0.14301897585391998,"447":-1.059075951576233,"448":1.6737571954727173,"449":0.5063381195068359,"450":0.39843547344207764,"451":-1.6541786193847656,"452":0.8260195255279541,"453":1.0695514678955078,"454":0.6911773085594177,"455":1.4621524810791016,"456":-1.1067602634429932,"457":-0.8759406805038452,"458":-0.1693706065416336,"459":1.2999029159545898,"460":-1.1483614444732666,"461":1.5632323026657104,"462":-1.0153864622116089,"463":-0.8772023916244507,"464":0.3543461263179779,"465":1.5025957822799683,"466":0.7693070769309998,"467":-0.7790208458900452,"468":-0.7923259735107422,"469":1.3131322860717773,"470":-0.773390531539917,"471":0.34273719787597656,"472":1.651010513305664,"473":-1.242891788482666,"474":0.7392239570617676,"475":0.6155635118484497,"476":0.4965885579586029,"477":1.2874609231948853,"478":0.1974562704563141,"479":-0.15037040412425995,"480":0.5428012609481812,"481":-0.18934670090675354,"482":0.6579976677894592,"483":-1.3701435327529907,"484":0.9991899132728577,"485":-0.5719358921051025,"486":-0.8473832011222839,"487":0.950983464717865,"488":1.6322073936462402,"489":1.2858887910842896,"490":1.663862705230713,"491":-1.1435600519180298,"492":-1.5708048343658447,"493":0.6598180532455444,"494":1.800154447555542,"495":-1.9771541357040405,"496":1.7035150527954102,"497":-0.3062969744205475,"498":-0.8981567621231079,"499":-2.0267457962036133,"500":0.3566586673259735,"501":0.31492945551872253,"502":-0.3767887353897095,"503":-1.0438694953918457,"504":-0.18270592391490936,"505":0.039072658866643906,"506":0.5929521322250366,"507":0.9493191242218018,"508":-1.111638069152832,"509":-0.09408371150493622,"510":-2.5333938598632812,"511":0.429002583026886,"512":0.1307666152715683,"513":-0.564816951751709,"514":-0.7610183358192444,"515":1.2837740182876587,"516":-0.01839180663228035,"517":0.14258235692977905,"518":-0.7196186184883118,"519":0.4428682029247284,"520":-0.403678297996521,"521":-0.6222561597824097,"522":2.136932134628296,"523":1.6292177438735962,"524":-0.7645924687385559,"525":-0.0883786603808403,"526":0.6275520324707031,"527":0.8536418080329895,"528":1.5939197540283203,"529":-0.47193193435668945,"530":0.44690799713134766,"531":-0.16938266158103943,"532":-1.0374212265014648,"533":2.320652484893799,"534":1.2207832336425781,"535":0.031058844178915024,"536":-1.815048336982727,"537":1.3160455226898193,"538":1.738105297088623,"539":1.0767725706100464,"540":-0.4669175446033478,"541":-2.9823269844055176,"542":-1.1318130493164062,"543":0.9975616931915283,"544":1.1203824281692505,"545":0.2739455997943878,"546":0.30019983649253845,"547":0.06416383385658264,"548":-1.6448876857757568,"549":0.7739947438240051,"550":1.3455148935317993,"551":-0.2654460668563843,"552":1.0020532608032227,"553":-0.5065488815307617,"554":-2.7786812782287598,"555":0.6231350898742676,"556":0.17845197021961212,"557":0.46312063932418823,"558":-1.7603759765625,"559":0.4542625844478607,"560":0.22386839985847473,"561":-0.5173066258430481,"562":0.8775265216827393,"563":1.5219134092330933,"564":-1.2845488786697388,"565":2.8313896656036377,"566":-2.3783748149871826,"567":-0.1476353406906128,"568":2.6051628589630127,"569":-0.7129080891609192,"570":-0.13808555901050568,"571":-2.2642970085144043,"572":-0.5004054307937622,"573":0.7906437516212463,"574":0.12130021303892136,"575":-0.16724498569965363,"576":-1.553105354309082,"577":-0.9563776254653931,"578":2.4032280445098877,"579":0.494830459356308,"580":-0.8329755663871765,"581":0.1948796808719635,"582":0.9899029731750488,"583":-0.9435608386993408,"584":1.470367193222046,"585":0.5053243637084961,"586":0.4237574636936188,"587":0.5584287047386169,"588":0.274918794631958,"589":-1.888411521911621,"590":2.3181822299957275,"591":-0.4252946674823761,"592":0.2420722395181656,"593":-2.710657835006714,"594":-0.7826248407363892,"595":0.6805237531661987,"596":-0.0004007986863143742,"597":-0.4357112646102905,"598":1.4853020906448364,"599":0.4835676848888397,"600":-0.2752799689769745,"601":0.4094242453575134,"602":-1.400513768196106,"603":-0.16658437252044678,"604":0.29163822531700134,"605":-0.5925838351249695,"606":0.6044259667396545,"607":0.3320436477661133,"608":-0.5605848431587219,"609":0.011682811193168163,"610":-0.3512881398200989,"611":-0.3709641098976135,"612":-0.1415325254201889,"613":-0.8330580592155457,"614":1.7708005905151367,"615":0.40692201256752014,"616":-0.2477131187915802,"617":-0.025127260014414787,"618":0.5714700222015381,"619":0.3542206883430481,"620":-1.7019522190093994,"621":-0.13767266273498535,"622":1.9730652570724487,"623":-0.7977645993232727,"624":-0.009920108132064342,"625":0.15675047039985657,"626":-0.7802335619926453,"627":0.5350897908210754,"628":-0.1071191355586052,"629":1.1712205410003662,"630":-0.45535847544670105,"631":0.4001850485801697,"632":-0.18881744146347046,"633":2.8083279132843018,"634":-0.010682572610676289,"635":-0.5760920643806458,"636":0.0731787383556366,"637":0.5944653153419495,"638":-0.13625478744506836,"639":-1.4916168451309204,"640":0.6421434879302979,"641":-0.1570022851228714,"642":0.1378973424434662,"643":-0.4746565818786621,"644":-0.8192798495292664,"645":0.8021631240844727,"646":-0.12056415528059006,"647":-0.1313425749540329,"648":0.353078156709671,"649":-0.1682591289281845,"650":-1.6600582599639893,"651":-1.032458782196045,"652":-1.5198463201522827,"653":1.3124964237213135,"654":2.4014415740966797,"655":-1.6963558197021484,"656":-0.241340771317482,"657":1.7684166431427002,"658":-0.3378066420555115,"659":-0.9023272395133972,"660":0.19794520735740662,"661":1.407645344734192,"662":-1.3468376398086548,"663":0.011839983984827995,"664":-0.7050106525421143,"665":0.03982063755393028,"666":0.5468677282333374,"667":-0.45552557706832886,"668":0.07927452027797699,"669":0.47655946016311646,"670":-0.39357060194015503,"671":-0.22248424589633942,"672":-0.18433180451393127,"673":-0.7412844300270081,"674":-0.2568134367465973,"675":-0.3437456786632538,"676":0.0842340737581253,"677":0.22322940826416016,"678":-0.37432706356048584,"679":-0.8183847069740295,"680":0.9337068200111389,"681":-0.06852882355451584,"682":-0.8955127000808716,"683":-0.8692679405212402,"684":-0.16478189826011658,"685":0.7196739912033081,"686":-1.5699013471603394,"687":-0.006627947092056274,"688":1.8129494190216064,"689":-1.3818050622940063,"690":-0.45439964532852173,"691":0.3973468244075775,"692":-1.670157790184021,"693":0.9444364309310913,"694":1.3780796527862549,"695":-0.614494264125824,"696":-0.7194157838821411,"697":0.6095767617225647,"698":0.6022169589996338,"699":0.3410644829273224}},"inputHidden":{"rows":20,"columns":20,"weights":{"0":2.7715725898742676,"1":0.2091204673051834,"2":-2.3136274814605713,"3":0.46097198128700256,"4":-0.31960558891296387,"5":-0.5623022317886353,"6":-1.7798731327056885,"7":0.08075051754713058,"8":2.625267505645752,"9":-2.04614520072937,"10":-0.3898974657058716,"11":0.32975250482559204,"12":0.1822735071182251,"13":-2.1104540824890137,"14":0.26252442598342896,"15":-0.007702352944761515,"16":2.195011854171753,"17":2.3591339588165283,"18":2.297114372253418,"19":1.1762765645980835,"20":0.24801185727119446,"21":0.4706483781337738,"22":2.180906057357788,"23":-2.0993812084198,"24":-0.7768427133560181,"25":4.307296276092529,"26":-0.852806031703949,"27":-0.5625991821289062,"28":-0.5788300037384033,"29":-3.4771502017974854,"30":0.8432698249816895,"31":-1.4180066585540771,"32":0.09656629711389542,"33":0.8052520155906677,"34":0.4448854923248291,"35":-1.054916262626648,"36":0.8406387567520142,"37":-0.6133726835250854,"38":-1.4309242963790894,"39":-0.8793492317199707,"40":-0.936305820941925,"41":0.10681946575641632,"42":-0.13284990191459656,"43":-1.9854062795639038,"44":0.7888947129249573,"45":2.3952229022979736,"46":1.5806118249893188,"47":-2.237945556640625,"48":-1.213915228843689,"49":-1.1219288110733032,"50":0.5365308523178101,"51":0.6780030727386475,"52":-0.5378819108009338,"53":0.805931031703949,"54":-0.23433254659175873,"55":-0.2520744800567627,"56":0.3336113393306732,"57":-2.176664113998413,"58":0.4120461046695709,"59":1.3695768117904663,"60":1.938307285308838,"61":-2.2693369388580322,"62":-1.548174500465393,"63":0.3004719614982605,"64":-2.906231164932251,"65":0.12457001209259033,"66":0.4723345935344696,"67":2.27242112159729,"68":1.480739712715149,"69":-0.5391952395439148,"70":2.055636167526245,"71":-0.8063957691192627,"72":1.9194554090499878,"73":1.0061984062194824,"74":-2.8639636039733887,"75":-0.8224936127662659,"76":0.08738210797309875,"77":1.2021088600158691,"78":2.5135958194732666,"79":-0.4813263416290283,"80":0.5083065629005432,"81":-0.5688797235488892,"82":0.9547137022018433,"83":-0.4205405116081238,"84":-0.5710641741752625,"85":-0.09931310266256332,"86":0.8557088971138,"87":0.0965900868177414,"88":0.01759030483663082,"89":-0.392669677734375,"90":-0.1660340428352356,"91":1.5112531185150146,"92":-1.1862012147903442,"93":0.7540401220321655,"94":-0.0065531437285244465,"95":2.4375617504119873,"96":0.14405804872512817,"97":0.821850061416626,"98":-0.25327885150909424,"99":0.6297741532325745,"100":2.4054462909698486,"101":0.8320936560630798,"102":-1.6984163522720337,"103":3.2250125408172607,"104":-0.4784812033176422,"105":0.5351327061653137,"106":0.09656213968992233,"107":0.4465278089046478,"108":0.5189785361289978,"109":3.2202675342559814,"110":-1.1759514808654785,"111":-4.022712230682373,"112":0.6283851265907288,"113":-1.3660571575164795,"114":0.28000226616859436,"115":0.11969698220491409,"116":0.9344578385353088,"117":0.7313734292984009,"118":1.7366013526916504,"119":0.331868052482605,"120":1.5162118673324585,"121":-1.8616712093353271,"122":0.7380156517028809,"123":2.9225385189056396,"124":-1.7201838493347168,"125":-4.0032267570495605,"126":-1.0261073112487793,"127":2.8278231620788574,"128":0.3271702826023102,"129":-0.07272689789533615,"130":-3.5741825103759766,"131":-2.497493028640747,"132":-0.1452847719192505,"133":-2.4592032432556152,"134":-1.794965386390686,"135":-1.2079881429672241,"136":1.7940959930419922,"137":-0.07246261090040207,"138":3.2535905838012695,"139":-1.4016056060791016,"140":-0.4168815612792969,"141":-1.1476335525512695,"142":0.6689467430114746,"143":-1.2873610258102417,"144":-1.4745935201644897,"145":1.1813650131225586,"146":-1.4763972759246826,"147":-1.8395917415618896,"148":-1.617063045501709,"149":0.08391279727220535,"150":-0.8796605467796326,"151":0.2664545774459839,"152":-1.0653300285339355,"153":-0.4297581911087036,"154":-0.2508707344532013,"155":-2.3100857734680176,"156":1.9278621673583984,"157":-0.6807299256324768,"158":-0.28420624136924744,"159":1.9015008211135864,"160":0.48124316334724426,"161":2.8274576663970947,"162":-3.4788873195648193,"163":2.2573964595794678,"164":-0.49497997760772705,"165":-1.3859330415725708,"166":-1.692757248878479,"167":-0.9637189507484436,"168":1.8113524913787842,"169":-1.491086483001709,"170":-0.8131043314933777,"171":-2.3508970737457275,"172":2.2159311771392822,"173":-4.819380760192871,"174":-3.1819725036621094,"175":-0.9908658266067505,"176":0.4048842191696167,"177":1.696447491645813,"178":1.8227198123931885,"179":-1.851722002029419,"180":4.130560874938965,"181":1.4310705661773682,"182":-0.8484612703323364,"183":0.6164467930793762,"184":0.504688560962677,"185":-3.3996334075927734,"186":-0.5030926465988159,"187":1.6401835680007935,"188":0.901890218257904,"189":-1.0225030183792114,"190":-1.0678589344024658,"191":-2.017979860305786,"192":3.8103280067443848,"193":-1.6381226778030396,"194":-1.3442524671554565,"195":1.2355601787567139,"196":2.183159351348877,"197":3.253037929534912,"198":2.097188949584961,"199":-2.794950008392334,"200":-2.443122625350952,"201":-0.19932998716831207,"202":1.1332221031188965,"203":0.4515892565250397,"204":-2.2500922679901123,"205":-0.399038165807724,"206":0.26124468445777893,"207":-0.3525296747684479,"208":-0.3176964521408081,"209":-1.349123477935791,"210":-0.13332338631153107,"211":-1.095166563987732,"212":0.05933606997132301,"213":-0.6258863210678101,"214":0.7816266417503357,"215":-0.5878593325614929,"216":-0.4513495862483978,"217":0.19755442440509796,"218":1.1750001907348633,"219":-0.9642717838287354,"220":0.8205795288085938,"221":-0.6771084070205688,"222":-0.4020592272281647,"223":1.9443256855010986,"224":-0.24656535685062408,"225":-0.0558992400765419,"226":-0.8483344316482544,"227":0.4881628453731537,"228":0.7972826361656189,"229":-0.840691089630127,"230":-0.5807315111160278,"231":0.3484207093715668,"232":1.784570574760437,"233":-2.053377628326416,"234":-1.5811296701431274,"235":0.13916926085948944,"236":-0.013260582461953163,"237":0.1730518341064453,"238":-0.04954914003610611,"239":-1.0139491558074951,"240":-1.984088659286499,"241":0.41339510679244995,"242":-2.2827656269073486,"243":-0.730891764163971,"244":-1.512017846107483,"245":-0.36977922916412354,"246":-1.353574514389038,"247":-0.9310497045516968,"248":-1.11220121383667,"249":0.4866683781147003,"250":-0.23253534734249115,"251":-0.603585958480835,"252":-0.15041670203208923,"253":0.35080963373184204,"254":-0.25869622826576233,"255":1.7629268169403076,"256":0.7925100326538086,"257":-1.5195238590240479,"258":-0.4323629140853882,"259":0.4345235824584961,"260":1.9797650575637817,"261":-0.4523978531360626,"262":-1.3268473148345947,"263":1.3954010009765625,"264":-0.42303401231765747,"265":-2.0037801265716553,"266":0.3688490688800812,"267":0.3505055904388428,"268":-0.3330419659614563,"269":-0.774749219417572,"270":-1.1872904300689697,"271":-0.06626021862030029,"272":0.35725516080856323,"273":-1.4073147773742676,"274":-0.0848127231001854,"275":1.7839511632919312,"276":2.000469446182251,"277":0.7331846356391907,"278":1.446146011352539,"279":-1.0816936492919922,"280":3.3459012508392334,"281":-0.5261273980140686,"282":-1.5331377983093262,"283":2.9377622604370117,"284":1.1179758310317993,"285":-1.5642386674880981,"286":-0.39450979232788086,"287":1.918644905090332,"288":-0.2575039267539978,"289":0.1524507850408554,"290":1.2603363990783691,"291":-1.4782215356826782,"292":0.81305992603302,"293":-1.5044091939926147,"294":0.35148245096206665,"295":1.57966947555542,"296":0.2483271062374115,"297":2.8031165599823,"298":1.549527645111084,"299":-1.0320353507995605,"300":-0.22876711189746857,"301":-3.0230653285980225,"302":1.5409561395645142,"303":1.3312796354293823,"304":-1.9557056427001953,"305":-1.104370355606079,"306":0.07742518931627274,"307":0.22559475898742676,"308":1.1990996599197388,"309":1.79044771194458,"310":-0.035073209553956985,"311":-0.0015672813169658184,"312":-1.2030223608016968,"313":0.18746747076511383,"314":-0.5022572875022888,"315":1.3439610004425049,"316":-0.6771697402000427,"317":0.6484542489051819,"318":-1.8388874530792236,"319":-0.5744180083274841,"320":-0.8723027110099792,"321":-0.27543210983276367,"322":-0.4009576439857483,"323":-1.2278860807418823,"324":2.291473865509033,"325":0.942286491394043,"326":2.407944440841675,"327":2.262235641479492,"328":-2.9670069217681885,"329":2.832003116607666,"330":0.6853165030479431,"331":-0.6587792038917542,"332":1.2069270610809326,"333":-0.14532741904258728,"334":2.2276482582092285,"335":0.9529087543487549,"336":-1.332824468612671,"337":1.2265281677246094,"338":0.3672131299972534,"339":0.2583499252796173,"340":4.331766128540039,"341":-1.803894281387329,"342":-1.6702221632003784,"343":2.76547908782959,"344":0.6933025121688843,"345":-3.3545477390289307,"346":-4.952044486999512,"347":1.1718295812606812,"348":1.7028205394744873,"349":2.414435863494873,"350":-1.5845288038253784,"351":-0.7383249998092651,"352":2.7152252197265625,"353":-1.5051920413970947,"354":-2.1727559566497803,"355":0.6501332521438599,"356":1.6565855741500854,"357":2.5471746921539307,"358":0.5844842195510864,"359":0.2187703251838684,"360":-0.6725961565971375,"361":2.275172233581543,"362":0.9671052694320679,"363":-1.4887484312057495,"364":-0.33125537633895874,"365":1.4125206470489502,"366":0.3153436779975891,"367":0.20500187575817108,"368":-0.2658270597457886,"369":-2.859818696975708,"370":2.2763891220092773,"371":-0.9286013841629028,"372":2.2573964595794678,"373":1.4014050960540771,"374":0.3928644061088562,"375":0.9769589304924011,"376":-0.4706750214099884,"377":-0.6053563356399536,"378":-0.1384402960538864,"379":1.4703693389892578,"380":1.0393340587615967,"381":-0.2712952196598053,"382":-1.7962722778320312,"383":2.437407970428467,"384":-0.3862781822681427,"385":-2.4832074642181396,"386":-0.7411056756973267,"387":1.3363864421844482,"388":1.756784439086914,"389":0.9463664293289185,"390":-1.2356963157653809,"391":-0.5281752943992615,"392":1.5390805006027222,"393":-2.2269835472106934,"394":-1.7674427032470703,"395":1.200919270515442,"396":1.6452866792678833,"397":2.0362515449523926,"398":2.4912009239196777,"399":-0.34242647886276245}},"inputBias":{"rows":20,"columns":1,"weights":{"0":-2.040825128555298,"1":1.4183615446090698,"2":-0.06734692305326462,"3":-1.0255743265151978,"4":0.43720290064811707,"5":-1.5510329008102417,"6":-1.026746392250061,"7":-0.5985499024391174,"8":-0.6810829043388367,"9":-0.6176517605781555,"10":-0.42053425312042236,"11":-0.9012612104415894,"12":-0.9508262872695923,"13":-2.003913402557373,"14":-0.533475935459137,"15":0.5204155445098877,"16":0.33430323004722595,"17":-1.353070855140686,"18":1.758703589439392,"19":0.09449968487024307}},"forgetMatrix":{"rows":20,"columns":35,"weights":{"0":0.8509372472763062,"1":-1.2021870613098145,"2":-0.09561103582382202,"3":-1.8732136487960815,"4":-0.3963753879070282,"5":-0.5736579298973083,"6":-0.4694712460041046,"7":-1.6271576881408691,"8":0.7651745080947876,"9":-1.6780858039855957,"10":0.5249789357185364,"11":-0.33105266094207764,"12":0.8956888914108276,"13":0.5121991634368896,"14":-0.46078911423683167,"15":-1.2310869693756104,"16":-1.0470691919326782,"17":0.6702463030815125,"18":-0.9603233933448792,"19":1.2132855653762817,"20":0.426088809967041,"21":1.4496467113494873,"22":2.5131642818450928,"23":-0.22377042472362518,"24":-2.4055240154266357,"25":1.4415981769561768,"26":-2.1085703372955322,"27":-1.683793067932129,"28":-1.4469431638717651,"29":1.037598967552185,"30":0.4957813322544098,"31":-2.6156604290008545,"32":2.856804370880127,"33":-0.1688825935125351,"34":-0.6154246926307678,"35":0.669050395488739,"36":-1.4877156019210815,"37":-0.464419424533844,"38":-3.265416145324707,"39":0.5518251061439514,"40":-1.0401155948638916,"41":0.40573132038116455,"42":-0.7898761034011841,"43":-0.22324693202972412,"44":-1.1033859252929688,"45":-0.13866303861141205,"46":0.2621738612651825,"47":-0.9437380433082581,"48":-0.6136329174041748,"49":0.7622128129005432,"50":-1.1454373598098755,"51":-0.08053036779165268,"52":0.28972935676574707,"53":-0.5882593989372253,"54":0.6251623034477234,"55":0.09342452883720398,"56":1.3003082275390625,"57":2.865321397781372,"58":-0.9642768502235413,"59":-3.4417614936828613,"60":1.352978229522705,"61":-1.1014511585235596,"62":-2.5299856662750244,"63":0.08981973677873611,"64":1.5795139074325562,"65":0.17432771623134613,"66":-0.4204765558242798,"67":1.821821928024292,"68":0.4485339820384979,"69":-0.6168021559715271,"70":0.07419846951961517,"71":0.5798445343971252,"72":-1.6787810325622559,"73":0.7626121044158936,"74":0.7991442084312439,"75":-1.3090802431106567,"76":0.40704405307769775,"77":1.163834810256958,"78":-1.3919564485549927,"79":-0.5090694427490234,"80":-0.45777806639671326,"81":0.05187692865729332,"82":-0.4626772701740265,"83":-1.2794276475906372,"84":0.8891227841377258,"85":2.097853183746338,"86":1.0646203756332397,"87":-0.9399319291114807,"88":-0.3090099096298218,"89":1.443527102470398,"90":-1.161014437675476,"91":-0.6930699348449707,"92":-1.4558202028274536,"93":1.264840006828308,"94":1.05467689037323,"95":-0.35130998492240906,"96":1.3991572856903076,"97":1.029198408126831,"98":1.3076980113983154,"99":-0.8726017475128174,"100":-0.6951422095298767,"101":2.7133071422576904,"102":-2.1642813682556152,"103":0.16672146320343018,"104":-0.45873722434043884,"105":0.35909971594810486,"106":0.5456681847572327,"107":-2.8585903644561768,"108":-0.7189863324165344,"109":2.590719699859619,"110":-0.9072818160057068,"111":0.8433652520179749,"112":-0.3858146667480469,"113":-1.9582712650299072,"114":0.634196937084198,"115":0.07629647850990295,"116":2.490084409713745,"117":-1.5663446187973022,"118":-1.4775584936141968,"119":-0.33113327622413635,"120":-0.40087029337882996,"121":2.0044140815734863,"122":2.1773581504821777,"123":-2.439741611480713,"124":-1.7630537748336792,"125":1.7538143396377563,"126":-0.5539976358413696,"127":0.21760870516300201,"128":-0.2552540898323059,"129":-0.5426892042160034,"130":-0.4898145794868469,"131":-1.437105417251587,"132":-0.40780332684516907,"133":-0.5365745425224304,"134":1.2606953382492065,"135":-1.597170114517212,"136":0.21529333293437958,"137":-0.037930168211460114,"138":2.795933246612549,"139":0.721705436706543,"140":-1.15469491481781,"141":0.476458877325058,"142":1.5883903503417969,"143":-0.19030115008354187,"144":-2.5603952407836914,"145":1.6438212394714355,"146":-1.86994206905365,"147":0.7668670415878296,"148":0.9174184203147888,"149":-0.5493609309196472,"150":-3.130736827850342,"151":-1.0173908472061157,"152":2.619492769241333,"153":-0.8130159974098206,"154":0.20238859951496124,"155":0.031097544357180595,"156":-0.4147949516773224,"157":0.34941351413726807,"158":-1.8806836605072021,"159":0.09390823543071747,"160":-1.302660346031189,"161":0.31309282779693604,"162":0.29236915707588196,"163":-0.12970790266990662,"164":0.5813981294631958,"165":-1.4276372194290161,"166":-0.8404449820518494,"167":0.28044459223747253,"168":0.014020014554262161,"169":-0.2988205850124359,"170":1.1377030611038208,"171":1.556802749633789,"172":-0.35970214009284973,"173":-3.458400249481201,"174":-0.8823918104171753,"175":-0.310261607170105,"176":0.4016053378582001,"177":-0.291164368391037,"178":-0.03259772062301636,"179":0.08307170867919922,"180":1.575553297996521,"181":-1.1318153142929077,"182":-0.17541474103927612,"183":1.5180137157440186,"184":0.7099658846855164,"185":-0.6662148833274841,"186":-1.027955412864685,"187":1.0178468227386475,"188":0.6522345542907715,"189":0.39639535546302795,"190":1.5155181884765625,"191":-0.9686485528945923,"192":-0.9928153157234192,"193":0.21641050279140472,"194":-0.035659682005643845,"195":-0.2123177945613861,"196":0.5216212272644043,"197":-0.7537882924079895,"198":0.08188308030366898,"199":0.025954559445381165,"200":0.06157323345541954,"201":0.28207841515541077,"202":0.679568886756897,"203":0.3289835751056671,"204":-2.273881435394287,"205":1.2342863082885742,"206":2.108851194381714,"207":-1.2934207916259766,"208":-1.315777063369751,"209":-0.08878597617149353,"210":0.38032251596450806,"211":0.4303653836250305,"212":-1.380896806716919,"213":0.3839276134967804,"214":0.9046938419342041,"215":-1.483555793762207,"216":2.7188878059387207,"217":0.4875313937664032,"218":-1.251183032989502,"219":1.6942715644836426,"220":1.8662410974502563,"221":0.2335500568151474,"222":-0.4237440526485443,"223":-0.17794851958751678,"224":1.326946496963501,"225":-0.4961252510547638,"226":1.1032636165618896,"227":0.6951221227645874,"228":-0.7192397117614746,"229":-0.45053723454475403,"230":-0.8044060468673706,"231":0.14982867240905762,"232":0.6584120988845825,"233":-1.523419737815857,"234":2.905407428741455,"235":0.10893676429986954,"236":-1.055321455001831,"237":1.868155598640442,"238":0.41097158193588257,"239":-1.8058277368545532,"240":-0.5784615278244019,"241":2.525669813156128,"242":-1.753596305847168,"243":0.7802143096923828,"244":-0.0008628069190308452,"245":1.6188668012619019,"246":0.40529024600982666,"247":-1.6137746572494507,"248":0.8577619194984436,"249":0.5944347381591797,"250":-0.06300132721662521,"251":-0.3187698721885681,"252":2.0885322093963623,"253":-1.4277572631835938,"254":-1.287326455116272,"255":-0.5234711766242981,"256":0.8719685077667236,"257":-0.28700292110443115,"258":-1.2175997495651245,"259":-1.1364678144454956,"260":3.37288498878479,"261":0.6658892631530762,"262":-1.2197914123535156,"263":-1.1861870288848877,"264":1.393302083015442,"265":-0.5934997797012329,"266":-0.8237897753715515,"267":0.04619353637099266,"268":2.5828025341033936,"269":-0.3265303373336792,"270":-1.8407412767410278,"271":2.285938024520874,"272":-0.11611318588256836,"273":0.7041236758232117,"274":0.1819993108510971,"275":-0.13015732169151306,"276":1.2323980331420898,"277":-1.0556350946426392,"278":-0.25573161244392395,"279":-0.4352363646030426,"280":-0.28259727358818054,"281":-0.20688380300998688,"282":0.4151499271392822,"283":-1.3956845998764038,"284":-0.6118820309638977,"285":0.4249623715877533,"286":-0.1119389459490776,"287":-0.20777222514152527,"288":0.7752065062522888,"289":0.5415109395980835,"290":1.5966928005218506,"291":-0.5303354263305664,"292":-1.17875075340271,"293":0.5676295757293701,"294":2.4263057708740234,"295":-0.6475570797920227,"296":-0.0726710855960846,"297":1.1482387781143188,"298":0.5475459098815918,"299":0.5869165658950806,"300":0.6583340764045715,"301":0.584944486618042,"302":-0.46196267008781433,"303":-0.9843692779541016,"304":0.8295925855636597,"305":0.21674299240112305,"306":-1.209688663482666,"307":0.45530179142951965,"308":-1.4971152544021606,"309":-0.5146772265434265,"310":0.46604228019714355,"311":0.03804066404700279,"312":-0.7397868037223816,"313":-0.33790647983551025,"314":1.0695379972457886,"315":-0.7465420365333557,"316":-0.4965863525867462,"317":2.34892201423645,"318":-0.15781083703041077,"319":-2.51479172706604,"320":1.7348946332931519,"321":-0.42415428161621094,"322":0.009168964810669422,"323":1.5678678750991821,"324":1.0818883180618286,"325":-0.513392984867096,"326":-1.2195016145706177,"327":2.1802635192871094,"328":1.9202675819396973,"329":-0.4199138879776001,"330":-0.2545764148235321,"331":-1.8831366300582886,"332":0.8929958939552307,"333":0.30973386764526367,"334":1.4586009979248047,"335":1.0820344686508179,"336":0.5081644058227539,"337":1.7332441806793213,"338":-0.6488044857978821,"339":-0.5956475138664246,"340":0.7107362151145935,"341":-0.7258824706077576,"342":0.7279254198074341,"343":-1.1877739429473877,"344":-0.6078940033912659,"345":1.5553663969039917,"346":0.026114584878087044,"347":0.6831871867179871,"348":-2.0866386890411377,"349":-0.4138491153717041,"350":-1.051035761833191,"351":-2.1729021072387695,"352":1.429582953453064,"353":-1.1370025873184204,"354":-1.720625638961792,"355":0.825660228729248,"356":-0.14646533131599426,"357":0.5763633251190186,"358":0.4287036955356598,"359":2.710636615753174,"360":0.6888156533241272,"361":-0.2136300802230835,"362":-0.5176121592521667,"363":1.6796191930770874,"364":2.9320738315582275,"365":-2.0490522384643555,"366":-0.7377490997314453,"367":2.018550395965576,"368":0.3840678930282593,"369":2.2653462886810303,"370":1.0670920610427856,"371":1.7610487937927246,"372":2.113717555999756,"373":-2.430480480194092,"374":0.6453467011451721,"375":0.12593910098075867,"376":-0.6308913826942444,"377":-0.9700384140014648,"378":-1.7938647270202637,"379":-1.1548829078674316,"380":0.9791865348815918,"381":0.16231893002986908,"382":0.22874557971954346,"383":-0.4070065915584564,"384":1.035596251487732,"385":-1.4709020853042603,"386":-0.14527401328086853,"387":0.4210502803325653,"388":0.01965916156768799,"389":-0.7137245535850525,"390":0.2873513400554657,"391":-0.7119941115379333,"392":1.3959987163543701,"393":0.8852183222770691,"394":-0.6819369792938232,"395":-2.5773305892944336,"396":-1.3964070081710815,"397":0.44405397772789,"398":0.17599564790725708,"399":0.9211352467536926,"400":0.28416094183921814,"401":0.24083255231380463,"402":-1.8039544820785522,"403":0.4915148615837097,"404":-1.2566152811050415,"405":-2.5232880115509033,"406":0.23536016047000885,"407":1.266800045967102,"408":-0.4973961412906647,"409":0.5185723900794983,"410":-0.23538212478160858,"411":-1.477156400680542,"412":1.4564990997314453,"413":-0.4382990598678589,"414":-0.7684829831123352,"415":0.911421537399292,"416":1.616201639175415,"417":-1.2390551567077637,"418":-0.6441918015480042,"419":-3.5606260299682617,"420":0.0927020013332367,"421":-2.386197566986084,"422":-0.1429693102836609,"423":-0.6097939610481262,"424":0.06533806025981903,"425":0.6511181592941284,"426":-0.26483258605003357,"427":0.09948603808879852,"428":0.7822808027267456,"429":1.9616957902908325,"430":1.1863986253738403,"431":0.17153671383857727,"432":-1.2677327394485474,"433":0.8837564587593079,"434":3.6734251976013184,"435":-1.6204655170440674,"436":-0.23232223093509674,"437":0.4263227880001068,"438":0.14552751183509827,"439":2.099071741104126,"440":0.9002088308334351,"441":2.1658520698547363,"442":-0.7223049402236938,"443":-1.7159236669540405,"444":0.9997562170028687,"445":0.2057255655527115,"446":-0.7898774147033691,"447":-0.7063417434692383,"448":-1.5705496072769165,"449":-0.29474225640296936,"450":-0.095512256026268,"451":-0.8541721105575562,"452":-0.274088054895401,"453":-0.2842043936252594,"454":1.0944898128509521,"455":-0.3634103834629059,"456":0.9357117414474487,"457":0.19854550063610077,"458":0.6157314777374268,"459":-0.5370950698852539,"460":0.4492381513118744,"461":-0.821128785610199,"462":1.354259729385376,"463":0.5823442339897156,"464":-0.6379677057266235,"465":-0.22747696936130524,"466":-0.2777330279350281,"467":-0.043355122208595276,"468":0.6114861369132996,"469":-0.17556257545948029,"470":1.2045186758041382,"471":-0.04804026708006859,"472":-1.0182080268859863,"473":0.46903783082962036,"474":0.22340893745422363,"475":-1.4982935190200806,"476":-1.0139738321304321,"477":-1.0701411962509155,"478":0.9755885004997253,"479":1.402886152267456,"480":-1.0865581035614014,"481":1.6615487337112427,"482":0.932242214679718,"483":0.4832180440425873,"484":-1.032936692237854,"485":0.4146462380886078,"486":2.3947770595550537,"487":-2.003648042678833,"488":-0.7092558741569519,"489":-1.4548604488372803,"490":0.7311503887176514,"491":-1.1157149076461792,"492":0.07682473957538605,"493":-0.3150824010372162,"494":-0.1120862364768982,"495":-0.4428947865962982,"496":1.5748212337493896,"497":0.7959710359573364,"498":-1.068084478378296,"499":1.1167113780975342,"500":0.5799306631088257,"501":1.188292145729065,"502":-2.0202596187591553,"503":0.2971615791320801,"504":3.1759631633758545,"505":-1.047750473022461,"506":-0.4107699692249298,"507":0.289987176656723,"508":-0.14744053781032562,"509":1.1861611604690552,"510":0.36302119493484497,"511":0.4077683985233307,"512":1.6964701414108276,"513":-2.7759385108947754,"514":1.3667320013046265,"515":0.8089631199836731,"516":-2.191298007965088,"517":0.9048610925674438,"518":-0.3642536699771881,"519":-0.659972071647644,"520":-0.1277318149805069,"521":0.8380937576293945,"522":-0.4799864590167999,"523":0.23504024744033813,"524":-0.5496650338172913,"525":0.9284540414810181,"526":0.8749542236328125,"527":-1.2364678382873535,"528":1.009458065032959,"529":1.4014147520065308,"530":-0.43297094106674194,"531":0.4848927855491638,"532":2.135422706604004,"533":-0.07578758150339127,"534":-0.655401885509491,"535":-0.01148983370512724,"536":1.1435338258743286,"537":-0.6583970785140991,"538":-1.1969153881072998,"539":-1.1586614847183228,"540":2.8629467487335205,"541":0.8751657009124756,"542":-1.6205462217330933,"543":-2.396894931793213,"544":0.43783390522003174,"545":-0.2725641429424286,"546":-1.305059790611267,"547":-1.5869702100753784,"548":2.18794322013855,"549":0.5229321718215942,"550":-1.5659841299057007,"551":2.6926708221435547,"552":-0.2083273082971573,"553":1.8635461330413818,"554":1.611107587814331,"555":-2.0245718955993652,"556":-0.21741388738155365,"557":-1.5850359201431274,"558":0.5359657406806946,"559":-0.033922526985406876,"560":-0.5401277542114258,"561":-1.803515076637268,"562":-0.4416251480579376,"563":-0.6111545562744141,"564":0.08024737238883972,"565":-0.33447232842445374,"566":0.4946904182434082,"567":-0.7851552963256836,"568":1.1337274312973022,"569":0.546436071395874,"570":-0.08441164344549179,"571":-0.6361298561096191,"572":-0.08388075232505798,"573":0.9325276017189026,"574":0.7808877825737,"575":-0.2916615903377533,"576":-1.237017273902893,"577":0.6711521744728088,"578":2.0970869064331055,"579":2.3059632778167725,"580":0.4654347002506256,"581":0.4780968725681305,"582":2.032597064971924,"583":1.132811188697815,"584":-1.783138632774353,"585":-1.1267668008804321,"586":1.7055306434631348,"587":-0.6344494223594666,"588":-0.45188114047050476,"589":-0.6413884162902832,"590":1.0159122943878174,"591":-0.40157637000083923,"592":0.8459624648094177,"593":0.0379573218524456,"594":0.0580810084939003,"595":0.9119564890861511,"596":-2.3736937046051025,"597":1.0958329439163208,"598":1.5002328157424927,"599":-0.4077981412410736,"600":1.2690438032150269,"601":-0.29584842920303345,"602":-0.9219324588775635,"603":0.7039467096328735,"604":0.27843010425567627,"605":-1.906680703163147,"606":0.7005120515823364,"607":-0.3388213813304901,"608":-0.15653492510318756,"609":-0.33961203694343567,"610":1.3183783292770386,"611":-0.014048799872398376,"612":0.5262139439582825,"613":-1.3339107036590576,"614":0.4373478591442108,"615":2.336050271987915,"616":0.1197231262922287,"617":-0.04092821851372719,"618":0.7092655301094055,"619":-1.2181066274642944,"620":-1.1455694437026978,"621":-0.3422794044017792,"622":0.12703530490398407,"623":-0.9726991057395935,"624":0.5356156826019287,"625":-0.420360803604126,"626":-2.22575306892395,"627":1.009153962135315,"628":-0.4399140477180481,"629":-0.07887456566095352,"630":0.28607380390167236,"631":-1.3957635164260864,"632":0.5086758732795715,"633":-2.2191009521484375,"634":-1.139962911605835,"635":1.4612765312194824,"636":-1.0476020574569702,"637":-0.8238922357559204,"638":1.8466945886611938,"639":1.0723296403884888,"640":0.7944412231445312,"641":0.013741252943873405,"642":1.8977283239364624,"643":0.6217766404151917,"644":1.7087117433547974,"645":-0.841679573059082,"646":-0.6822364330291748,"647":-0.1073625236749649,"648":0.18151797354221344,"649":0.10643399506807327,"650":0.6597408056259155,"651":1.5692822933197021,"652":0.8332362771034241,"653":-1.4090906381607056,"654":-2.0644397735595703,"655":2.1875033378601074,"656":-1.2562823295593262,"657":-1.7383368015289307,"658":-0.531965970993042,"659":0.27421990036964417,"660":0.2885626256465912,"661":-2.102342128753662,"662":1.8357837200164795,"663":-0.927369236946106,"664":0.6172239780426025,"665":1.153788685798645,"666":-1.667438268661499,"667":-1.4320366382598877,"668":-0.43124762177467346,"669":1.5058343410491943,"670":-1.0749536752700806,"671":2.0596795082092285,"672":0.05256953835487366,"673":-0.9212932586669922,"674":0.8473477959632874,"675":-0.18432572484016418,"676":-0.03569882735610008,"677":-0.48499494791030884,"678":-0.8218945860862732,"679":1.3419268131256104,"680":0.020242592319846153,"681":0.38840287923812866,"682":1.1488831043243408,"683":-1.550546407699585,"684":0.6052314639091492,"685":1.2258800268173218,"686":1.0802316665649414,"687":-0.04251193255186081,"688":0.35141512751579285,"689":-0.32505232095718384,"690":-0.37217918038368225,"691":-0.11171795427799225,"692":-0.570214569568634,"693":-0.986390233039856,"694":1.5274004936218262,"695":-1.5099505186080933,"696":-0.8428293466567993,"697":0.7736626863479614,"698":1.1810222864151,"699":1.0416433811187744}},"forgetHidden":{"rows":20,"columns":20,"weights":{"0":-0.1649612933397293,"1":-0.3995994031429291,"2":0.4713031053543091,"3":-1.9822709560394287,"4":-0.5136297345161438,"5":-1.0572582483291626,"6":0.566347062587738,"7":-0.6258012652397156,"8":2.352684259414673,"9":-4.466796398162842,"10":-0.4311877191066742,"11":0.8777636289596558,"12":0.23355990648269653,"13":0.07824442535638809,"14":-1.8864881992340088,"15":1.787339448928833,"16":2.370109796524048,"17":-0.3909122347831726,"18":0.771086573600769,"19":-4.493038177490234,"20":3.6062660217285156,"21":0.13924774527549744,"22":-0.15287818014621735,"23":1.3427271842956543,"24":-0.539897620677948,"25":0.6205867528915405,"26":-1.474068284034729,"27":0.9892032146453857,"28":-0.14938409626483917,"29":0.7347908020019531,"30":-0.969660222530365,"31":-1.4846268892288208,"32":1.6797775030136108,"33":-1.2416783571243286,"34":-0.7464282512664795,"35":0.554688036441803,"36":0.5806586146354675,"37":0.8314473032951355,"38":-1.679435133934021,"39":-0.8368045687675476,"40":1.1846139430999756,"41":-0.3960918188095093,"42":-0.8778886795043945,"43":0.16005569696426392,"44":-0.8008840084075928,"45":0.2013428509235382,"46":-3.11603045463562,"47":3.1472041606903076,"48":-0.7789737582206726,"49":-0.5690792202949524,"50":0.37918561697006226,"51":-1.268973469734192,"52":2.109055757522583,"53":0.9540855884552002,"54":-0.5659196376800537,"55":-1.5910975933074951,"56":-1.891136884689331,"57":0.22638651728630066,"58":1.5457040071487427,"59":-2.830561637878418,"60":-0.14824093878269196,"61":-1.1915104389190674,"62":0.27404916286468506,"63":-0.9426879286766052,"64":-0.39182475209236145,"65":0.8893495798110962,"66":0.16982430219650269,"67":-0.5679275989532471,"68":-0.17256216704845428,"69":1.0548726320266724,"70":0.8657034635543823,"71":-0.34185078740119934,"72":0.11870002746582031,"73":0.44652342796325684,"74":0.3441998064517975,"75":1.0792635679244995,"76":-0.278583824634552,"77":-0.7462106347084045,"78":0.2115641087293625,"79":1.535210371017456,"80":-0.9525253772735596,"81":0.5845665335655212,"82":1.2193557024002075,"83":-1.7438071966171265,"84":-0.3864104151725769,"85":2.073702573776245,"86":0.4991261065006256,"87":-0.7212052941322327,"88":-0.6029729843139648,"89":0.9500848650932312,"90":0.24470831453800201,"91":0.5600084662437439,"92":-0.7013137936592102,"93":0.8168958425521851,"94":0.04014483839273453,"95":-1.7747128009796143,"96":0.2115129828453064,"97":-2.957690954208374,"98":-1.4596812725067139,"99":1.1423702239990234,"100":3.6774935722351074,"101":0.7655531167984009,"102":-1.0928901433944702,"103":0.13797707855701447,"104":-0.7643164396286011,"105":-0.34615838527679443,"106":-1.556201457977295,"107":3.3611807823181152,"108":-0.9681418538093567,"109":-0.49508237838745117,"110":-0.07397568225860596,"111":-2.494025945663452,"112":2.407700300216675,"113":0.15106000006198883,"114":1.5922977924346924,"115":0.3904665410518646,"116":-0.0023420085199177265,"117":0.4964727759361267,"118":0.26623883843421936,"119":-1.721962332725525,"120":-1.914061427116394,"121":-0.9153854846954346,"122":3.4755210876464844,"123":1.1818705797195435,"124":-1.046846628189087,"125":-0.6119146347045898,"126":-1.5544291734695435,"127":-0.25178760290145874,"128":1.5047600269317627,"129":-0.4785194396972656,"130":-2.6125991344451904,"131":-2.1232924461364746,"132":2.220757246017456,"133":-1.72348952293396,"134":-3.144437074661255,"135":-1.7455036640167236,"136":1.2149507999420166,"137":1.7390271425247192,"138":0.1362318992614746,"139":0.09267105162143707,"140":-1.0805412530899048,"141":1.4000086784362793,"142":0.22100181877613068,"143":-0.73212069272995,"144":-0.2153046578168869,"145":1.7070618867874146,"146":-0.6632893681526184,"147":-0.10504666715860367,"148":0.08044049888849258,"149":-0.7277560234069824,"150":0.842425525188446,"151":-0.587638258934021,"152":0.03801597282290459,"153":0.3118259012699127,"154":0.7075750827789307,"155":-1.8032143115997314,"156":-2.1405115127563477,"157":-0.960078775882721,"158":-1.7017250061035156,"159":-0.9051339626312256,"160":1.0185967683792114,"161":-0.007577939890325069,"162":1.0541636943817139,"163":-0.5248053073883057,"164":-1.490484356880188,"165":0.4149117171764374,"166":-0.2176230549812317,"167":0.9494002461433411,"168":2.176740884780884,"169":-1.0030101537704468,"170":0.4857131242752075,"171":-0.7621938586235046,"172":0.909966230392456,"173":0.2494235336780548,"174":-0.32663896679878235,"175":1.6012990474700928,"176":-0.7070866823196411,"177":0.4455832839012146,"178":0.761188268661499,"179":-0.25849083065986633,"180":-0.06748156249523163,"181":-4.800053119659424,"182":-1.0499099493026733,"183":0.7779151201248169,"184":-0.5850268602371216,"185":-0.8392316102981567,"186":-0.4050385653972626,"187":0.25007951259613037,"188":-1.4854317903518677,"189":1.207983136177063,"190":-1.2915726900100708,"191":0.12354821711778641,"192":0.207810178399086,"193":-1.171093225479126,"194":-0.5528456568717957,"195":-0.6509969830513,"196":0.30306386947631836,"197":0.33902910351753235,"198":0.3226460814476013,"199":1.4624998569488525,"200":-0.08850162476301193,"201":-0.7286271452903748,"202":0.4954725205898285,"203":0.5378587245941162,"204":-0.2667207717895508,"205":-0.3344166576862335,"206":0.49583083391189575,"207":0.12555904686450958,"208":0.23961126804351807,"209":2.603398561477661,"210":-0.40014079213142395,"211":-1.6558350324630737,"212":1.1691781282424927,"213":-0.5794374942779541,"214":-0.18497617542743683,"215":-0.34579387307167053,"216":1.1329312324523926,"217":0.2667209804058075,"218":0.052502069622278214,"219":-1.2093762159347534,"220":-3.9966201782226562,"221":0.24828630685806274,"222":1.860817551612854,"223":-1.2303823232650757,"224":0.3045254051685333,"225":-1.057159423828125,"226":3.153909683227539,"227":-2.420820474624634,"228":0.021468568593263626,"229":0.7098235487937927,"230":-1.147571325302124,"231":-0.5705937743186951,"232":-0.018659021705389023,"233":0.2112816721200943,"234":-0.15392686426639557,"235":-0.22435474395751953,"236":-0.3004196584224701,"237":0.22815974056720734,"238":0.24425941705703735,"239":0.9594088792800903,"240":1.5667009353637695,"241":-0.14462539553642273,"242":-1.6475253105163574,"243":0.41368624567985535,"244":-0.3037751317024231,"245":0.3997090756893158,"246":-1.439666509628296,"247":1.0252501964569092,"248":1.0259300470352173,"249":0.4313447177410126,"250":-1.317582368850708,"251":-1.6214467287063599,"252":2.2878260612487793,"253":-1.3515632152557373,"254":-1.0723789930343628,"255":0.3089331090450287,"256":1.0384421348571777,"257":0.17902767658233643,"258":0.9804742932319641,"259":-0.04265323653817177,"260":0.28154459595680237,"261":-2.6641693115234375,"262":0.5647286772727966,"263":0.23563283681869507,"264":-1.7552170753479004,"265":0.6941990852355957,"266":-0.024568600580096245,"267":-0.7622775435447693,"268":1.8533564805984497,"269":-0.9060957431793213,"270":1.5406302213668823,"271":0.43666762113571167,"272":-1.4424514770507812,"273":1.1274428367614746,"274":-0.13267619907855988,"275":0.24310262501239777,"276":-1.9347138404846191,"277":-0.18561102449893951,"278":0.9663394093513489,"279":-0.09364191442728043,"280":-0.7865667939186096,"281":-2.834244728088379,"282":0.1786404699087143,"283":-3.1175129413604736,"284":2.0262653827667236,"285":2.1978957653045654,"286":0.009617473930120468,"287":0.37497052550315857,"288":1.5151416063308716,"289":1.537575602531433,"290":-0.4970940053462982,"291":-1.0094695091247559,"292":-2.2452328205108643,"293":-1.1768696308135986,"294":-0.20464684069156647,"295":-1.2144159078598022,"296":-1.5858010053634644,"297":0.701530933380127,"298":0.32811039686203003,"299":0.2878328859806061,"300":-0.008295547217130661,"301":-0.5554797053337097,"302":0.5470093488693237,"303":0.48135843873023987,"304":0.3747532069683075,"305":0.9235700368881226,"306":0.8346379995346069,"307":-0.5835877656936646,"308":0.00747675308957696,"309":0.6883504390716553,"310":1.1734256744384766,"311":1.0338695049285889,"312":-1.4117971658706665,"313":0.06795551627874374,"314":0.8476400971412659,"315":2.78680419921875,"316":-0.012954464182257652,"317":-0.47053319215774536,"318":-0.05589687079191208,"319":0.45804262161254883,"320":2.45046067237854,"321":0.17285475134849548,"322":-1.6818996667861938,"323":-0.9488046765327454,"324":0.8585352897644043,"325":-0.47515034675598145,"326":1.3498544692993164,"327":0.1507260501384735,"328":-1.5942051410675049,"329":2.504417657852173,"330":2.3855910301208496,"331":2.301548480987549,"332":0.21997760236263275,"333":-0.476347953081131,"334":0.9640078544616699,"335":-0.8487620949745178,"336":-1.778265357017517,"337":2.210775136947632,"338":1.384252667427063,"339":0.5468780994415283,"340":-1.439099669456482,"341":1.092301368713379,"342":-1.5988956689834595,"343":0.8868668675422668,"344":-1.3919562101364136,"345":-0.14727632701396942,"346":1.2700293064117432,"347":-1.276416540145874,"348":0.2500866651535034,"349":0.25913140177726746,"350":1.226639747619629,"351":0.6950247883796692,"352":1.6564183235168457,"353":0.9532537460327148,"354":0.7584823369979858,"355":-0.9063135385513306,"356":0.8467673659324646,"357":-0.18830172717571259,"358":0.40568485856056213,"359":0.7200862169265747,"360":0.7376501560211182,"361":0.8189748525619507,"362":0.6737176775932312,"363":-0.006301243789494038,"364":0.573564887046814,"365":0.3520977795124054,"366":-1.9386199712753296,"367":0.9672769904136658,"368":-0.9271857738494873,"369":0.17672798037528992,"370":-1.0540908575057983,"371":0.3164841830730438,"372":-1.0357149839401245,"373":-0.1426476091146469,"374":0.8413230776786804,"375":0.9144650101661682,"376":0.07294580340385437,"377":-1.6062302589416504,"378":-2.19942569732666,"379":1.1349891424179077,"380":-1.0349493026733398,"381":0.6228067278862,"382":-0.09860574454069138,"383":-0.16805775463581085,"384":-0.8253543972969055,"385":0.983177125453949,"386":0.24308918416500092,"387":-0.42239102721214294,"388":-0.16982115805149078,"389":-0.3752135932445526,"390":0.47569039463996887,"391":0.7455374002456665,"392":-0.1519799679517746,"393":0.6122120022773743,"394":0.10332057625055313,"395":-0.2555862367153168,"396":-0.3290986120700836,"397":-0.368134081363678,"398":0.728464663028717,"399":0.26064881682395935}},"forgetBias":{"rows":20,"columns":1,"weights":{"0":0,"1":0,"2":0,"3":0,"4":0,"5":0,"6":0,"7":0,"8":0,"9":0,"10":0,"11":0,"12":0,"13":0,"14":0,"15":0,"16":0,"17":0,"18":0,"19":0}},"outputMatrix":{"rows":20,"columns":35,"weights":{"0":0.5714098215103149,"1":-1.4698566198349,"2":0.43559566140174866,"3":0.46204182505607605,"4":-0.0864785835146904,"5":0.7111023664474487,"6":-0.481377512216568,"7":0.01821872405707836,"8":0.9068207740783691,"9":-0.00917629525065422,"10":0.15454842150211334,"11":-0.553447425365448,"12":-0.6980832815170288,"13":0.000466586701804772,"14":0.18216486275196075,"15":-0.4888625144958496,"16":-0.10682838410139084,"17":0.009575335308909416,"18":-1.360491394996643,"19":-0.7218464612960815,"20":0.7785634994506836,"21":0.15943790972232819,"22":-0.8436212539672852,"23":-0.9406955242156982,"24":0.22467242181301117,"25":0.4897092878818512,"26":-1.3745845556259155,"27":-0.10482180118560791,"28":-0.3570934236049652,"29":0.07837124168872833,"30":-0.6153298020362854,"31":-0.2946809232234955,"32":0.24788878858089447,"33":-0.4415942430496216,"34":0.7905565500259399,"35":0.6769317388534546,"36":-2.0875203609466553,"37":0.14675410091876984,"38":1.560903787612915,"39":0.3004164695739746,"40":0.002176137873902917,"41":-0.4885278344154358,"42":-0.060068607330322266,"43":0.6871784329414368,"44":-2.238349199295044,"45":-1.84822678565979,"46":0.18961414694786072,"47":-0.34807682037353516,"48":0.014842819422483444,"49":-1.1043226718902588,"50":0.42350873351097107,"51":-0.3459888994693756,"52":-2.711544990539551,"53":-1.0387730598449707,"54":0.2065204232931137,"55":-1.6746277809143066,"56":0.5005080699920654,"57":-0.7708973288536072,"58":1.8908298015594482,"59":-1.3432934284210205,"60":-0.8483101725578308,"61":0.818507969379425,"62":0.8150600790977478,"63":2.375610113143921,"64":-0.8153899908065796,"65":0.5397468209266663,"66":-0.4192090332508087,"67":-0.36241835355758667,"68":-0.049842387437820435,"69":-1.5421429872512817,"70":1.995342493057251,"71":-0.8625286817550659,"72":1.6537144184112549,"73":1.0810056924819946,"74":-1.1795040369033813,"75":0.9911968111991882,"76":-0.3009093999862671,"77":-5.1118483543396,"78":0.18293793499469757,"79":1.7923420667648315,"80":1.8214104175567627,"81":-0.2095969170331955,"82":0.629892110824585,"83":1.3696177005767822,"84":-1.4133175611495972,"85":-1.4810479879379272,"86":-0.7560378313064575,"87":2.7609665393829346,"88":-1.149915337562561,"89":0.6369208693504333,"90":1.1401150226593018,"91":0.7935155630111694,"92":-1.0626524686813354,"93":-1.0279256105422974,"94":-0.9913117289543152,"95":0.4703385531902313,"96":-1.5852471590042114,"97":-0.02529413066804409,"98":-0.9859426617622375,"99":-1.613464117050171,"100":0.25738784670829773,"101":-3.002969264984131,"102":2.7800607681274414,"103":-0.6578706502914429,"104":2.1613619327545166,"105":0.004449476953595877,"106":1.6212785243988037,"107":-0.7723038792610168,"108":-0.17268146574497223,"109":0.634901762008667,"110":-0.493787944316864,"111":0.6727692484855652,"112":0.5283616781234741,"113":-0.662323534488678,"114":-1.3497414588928223,"115":-0.7253353595733643,"116":0.6175801157951355,"117":-0.8986383676528931,"118":-0.44230544567108154,"119":-0.43027716875076294,"120":0.4166897237300873,"121":1.380785584449768,"122":-0.3357093036174774,"123":-1.0677616596221924,"124":-1.2096521854400635,"125":-0.6759676337242126,"126":-0.9760138392448425,"127":0.15265022218227386,"128":-0.6982712745666504,"129":0.23289822041988373,"130":0.3126674294471741,"131":-0.7426115274429321,"132":-0.49812400341033936,"133":0.321824312210083,"134":0.9777284264564514,"135":-1.1885483264923096,"136":-0.057165227830410004,"137":-1.1990019083023071,"138":0.7406792640686035,"139":-0.43865904211997986,"140":-0.867253303527832,"141":0.38158154487609863,"142":0.8466665148735046,"143":0.29444512724876404,"144":-0.7828287482261658,"145":4.407559394836426,"146":-4.099392890930176,"147":-0.06398507207632065,"148":0.2485707700252533,"149":-0.3407617211341858,"150":-0.14591267704963684,"151":-2.01410174369812,"152":-0.7499577403068542,"153":0.8020954728126526,"154":0.508942186832428,"155":-0.2771405279636383,"156":-1.3352102041244507,"157":-0.212980717420578,"158":3.1956422328948975,"159":0.1240554004907608,"160":0.6438810229301453,"161":0.24434174597263336,"162":-0.970907986164093,"163":0.30087846517562866,"164":1.233163595199585,"165":1.5111078023910522,"166":0.4991171658039093,"167":0.024340854957699776,"168":-0.18637734651565552,"169":-1.4867284297943115,"170":1.1647943258285522,"171":-0.8019479513168335,"172":-0.32597124576568604,"173":-1.127533197402954,"174":1.0327883958816528,"175":1.0979539155960083,"176":-1.8169773817062378,"177":-0.024214433506131172,"178":1.1040323972702026,"179":0.525900661945343,"180":-0.05028483644127846,"181":0.33275115489959717,"182":-1.4383021593093872,"183":-0.08155610412359238,"184":-0.6737812161445618,"185":-0.13909079134464264,"186":0.000023110127585823648,"187":-0.29283586144447327,"188":-0.23686645925045013,"189":-0.30017730593681335,"190":-0.992536723613739,"191":-0.3220301866531372,"192":1.7371306419372559,"193":-0.6103388071060181,"194":1.582943081855774,"195":-0.33486706018447876,"196":0.5372027158737183,"197":-0.07979043573141098,"198":0.1657768189907074,"199":0.8261098265647888,"200":-0.8208436965942383,"201":-1.5876604318618774,"202":1.8906883001327515,"203":-1.7843241691589355,"204":-0.5230235457420349,"205":-0.4234244227409363,"206":-0.46140992641448975,"207":1.4629619121551514,"208":0.3318120539188385,"209":-0.7172152400016785,"210":0.029053734615445137,"211":1.3558694124221802,"212":1.0196391344070435,"213":-0.9474084377288818,"214":-0.45990851521492004,"215":0.9502725601196289,"216":0.31720009446144104,"217":1.3315908908843994,"218":0.5517849326133728,"219":0.4262753129005432,"220":0.705352783203125,"221":-0.22038723528385162,"222":-1.2314635515213013,"223":0.9890750050544739,"224":0.8984814882278442,"225":-0.03124760091304779,"226":-1.337323784828186,"227":-0.09398303925991058,"228":0.34551000595092773,"229":0.1735720932483673,"230":0.5273392796516418,"231":-0.39458560943603516,"232":2.5521533489227295,"233":-1.125943660736084,"234":1.427923560142517,"235":0.6622116565704346,"236":-0.6535631418228149,"237":-0.09272274374961853,"238":-0.1963462233543396,"239":0.11785323172807693,"240":-0.7497879862785339,"241":0.7073807716369629,"242":-1.0238131284713745,"243":-1.254456639289856,"244":0.6284334063529968,"245":-0.060721639543771744,"246":-0.7610456943511963,"247":0.6859229803085327,"248":-2.0590744018554688,"249":-0.4485151469707489,"250":0.13629524409770966,"251":-0.24489188194274902,"252":-0.8328372836112976,"253":0.14668522775173187,"254":-0.6900424957275391,"255":0.21416163444519043,"256":-0.1789383590221405,"257":0.4263269603252411,"258":0.15859617292881012,"259":-1.9648268222808838,"260":-2.096048355102539,"261":0.12775735557079315,"262":-0.3864438831806183,"263":-0.2702080309391022,"264":-3.010448455810547,"265":-0.5865012407302856,"266":2.454313039779663,"267":1.2022279500961304,"268":-1.3142895698547363,"269":-2.8162729740142822,"270":1.7675844430923462,"271":-2.354707956314087,"272":-1.6993094682693481,"273":-0.17435705661773682,"274":1.1315909624099731,"275":0.5843373537063599,"276":-1.755778193473816,"277":1.1075671911239624,"278":-0.518691897392273,"279":-2.417149782180786,"280":0.916104793548584,"281":-0.1012035608291626,"282":-0.2876723110675812,"283":-0.6853259205818176,"284":1.4886189699172974,"285":-0.7266209125518799,"286":0.9809739589691162,"287":0.11465160548686981,"288":-0.6399297714233398,"289":0.4030854403972626,"290":1.9227865934371948,"291":0.27043190598487854,"292":-2.4319252967834473,"293":-0.404619961977005,"294":0.5723170042037964,"295":-0.08982619643211365,"296":0.8626600503921509,"297":-0.1463998258113861,"298":-1.3368468284606934,"299":-0.32015249133110046,"300":1.4666208028793335,"301":-0.7858180999755859,"302":-1.1428428888320923,"303":0.47486114501953125,"304":0.678301215171814,"305":1.0749391317367554,"306":0.9208990335464478,"307":-0.48172491788864136,"308":0.4100383520126343,"309":0.6623935699462891,"310":-0.8088391423225403,"311":-0.2727389335632324,"312":-0.27095648646354675,"313":2.441256523132324,"314":1.3798376321792603,"315":0.5263150334358215,"316":-0.2734910249710083,"317":-1.3579543828964233,"318":-1.253313660621643,"319":1.1145884990692139,"320":-0.46883508563041687,"321":0.7225713133811951,"322":-0.6782320737838745,"323":-1.6904902458190918,"324":-1.6117091178894043,"325":2.290320634841919,"326":0.6122627854347229,"327":-0.647793710231781,"328":-1.3515281677246094,"329":-0.9792433977127075,"330":-0.31139349937438965,"331":0.8542159199714661,"332":-0.3191969692707062,"333":-0.9004755616188049,"334":-0.7415962219238281,"335":-0.28638756275177,"336":-0.0243165772408247,"337":-0.8606719374656677,"338":1.2717607021331787,"339":-1.5777424573898315,"340":0.8920919895172119,"341":0.639660120010376,"342":-1.9566397666931152,"343":0.112815260887146,"344":0.9700003266334534,"345":-1.0699373483657837,"346":-0.8017503619194031,"347":0.3865402340888977,"348":1.1498559713363647,"349":0.40165242552757263,"350":-0.54935222864151,"351":-2.050957441329956,"352":-0.2147899717092514,"353":-0.8356956243515015,"354":-0.21746762096881866,"355":0.23314423859119415,"356":-0.10698537528514862,"357":-0.5507345199584961,"358":0.5618401169776917,"359":3.0910756587982178,"360":1.300289511680603,"361":-0.3019733130931854,"362":0.5635188817977905,"363":0.5164908170700073,"364":1.604901909828186,"365":-0.3074822425842285,"366":-0.3183901906013489,"367":0.5457946062088013,"368":-0.6018218994140625,"369":0.42087602615356445,"370":0.9826439023017883,"371":0.5878980755805969,"372":-0.13912953436374664,"373":0.29157447814941406,"374":0.5969700813293457,"375":0.05746441334486008,"376":0.12337625026702881,"377":-0.9469051957130432,"378":-1.2627384662628174,"379":-0.008883204311132431,"380":0.11778108030557632,"381":-1.9237009286880493,"382":1.0385630130767822,"383":0.19969649612903595,"384":1.1744539737701416,"385":-1.3420850038528442,